solver_type L2R_L2LOSS_SVC
nr_class 2
label 1 -1
nr_feature 6144
bias 1
w
0.0002119876021643685 
-0.002915766283823879 
-0.0003698929293463423 
0.0014142458402594 
0.002762540324517587 
0.007749967097708338 
0.0035112366195084 
0.0004307533042536331 
0.0001898943399642295 
0.004942095077454921 
0.007827825896682187 
0.003691403341259409 
-0.0009310831962477394 
-0.009355202291086431 
0.009573052475801209 
0.001978860775375953 
0.0002407764109426286 
-0.004983288311356174 
-0.01214755580357009 
-0.008507464087705209 
0.003791515190526753 
-0.01271562589103529 
-0.002301850558181427 
-0.00271504390222295 
0.007695959812672081 
0.008711221959873739 
-0.004590803484163934 
0.00668573201188453 
0.001987541004811411 
0.0004536654340521989 
0.003263841046751225 
0.004252039017355986 
-0.00160351424141472 
-0.000313835226522209 
-0.00344191007298181 
-0.004342690947914039 
0.004134067304912279 
-0.001651944599386319 
0.008373327572533451 
-0.0003093975717460302 
0.001896499648302002 
0.002768801846230747 
0.004887066731695446 
0.0009649821604965112 
0.003553008436947734 
0.00535552579031435 
0.0114102073284146 
0.002161813688529452 
0.0006521597987310823 
-0.01286997643119389 
-0.005916631517527393 
-0.01304282434391347 
0.01635666215755674 
0.007322240504596475 
0.004538135499968315 
-0.002230540129258714 
0.01658158328288039 
0.01578822857337979 
-0.001179877368569554 
0.01435671312753699 
-0.006411185539057079 
0.003090506082904904 
-0.01339395755422391 
0.004437242738628341 
0.0005542002594353954 
0.005726584635859139 
-0.00198089709312999 
-0.001116954282206176 
-0.006534200666909382 
-0.006511344924047281 
0.00276808646149864 
0.006932692925065214 
-0.008246273632832615 
0.001729085398661336 
-0.0007900293728104267 
0.01303596883452032 
-0.01293637471286629 
0.01013787161952726 
0.002259908600615709 
-0.00998877422460577 
0.002738902691659897 
0.00835426985598214 
0.0007251911683712347 
-0.0008051159691698733 
0.001137358654316877 
-0.01356032059307716 
-0.008586361991372363 
0.009475399509351506 
0.003499899468628374 
-0.0156199128695307 
0.001610551088431997 
-0.002085512447807067 
-0.01069305088411789 
0.0001557805715116254 
-0.008422676768369556 
-0.0003807050516319737 
-0.002105536995893696 
-0.004432397372487256 
0.001386199746027599 
0.003677233576136394 
-0.00141931787575517 
-0.00390655869869266 
-0.007910840900207312 
0.005507949629246266 
-0.002168454755991736 
-0.002265920577896052 
-0.004538839721764804 
-0.004013494662687979 
0.001041860361781126 
-0.004131191044065696 
0.008451984613440659 
0.006461427441192488 
-0.0003105662638050402 
-0.01001579350321874 
-0.006967351363696914 
-0.01364516046732605 
0.007745718570188301 
-0.004261252904834608 
0.001181230785237226 
-0.001494428016875148 
-0.01037991705740677 
-0.000666443017154954 
-0.0008602215848818193 
0.002643135028031871 
-0.01043746306709631 
-0.007271068657776669 
-0.001437630909526816 
-0.001822932085228745 
0.002298620988529522 
0.00442013770568845 
-0.004351581406183048 
0.006533128889092832 
-0.008111095493935015 
-0.0009444569998520451 
0.004375312426365115 
-0.005438786991181882 
-0.0009008027857024464 
-0.004020612742014346 
0.007392884215181254 
0.007605369225465207 
-0.01072550329301905 
0.001560935151043731 
-0.001173254611749873 
0.002311367064916273 
0.0003599215798803433 
0.001003900115843778 
-0.005499170784081279 
-0.0001658965962807112 
-0.0003798142065926809 
0.0004022179899407401 
-0.002681614120839029 
0.002034373498575934 
0.01599673745438015 
0.001205439041854704 
0.004833914466253897 
0.001738019871816797 
0.003898177539716656 
-0.005935420106763214 
0.02179071902236245 
0.008533762752941196 
0.01139681529196224 
0.002016444575132553 
-0.007317148315736263 
0.006808705125310471 
0.00862376066326123 
0.0006480206815894119 
-0.007042492091914329 
0.01089487563615454 
0.00373252897091365 
0.01145321004592067 
-0.008177687372656553 
-0.003537944103212509 
-0.0002401978483826126 
0.002108553884466962 
-0.003725184006923751 
-0.0018766744699173 
0.01008432600043176 
-0.003033295119331233 
-0.003798606853684007 
0.00107029131004187 
-0.01397357890446818 
-0.006053616293570206 
-0.003678395091737869 
0.008380256305038459 
0.01149331214725758 
0.003980348570618283 
-0.008104310541974323 
0.00746400020852619 
0.002183890319175519 
-0.0006393940378342852 
-0.01698116827689188 
-0.00157165446797175 
-0.006972798166745077 
0.00867967674520043 
0.01495634201944243 
-0.002981192003428636 
0.02010496567914174 
0.004689615474985934 
0.0002834521954852214 
0.001326383250039024 
-0.005506780633802911 
0.0008376460687717089 
-0.01215225585782203 
0.005064805600054291 
-0.007685312310660089 
-0.005180805290886238 
-0.005997171995678618 
0.003406296259712188 
-0.001513112513473504 
-0.005691917853013195 
-0.008377195555970567 
0.007560407555745291 
-0.004064394610254693 
-0.002681039434679738 
-0.005712425827664912 
-0.0001814069077852368 
-0.005856148082383055 
0.0004553270271889324 
0.007245744323347243 
-0.005136840857461052 
0.01135066369100401 
0.00130078359926497 
0.0008398715042723567 
0.005395014932503671 
-0.0003794164686997758 
0.002829629133517746 
0.002003538255078522 
0.00844364897369923 
-0.001369529297585936 
-0.001356668510861864 
-0.003802847824501515 
0.005453845848265409 
-0.003305288623060913 
0.002266223118826242 
-0.001751166535576508 
0.004708852591208582 
-0.01277142264068222 
0.001295229146477898 
0.002087699511666058 
0.0004236078950859995 
0.0001501151620052916 
0.003829396323070583 
-0.006099322176414718 
-0.0003773714647705733 
-0.0005438496623912848 
-0.004644369459236783 
0.002098339190259499 
-0.000620287986216952 
0.0005181555419103587 
-0.004968757314782813 
-0.01049694640059626 
4.337573068065376e-05 
0.001814590643954402 
-0.0004403036532168292 
-0.0008147081662051195 
0 
7.742564096577296e-05 
0.00481364016128855 
-0.0005680653110810508 
0.004967298863593953 
0.005229424669312163 
0.01162220030838263 
-0.001638686099000511 
0.0006679343812603498 
-0.001311907645727874 
0.001091537704475461 
0.01252430503270081 
0.006784316793155035 
0.005542591844913465 
-0.005237158749517514 
0.006420576258110773 
-0.0005108601105483279 
-0.0005731633491977895 
0.0004310034095095683 
0.007152400008219055 
-0.002219355249891968 
-0.002028984582031661 
-0.006824659111193229 
0.002004758159879098 
-6.002672955788846e-05 
0.002067470024983064 
0.01422834681337455 
0.004938465913676558 
0.003497463970940278 
0.01006976814423138 
0.000119710483551832 
0.01940257533445272 
0.006386968531226796 
0.002908740929910753 
0.002818637093341006 
-0.009857173674798178 
-0.005028049054309914 
0.009007863813776332 
-0.01194763939166632 
0.002176921538150212 
-0.008186253885094622 
0.002668837225057473 
0.005268731952659781 
0.0004527902423327973 
0.001580964513684427 
-0.008802388199453118 
0.01483989622302033 
0.01886484585956558 
0.004251554999449752 
-0.004411515842172013 
-0.01137295550307649 
-0.001955601400152026 
-0.001634820635054633 
0.01446650763298054 
-0.004115065422360505 
0.01042013787928256 
-0.001145237181080609 
0.007702359261707342 
0.01480836808609563 
0.0006142223464685526 
0.01458526885624013 
0.0005042390773661008 
-0.006759311383550049 
0.002138746813422398 
0.003880488599362695 
0.0007218966103805766 
0.003557404341724357 
0.0007811058783432916 
0.01818433962296063 
0.004909678215728185 
-0.01132509831728091 
-0.01089943291111767 
-0.002172997721631498 
-0.002613861634779517 
0.004698628351874044 
0.008098558943106349 
0.003649499284176066 
0.0003512538267833392 
-0.00510741479453379 
0.006352517060058425 
-0.008704174846362602 
0.004482857350954068 
0.005174789325599838 
0.001481159193668642 
-0.006416573642070086 
-0.003775497404043189 
-0.01478343988321703 
0.00894323657685008 
-0.009490295346660318 
-0.002797701451378457 
-0.005813641838039821 
-0.0007521135552942389 
-0.008091946056595254 
-0.00640779332704935 
-0.007759303832091373 
0.0009123331082138543 
0.007257308093397741 
-0.0002375457430028594 
0.009804810339219658 
0.005620728043495409 
0.006311453024801492 
0.003142179569029981 
-0.0006516046108881051 
-0.01051788994475302 
-0.001361442315057247 
-0.003739297157214447 
-0.003406051536236177 
0.00510064318065896 
-0.002334284618412002 
-0.005702963719960483 
0.006948459560793728 
0.003156615623272176 
0.004831570926786812 
-0.005288748410765848 
-0.003677580140403941 
-0.005271016414279616 
-0.009797846412870802 
0.009069187897245073 
0.00207167612531856 
-0.004055743164951654 
-0.008465573726318678 
0.01183352024168172 
0.005607530914857011 
0.00579423497034951 
0.00458180714939518 
0.003865166102213628 
-0.008371467750874731 
0.001417255331589357 
-0.002879525993756403 
0.006258572691448199 
-0.009445443219781137 
-0.00684152007075559 
0.00973611062918097 
-0.002224716723910715 
0.007762330918120566 
0.01443285769311131 
-0.002350133979398731 
0.002090574723651115 
0.01432738809646378 
0.005914401632047987 
0.001927788894651966 
-0.01105269241188395 
0.004646715500563809 
-0.01340723823369007 
-0.003436649422783679 
0.0006244619741419658 
0.00643886198003069 
0.0008862264177108087 
0.01129772253810258 
0.0005455438520870553 
0.003681270959938298 
-0.0008066596948315358 
0.002006571695054849 
0.003363942667757323 
-0.0003915555261533999 
-0.01147964549397047 
-0.005740405788218023 
0.01243138678657773 
-0.00616196825244669 
0.0225245533290069 
0.003492578663917543 
-0.004315586156881603 
-0.0003093002420577868 
-0.01956956289472353 
-0.009335595985361003 
-0.0003334825122842573 
-0.00148596882458611 
-0.006480535030379031 
0.002817611767845831 
0.003177574483342997 
0.01784359916500786 
0.001204676334948645 
0.01249235695399853 
-0.003105617416644538 
0.006290695594870712 
0.003891952847124191 
0.002788132806431782 
-0.002892049786297281 
-0.002433764417009513 
-0.003703804894906097 
-0.007809776927729515 
0.0006520113198489785 
-0.0005878149481773395 
-0.001594171844363229 
0.001740348231079889 
0.007723175126643043 
0.007750118217816931 
-0.008758335299794088 
0.01721420167300029 
-0.009758440484542268 
-0.001577091947773756 
-0.01211886172551649 
-0.002310628486351965 
0.001181551935025359 
0.007531486178141452 
-0.001444700289654017 
-0.006688713643838528 
0.02074366180213694 
0.002351347800076038 
-0.009535679655940883 
-0.002341280068448656 
-0.002608662456987215 
0.00241753263682324 
-0.01528970983924922 
0.01507288798048662 
0.01182809439357662 
0.002024745280996997 
-0.008885472111520633 
0.005160120223829073 
-0.004761786411230783 
0.004790930495142042 
-0.006945485007131659 
0.008445726233492211 
-0.001863568921908847 
-0.005882921059604261 
-0.004100588434274193 
0.001026116673047748 
-0.001871841473799752 
-0.006281645026934973 
0.002637527533866801 
-0.004070962508851151 
-0.001121680167638866 
0.000314400900285464 
-0.001761956178062087 
0.001060059275654119 
-0.005447264115698498 
0.0103962973179314 
-0.003166805780801433 
0.01082842976605025 
-0.008310486482285053 
0.006754479100148618 
0.003642337022085567 
0.0008365512688802231 
-0.002278566732501688 
0.002673021994477735 
-0.01482799701854013 
0.0006910640065320657 
-0.007793256874596124 
0.0001563027305496932 
0.00575086944279669 
-0.001218627373152366 
-0.002829682118149818 
-0.00418581276615351 
-0.00985298122537687 
-0.001959771698546818 
0.001580182773042876 
0.001467149263552793 
-0.00324393434965505 
-0.0004156434962132868 
-0.0009195270481062279 
0.005676962043794447 
-0.0083582067370618 
0.0003837794397330436 
0.0001451086551206956 
-0.001037038352149508 
0.0007312862675351058 
0 
0.0002581034455897251 
0.007802068848710686 
0.0006876973944838498 
0.004361321030389496 
0.0009879982042538557 
0.01018576157274656 
-0.003265748390795166 
0.003510884596253621 
-0.0005682347866278332 
0.004788546757551955 
0.006215500633723229 
-0.0007232655983868558 
0.002505567481664067 
-0.008436574106073949 
-0.008953825366034337 
-0.003373949676348259 
-0.0005688635409790777 
0.008488528506903821 
-0.002877089712416862 
-0.001963464465920835 
0.004355081866796394 
0.008765736537342536 
0.002491552896317931 
0.0005586841748975273 
0.005167889343361063 
0.02359436228455134 
0.004037774893139863 
0.008019959426878562 
0.008187089004145939 
0.006967781054540438 
0.01068006628100296 
0.004147035864884129 
0.002452391129395519 
-0.0008396529368888013 
0.004308741768661778 
-0.005000177029213372 
0.008283127144851408 
-0.00217766933319532 
0.004781153088445068 
0.004641343010117525 
-0.000189681838940381 
-0.0007116665585170329 
0.002351905809325545 
-0.0006473311665868377 
-0.0002904050646087079 
-0.001417389995200016 
0.007225712856220804 
0.004800795577040609 
-0.002069331474726346 
-0.007476565431061197 
-0.005456918525991848 
-0.01477844728374078 
-0.01163428865494568 
-0.003254494590331228 
0.002625695726169142 
-0.0009124504376369088 
0.01020621341183745 
0.01013764342483448 
-0.001850009223662666 
-0.0001354338457670293 
0.005019917203918015 
0.006627807507885147 
0.01931288010006818 
0.001823498088220344 
-0.0007586178320239654 
0.001496405299813897 
3.379317980475501e-05 
-0.004351263579287959 
0.005554879845132146 
0.007366923496615357 
0.007958889122532928 
-0.005278722147479613 
0.002839371116757808 
0.003121540158797514 
0.005737965625871725 
0.004866233503011295 
-0.009126922274666615 
-0.01022319561925595 
-0.003215157610811407 
-0.002929289515798704 
-0.007977093478710881 
0.01253859268821477 
-0.001422478412726632 
-0.0123738707614579 
-0.00530775122695492 
-0.00999486576902664 
0.002350260776909475 
-0.007956170812163162 
0.005731037602294902 
-0.00173900770556924 
-0.0005016019349701466 
-0.008729425950238713 
-0.002991050202463048 
-0.01500341682484863 
0.003485674074140842 
-0.004613616477663261 
0.001296095383919067 
-0.003239299621297191 
-0.005663870238590703 
-0.002348853407444792 
-0.0006186759196018675 
-0.01001712986674971 
0.004274097980286442 
-0.006237716666433859 
0.0002285793068508369 
-0.005312354218248277 
0.006198180683632321 
-0.003155757197990768 
-0.01518709411019799 
0.00734771082319675 
-0.002157850542397526 
0.0008455349381428109 
-0.01007417316691223 
-0.02212274360210785 
-0.002056048054453628 
-0.01657237771579606 
0.002639342799837644 
0.004181232198667358 
-0.009977392166726747 
-0.001313689189482556 
0.009851562692707167 
0.003436278663287952 
0.007558457397254373 
-0.01781143783956401 
0.002117480677403236 
0.001389435938849135 
0.001695999272999158 
-0.004290194820503013 
-0.0008287454177818752 
0.006144817368620599 
-0.007820333722604302 
-0.001415885825300037 
-0.01427796627211606 
-0.003729448519970722 
0.006513794576311925 
0.009105598365435383 
0.0002224575949792216 
0.01345464495045074 
-0.009718109387050308 
-0.006802047532030707 
-0.0008179656744636285 
-0.005792295673830054 
-0.00881861501527237 
0.003268899736369909 
0.0005207390593532223 
-0.004404671564889059 
0.001833523779976156 
-0.005248616278414772 
0.00295235589415991 
-0.0009600022753155688 
-0.0007149182900743739 
0.004398346690709413 
0.0009399370104847722 
0.007205516639466682 
-0.01209337182119161 
0.005683140758966854 
0.01284434797070095 
-0.006467730136627351 
0.01207450389805512 
-0.002626204322011968 
-0.02032925490772494 
-0.01034785816111527 
-0.01854219250896985 
-0.01466500512051596 
-0.01531079635198677 
-0.003350094507159236 
-0.003908603958385435 
0.00477182404434922 
0.01023365087323846 
-0.01322797952832662 
-0.009764448929239616 
-0.0003095176013671599 
0.0009637638406490155 
0.005770984378245107 
0.007359907940834596 
-0.0002040476986480968 
-0.008328759404341643 
-0.003711116844139888 
-0.006971453077660892 
-0.01233764600385758 
0.007104314474578098 
0.003368155209873439 
0.008603474288045521 
-0.004920666220886136 
-0.0006370758891326993 
0.008974654628523612 
-0.003332892801905839 
0.003869668917685896 
-0.005036848263052732 
-0.006841477770817776 
-0.006421440115040359 
-0.001151773358780431 
0.00569705287760672 
0.01353714730575932 
0.008491604259603181 
-0.002580691247805108 
0.01216068307150622 
-0.003583698331367586 
-0.00960295238078235 
0.01051937275333114 
0.007129083915843537 
0.01997079395155101 
-0.005455936570583698 
0.00293244520992032 
0.007752458812156497 
0.0008659648327202766 
-0.008778208403224045 
-0.00631490755795913 
-0.00644886575806958 
-0.008861195265849994 
-0.008935328281875283 
-0.0008402339590783656 
0.0005922552438249674 
1.201206007412587e-05 
-0.005611053793240013 
0.002705119120908085 
-0.001734564636912405 
0.00171648956901422 
-0.003786798324000521 
-0.007829350351472376 
0.0009824557240021656 
-0.008723585649101728 
-0.008356353701767048 
0.001173443981485121 
-0.0001749590797720949 
0.005817370527396738 
0.003124363629016352 
0.007451023989014881 
0.007519999405420377 
-0.00429250059441465 
0.004619421369190036 
0.001380483567283175 
-0.001417631560432094 
0.003441085687926535 
-0.002780548300655495 
-0.01176301046301683 
0.006710209598328448 
0.001635069014883573 
8.658155034450626e-05 
0.000718302073822381 
-0.004726181032664488 
-0.006797511227647324 
0.00182803638550072 
0.001825930722441546 
0.005242769119370042 
0.01068858937737914 
-0.007466224519009794 
0.001957282892745227 
-0.0005612678926593458 
0.003150617169416412 
0.00262502036428527 
-0.004740649666928318 
0.005256258122045327 
-0.0004095817925469412 
-0.002047583619293155 
0 
-7.725953165517421e-06 
0.00166791491365097 
0.000209224022050439 
-0.002504003122628759 
-0.0002980592857848154 
-0.007172572074417819 
0.002235589042596237 
0.0005299752999523568 
-0.0005267110636008324 
0.0004110415926425661 
-0.001433402890869438 
0.001249856686294757 
0.001899051794656828 
-0.001119312253327393 
0.004602118553742286 
0.002248258897212482 
0.0004084662586158827 
0.0002891040606727467 
-0.005160648943744358 
-0.003942299363279732 
0.00465949375187067 
5.977822826734181e-05 
0.00194533189030249 
-0.001321349676850088 
-0.004539966241152741 
0.01386261949011801 
-0.005181809664518206 
-0.001525540681113556 
-0.005356107498483691 
-0.005451325374239454 
-0.00612125363542004 
-0.0008846547103821001 
-0.001034978569857906 
-0.002499833644900676 
-0.002017446562610962 
-0.007066643227231174 
0.003562971376293666 
-0.003839678043826992 
-0.005427851192313367 
0.002684346625859329 
0.003857895885199831 
-0.000815475901942565 
0.004606386121579817 
0.0008141384175418494 
-0.007762230629258867 
-0.00978484909594186 
-0.002601723730570074 
0.003728489400282311 
0.0005697168925092737 
-0.006855064262034928 
-0.01260144967409837 
-0.01481544842680158 
0.0005472974217864623 
0.003079387306383313 
-0.0003277466336598392 
-0.0005995120563834703 
0.005870982371418982 
0.001654596634552731 
0.004469469146414622 
0.01052262033609294 
-0.005376998210559044 
-0.003202529555176662 
-0.003115133867166051 
0.004311371768352742 
-0.001034134937624845 
0.002766834265553058 
-0.003389671637438567 
0.005687663287903199 
0.004893953546217453 
0.000316272941784846 
0.02290319268375901 
-0.003615478995032358 
-0.002844891628500696 
0.004397001071813216 
0.006210281033120563 
-0.0003565774358866053 
-0.01297790305793532 
0.0135598236897351 
-0.0008406748639806629 
0.001764252372948296 
0.0006194117824862826 
-0.0007621954113749061 
0.006833385886922847 
0.005254103094886468 
0.001119903322490852 
-0.01278618312836791 
-0.002426312104996418 
-0.002574988898787153 
0.0001511178577027188 
-0.005297080989592491 
0.0003995712472049519 
-0.00547374106429582 
-0.01852399239476759 
-0.01899722365702832 
0.007610660517993353 
-0.008778052913290476 
0.003020315251598666 
0.0007829655598827341 
0.02262450992384418 
-0.01584465383676498 
0.007093864913802778 
-0.006278630288425521 
0.002366521747883939 
0.01185030156143336 
4.397569629959137e-05 
0.0002147169562521998 
0.003043915794019465 
-0.00188836051893578 
0.0004719216822289972 
-0.005487633548406022 
-0.0002124158939581306 
0.006165713618193722 
0.005186553370362038 
-0.00902710046050958 
-0.003178269021359929 
-0.009750930630041833 
0.003334072478496198 
-0.01122956428731736 
0.005716284186002476 
-0.008284618256650736 
-0.002334605552853761 
-0.003030009042534075 
0.00237407301755211 
-0.002932291488884515 
0.001979091981202648 
-0.00325094780978608 
-0.001650316382510981 
0.001519479762107098 
0.002668150934851394 
0.003724024950416995 
-0.006234159275862914 
0.008021279941153656 
0.004179773598839001 
-0.01227687338276867 
-0.004807719337894182 
0.002310715939382767 
0.003221761472422487 
-0.005551804633462696 
-0.0001837204373875799 
-0.009358343500167756 
-0.01493011641771779 
0.002336578839819091 
-0.004866690029369243 
-0.009414199167093495 
-0.002595980529093813 
-0.001527725388203818 
-0.0009098791495761207 
-0.007448179960344389 
0.002769591366514449 
0.002805259071281416 
3.178965174081049e-05 
0.001978276492960939 
0.01242119198303954 
0.01164996110671546 
0.004870521145884972 
0.006603799372302585 
0.001770902093595446 
-0.01191772590012453 
0.009019815062977526 
0.004318120325118469 
0.0009052283980910951 
0.001876473950982534 
-0.002256508703712473 
-0.004620328146342064 
0.01004060508682703 
-0.005872738670226032 
-0.002153889130946438 
-0.003244545749190626 
-0.009867078413242652 
0.006323632486800212 
-0.01801197637407666 
-0.001649525711046468 
0.008906090390307226 
0.01286515508732174 
-0.006053238140383429 
0.006464717775180838 
0.0006146795053710431 
0.002527052223200745 
-0.006770728797914799 
-0.006872829873427032 
-0.004611253220025127 
0.006009298833632833 
-0.0107640840607367 
0.008797612909690569 
-0.015379629386788 
0.01128951090412415 
-0.01861598539714292 
-0.005836654277754566 
0.002172707325679118 
-1.431136289791124e-05 
-0.00904644515337324 
-0.001751141200713894 
-0.005823971028767563 
-0.002727926871521751 
0.01283185361988435 
0.008591988744528352 
-0.002764767469935031 
0.003404510755830715 
-0.01123641118729385 
-0.005527783045149328 
0.00384076240244959 
-0.01249818021476964 
-0.009434923963754116 
-0.005910179690302164 
-0.02067275267019234 
0.001719118003227304 
-0.005412981549754168 
-0.001361237774670434 
-0.003443382754734941 
0.002805541700010799 
-0.005555258662669591 
-0.007083637000630782 
-0.003389157286162712 
-0.004329304222949907 
-0.003271040504203167 
0.001848532292775841 
-0.01407762453339639 
-0.001905028613792612 
-0.001899657273510338 
-0.001906263319750769 
0.005035498029606013 
0.00155648017438368 
-0.01143654103577335 
0.002962335856217126 
-0.0008503283207807147 
0.001987455301220997 
-0.009793684117389788 
0.0009369469392595075 
-0.003318046367459514 
-0.006384666068466465 
-0.01675981971811588 
-0.003161699809693782 
-0.0003928235982308193 
0.003811989017219453 
-0.006978189506352925 
0.003784144094490524 
-0.0001857115349536181 
0.004635804718058045 
0.001115621536620202 
0.0003277380802226011 
0.0003059361232228771 
-0.001440058168974117 
-0.01310437387930456 
-0.002014743654392409 
0.0003887165406087101 
-0.0002315986510511071 
0.003142008615419464 
-0.0009839096009641658 
0.003042404643203223 
-0.001964735120710814 
-0.008019458482640919 
0.001572804938127231 
0.00564954331107905 
0.001048081828293709 
-0.0001728907239003355 
0 
-0.0002806555909020798 
0.006423490360922949 
-0.0003827325161153723 
-0.0002189952888403528 
-9.875294295629422e-05 
0.002824021488900641 
0.0008209144130445815 
-0.003007588120241561 
-0.001025225329772409 
0.002312880463461313 
0.003878022643985341 
0.003331440502711387 
-0.004791245904280714 
-0.00974448095023929 
0.0003036393310220098 
-0.0008882834518450705 
-0.000695980029922563 
-0.003027998565486971 
-0.002875219992536748 
0.003741393255328396 
0.001649335231675838 
-0.003235121631069348 
0.0009454733072924795 
-0.0001131990617049311 
-0.006625076202117831 
0.002401179208960227 
-0.002779332288420975 
-0.004398378941758595 
0.0008023366077931489 
-0.010151865318774 
-0.01022155493424991 
0.0009350446646828248 
0.001615573737822649 
-0.002000798654487765 
-0.005291208714914934 
-0.000432459753176583 
0.001027285987526729 
-0.01370249324428545 
-0.01015799400262027 
-0.007362519773709571 
0.004334584377237782 
0.003260486132088888 
-0.001964251350693406 
0.001606221513076828 
0.01269002530675877 
0.004189433931120624 
0.008990858875593373 
0.008231746679381254 
-0.005568515568850196 
0.005844166344340846 
-0.006068097327545378 
0.008268792017552935 
0.01242792019994123 
0.005398608655948236 
-0.005773035967647387 
-0.007056105268337851 
0.0009539288913019745 
0.009966763688157935 
0.002422149397797619 
0.005256156995496835 
-0.003315902957962545 
-0.006505241784199031 
0.004856155143782098 
0.003269501717404564 
-0.001073755514105829 
-0.0002501377505678594 
-0.003206628727421676 
0.005852301984343756 
-0.001121573819520296 
-0.005033163338747627 
0.007374253818307893 
-0.005651195726422942 
0.0005768693396973858 
0.006658965390960254 
0.009172543676906893 
-0.008201719950450392 
0.00456100135681291 
0.002826556617044819 
0.01148272327983813 
-0.009670541831512709 
0.004419885369880663 
0.0008031275475381659 
0.0007520105767595143 
0.003738905912300015 
-0.006607490758267417 
0.004734176230189815 
0.01367059032513006 
-0.01288870514359421 
-0.001599530273355842 
0.004108335457888921 
0.0007413861650745027 
-0.007190111132034124 
-0.006922091133595276 
-0.01393650423897076 
0.004402207090316359 
0.001230377241776802 
0.00578458046525343 
-0.0006021323861628108 
-0.002351367949664026 
-0.00544590265773552 
-0.00243134707205016 
-0.008806077035050024 
-0.006239346862988573 
-0.00706079668960794 
-0.0003129609489778352 
-0.0009270375711242137 
0.01695491402258635 
0.00112791244170461 
0.007703921012801288 
0.003364577359462137 
-0.004259871786765364 
0.006935062852628385 
-0.001315343094415618 
-0.003870694664823919 
-0.01067016196017376 
0.01071010709435128 
0.009805600954013559 
-0.009341479227264547 
0.005153792072848669 
-0.009714926630041481 
0.007752234911825878 
-0.001520692975605372 
0.002463588346088128 
0.01311639560949374 
0.004518529792280534 
0.0009161455006900714 
-0.003320587207682002 
0.0006433638980675266 
0.002924121037087917 
-0.003911923459949588 
0.008432453067082643 
0.0112905224521884 
0.005099568084944095 
-0.002315143013578797 
-0.005195207417071321 
-0.004338626586164418 
0.008167868691886243 
0.008077234778226054 
-0.0101963032850411 
-0.007586502834149213 
-0.01522495080377471 
0.004759686763631946 
-0.01254726670390156 
-0.009068179791034478 
0.0004596603693349277 
-0.003066529972724428 
0.003488983544777881 
-0.005075488341588781 
0.0001628104627364752 
-0.0004650319399363091 
0.0003881353844496461 
0.003579119143428378 
0.004100764551678728 
0.003425751866135024 
-0.001483140889744223 
0.0003241051876122196 
0.005738518489519541 
-0.01039290648149761 
0.009264652083525698 
-0.002957814033833469 
-0.0009251947676105543 
0.01622569655967422 
0.01202329021718329 
-0.006919019020034296 
-0.007360571520274594 
0.0003301975564778494 
0.002570031485935127 
-0.01466321468689172 
-0.008134703799615848 
0.0008106323461956265 
-0.02087874079410142 
0.007003439992008849 
0.00763377860001573 
0.004569358023421418 
-0.001096830370735628 
0.003428763658217448 
-0.0002363796307934079 
0.002792499769512351 
0.001123379726230935 
0.00160722431290868 
-0.001717375402909478 
0.0002635138809114621 
-0.006787643231044188 
0.00299953286579112 
-0.003522566364503643 
-0.000953272567869362 
-0.01486181340862185 
-0.003031443968440581 
-0.01144040819891099 
0.000518127523637058 
-0.01231553087538956 
-0.002385463187878014 
8.121059846871232e-06 
0.004500527573540146 
-0.01105017305795613 
-0.0102297331013835 
-0.007406494669433829 
-0.0005857545965692616 
-0.01432448204003274 
-0.01625849504217435 
0.007476227631615613 
0.004297431513472079 
-0.006114888832392606 
0.001232132017235567 
0.009510861143030749 
0.001695913777806103 
-0.009406931075803799 
-0.002174192107637931 
-0.00169713226160918 
0.01561658623922271 
-0.008497367052759251 
-7.147055450678342e-05 
-0.003047100288768702 
0.001035538263850925 
-0.0004648281948639337 
0.0004455263796888709 
-0.006124352249240612 
-0.002511163509963281 
-0.002620743027822571 
-0.003869275357602392 
-0.01027460549535208 
0.001743194872806709 
-0.007850786580088469 
-0.001860037338426775 
-0.0006557159202259898 
-0.001495253392631544 
-0.01270374363799384 
-0.001245912148445465 
0.002229046713604663 
-0.004507701528656053 
-0.001952701863855895 
-0.007937804563175627 
0.00202153306524758 
0.004473520964127639 
-0.00535364630036297 
0.001512257873015587 
-0.002967873801849182 
0.0003626346789647672 
-0.002406814565036928 
-0.0007255562423760812 
-0.001087210149287163 
0.0003405769335756413 
-0.004141224699736722 
-0.009461374644547519 
0.002943337177359045 
0.004566715784688285 
0.001209606190922111 
-0.0008510676718022985 
0.003081894774449126 
0.004317005141269664 
0.006542937497859386 
-0.0001132907495979798 
0.003850906219229502 
0.0004251490015861947 
-0.0002941207110449619 
0 
-9.238912253433542e-05 
0.00707240649233836 
0.0002075687559842666 
0.004366926447595805 
0.0003209499928091126 
0.0007816018981590239 
-0.005665335354472343 
-0.002672590043807869 
5.021657478201768e-05 
0.003400173313530469 
0.0008611548262069759 
-0.000185742645881634 
-0.001921001150363402 
-0.009172053275281207 
0.0005796079609072399 
-0.002732792949898942 
-0.001424422984745188 
-0.004571084036243353 
-0.002228141990926031 
0.006174452323367519 
0.007099859351119149 
0.005238897067323858 
0.001702326228932352 
0.0002298581968533912 
-0.00208803987566379 
0.009075597789859592 
-0.0002007256581664925 
0.003578557989536591 
0.01145122248346372 
-0.01426973535089206 
-0.001421500362573315 
0.0005507156178179391 
0.004445946349419296 
-0.01103822703432427 
0.01193290599553314 
-0.001433689249138681 
-0.001440835125577418 
-0.004782278107639723 
-0.0001332094550798668 
-0.002271594760477952 
0.005471511129267003 
-0.001000965489018129 
0.004732385367275242 
0.001875654648965664 
0.001903239434908847 
0.004246154554392038 
0.004038590933359825 
0.00709062936421558 
-0.002797127055641634 
-0.007683225411401785 
-0.003067480758942201 
5.637619269928917e-05 
-0.004207952306782841 
0.003366808561735007 
-0.01243058706440166 
-0.001585548556034301 
-0.001783242985853437 
0.01212199600967207 
0.0007612834566966997 
0.00366432108068255 
-0.007574271381082141 
0.002387598191613888 
0.009290996690190524 
0.0002016097751169305 
0.0002660160586439695 
0.002792407489997416 
0.001058637270499253 
0.001373902813398393 
0.006304833339553932 
-0.0009752427716681529 
0.001675034914326765 
-0.01381787265666558 
-0.007231669062059796 
0.006584514425252059 
-0.0009138153652977859 
0.0004168656428490633 
-0.01322027390147743 
-0.00392482826636342 
0.006932537082193664 
-0.004212025436148696 
0.0005158453700076843 
0.0002876016548042694 
-0.001903523752072401 
-0.01169300488068322 
-0.005866393968836371 
-0.006503319283087741 
-0.001678289246350365 
-0.01184943570493953 
-0.005977428765267941 
-0.001379641300848478 
-0.001121288614616192 
-0.006154720187931213 
0.0007666819684152441 
-0.01146274172415982 
0.006652093867866295 
0.001422549718962801 
0.002021077193331127 
-0.01437645841651326 
-0.002802180529277359 
-0.01310157344495063 
-0.006845235251261644 
-0.008825140642010308 
-0.01745365797321021 
-0.01225599991462522 
-0.003521823356497253 
-0.004181240359432897 
-0.01028822374810076 
-0.002055514674709313 
-0.008416723974367997 
0.01051306222370664 
-0.002256460847062755 
0.002141107579951325 
-0.007828470425580257 
-0.004093279128749047 
-0.01322165007367883 
0.003756307737552055 
0.003857704219928169 
-0.002096003094643304 
-0.004980535285506771 
-0.001306710154451597 
0.008721689614504691 
-0.004471887000776618 
0.002394391169928574 
0.002638292885802451 
-0.005301305925640663 
0.003404562996393276 
-0.003772863297196445 
-0.001871616954351598 
0.001937468836700151 
0.005405198478207235 
0.005250110288953732 
-0.0004708726223150249 
-0.01269241434117477 
0.001477193479982144 
0.003972901453928704 
8.247976464144953e-05 
0.008734655282529579 
-0.001003717240081172 
-0.006239199676023212 
-0.02214090790089317 
-0.003414587311726228 
0.005481403799138486 
-0.02077548059726286 
-0.001718204038765335 
0.003116196420859102 
-0.00188895529671091 
0.0088802155730028 
-0.01001156457905811 
0.002371121623963984 
0.006621995128187681 
-0.0003689402599292399 
0.005955284073539529 
0.00939406282323592 
-0.008145210052836107 
-0.001367806072985443 
-0.008919364147467227 
0.0003589983043856916 
0.005677249620387364 
0.001198403336743425 
-0.001732607938381138 
-0.01834618888586712 
0.001518117820183528 
-0.01385915342792633 
-0.005396480705920842 
-0.03004407051071263 
0.003722540081156435 
-0.003887708997198717 
-0.0003375738164289493 
0.004460990169162338 
-0.01301195459790287 
-0.01434162790861516 
-0.004857687171794047 
-0.005105115564072555 
-0.01189201767424848 
0.006592895774776021 
0.0007097075396479743 
-0.007320854014341401 
-0.003188375294958122 
-0.009106191016435087 
0.001667491438298111 
0.009119322817307591 
-0.001318530884573429 
-0.001495834543061293 
0.00735786896387016 
-0.01310898540097991 
-0.009168767325147004 
-0.01603651904611284 
-0.006530266112259249 
-0.003291170015057349 
0.001069256637278577 
0.001156536799962624 
-0.001547409457087918 
0.002219154818178043 
0.003564695851802981 
-0.008141871073031494 
-0.003671141005238941 
0.0005052532566662761 
-0.004495496441053486 
-0.005868501769475444 
-0.009075711029734299 
0.009026068851559746 
0.0179659085372242 
-0.00811095612535085 
-0.00624013643246992 
0.01156229570334025 
-0.006724788129558855 
-0.004501272715520351 
-0.006210553433517582 
-0.0008937186091149238 
-0.006453926783576686 
0.009688148479986029 
-0.00152488732107733 
-0.003064693279385642 
0.003888085287266011 
1.385296943542109e-05 
0.003771689082572717 
-0.0005224364646660012 
0.002922039053118748 
-0.01154819174854942 
0.0001599797555312459 
-0.008246042262928058 
-0.01355950331828786 
-0.01576633348811819 
-0.001082489367197055 
0.0003798596415899032 
-0.01052788364886075 
-0.005753251541557814 
-0.01017563084818078 
0.007712153936404258 
-0.004962359781832459 
0.003428491336568565 
-0.003462117277754126 
0.0003610939856697309 
0.003490315257997074 
0.006923696861994295 
-0.004362220983640528 
-2.20347999336337e-05 
0.002106382225090719 
0.002309290526871671 
0.001683500313234604 
-0.002096634445841276 
0.0041344517115341 
-0.005233954570182313 
-0.005763515599268693 
0.007302595680827294 
0.003614296683188661 
0.003500566298838629 
0.001144106735801988 
0.0007747005263740996 
0.004189421613746076 
0.006194435204588179 
-0.001981317737932918 
0.007334814254080672 
-0.0001950462788574265 
-0.002383139286609151 
0 
-2.578703025899566e-05 
0.00070732933016006 
0.0008679848802141301 
-0.0009030834724552384 
0.004305800684832624 
-0.005683162400083822 
-0.001228274906387105 
-0.0003227136580371611 
-0.0007932128844262914 
-0.00073079550777146 
-0.001537823717618678 
0.003231611556506136 
-0.007664408447541613 
0.0004413021735990296 
0.003932597767027059 
0.001838374269622462 
-0.0007874111930514277 
0.0006475124217915244 
-0.007821163446671862 
-0.00494728127540481 
0.002121560672049508 
0.004705520748547454 
0.003561617951479017 
-0.001695561548058738 
-0.008468608635023739 
0.02134992684319648 
0.0003081565672583543 
0.006989448172868382 
-0.002132008140319167 
-0.0009974195644478546 
-0.01180545156519772 
-0.008365276943620764 
0.002411957994857107 
-0.004727303778345631 
0.007065854166834117 
-0.005406016150507161 
0.01084941607098292 
-0.01035627367168163 
-0.0110797752598626 
0.00239384236342081 
-0.00109035015329578 
-0.003158781776736138 
0.01084115891457299 
-0.000280344576933521 
-0.01531202782709763 
0.004441286907539245 
0.001287130456567691 
0.007726562736426944 
-0.004278160580975955 
-0.01122294279817106 
-0.004468125484290181 
-0.01662847190728418 
-0.003198705941006714 
0.001678188300996773 
0.004588317968362815 
0.004052885567033875 
-0.009074546207775451 
-0.002508616490438391 
0.0004894538619043733 
0.008088956362319403 
-0.01497008526011045 
0.001411714333774584 
-0.01518426565779662 
0.002070690871030974 
-0.000411750044348773 
0.001678944295114133 
-0.003224252895625638 
-0.001962192504484011 
0.0106571824062572 
0.002344933945568893 
0.004267755302325408 
-0.00851159365709429 
-0.005434516848666911 
0.0007929852970382838 
0.005925418565732586 
0.008489747834458165 
-0.004778173746725295 
0.006198747951462037 
0.001106068509700527 
0.001675132725969796 
-0.00668155512239711 
0.004252155018141453 
0.004475812767161086 
-0.003488663053495492 
0.01207902083591865 
-0.01241390399223936 
-0.006047000319079449 
0.001281279312813928 
-0.0006093180615346619 
-0.0008521883678303028 
-0.001267316199261682 
-0.003702568280983788 
-0.00282976403153897 
-0.01115645335240531 
0.007383448633380363 
-0.008901837015121853 
0.002276774617324622 
0.008028092176960436 
0.0231022546708901 
-0.01260867458888823 
0.009076865908888043 
-0.001864449143555301 
-0.00673141022179021 
0.000710132772070163 
-0.003155174297625696 
-0.00272116030374795 
-0.0006571034764417989 
-0.001396651137583803 
-0.00215684807028736 
-0.00276312208611106 
-0.001317932769221497 
-0.001032250885674814 
-0.003506340864566014 
-0.001974353111634843 
0.0006654717327517675 
-0.005296842365094968 
0.009376926788861276 
-0.0007437901393402108 
0.0006877340503913463 
-0.01135736329342897 
-9.225210756272471e-06 
-0.003405815564866159 
-0.003307579487433566 
-0.002395539296395094 
0.0002185761919819721 
-0.0006947048120216221 
0.001145599994642747 
0.0009060082430796598 
0.005150226836558913 
0.0009374698262130358 
-0.0110291442249383 
0.003849774812559451 
-0.001560296573564223 
-0.01701269764429735 
-0.01898911508823139 
-0.004712110637945771 
-0.004325700567964159 
-0.00715732698910479 
0.003493338656147631 
0.009359018576027009 
0.0006949059660522716 
-0.004628200180711158 
0.0002382927573240883 
-0.006997851933179554 
-0.003119102634822701 
0.005429912989315341 
-0.00709712731959788 
-0.00153641360091255 
0.003307704960490996 
0.00743748212285989 
-0.0018217362905293 
0.003090393457280758 
0.001214253923316819 
0.01346015396066998 
0.003080414616762266 
0.01238868745763194 
0.009705445718137657 
-0.007895282499247796 
-0.0001916050097711543 
0.004904332494110947 
-0.003580131064122249 
-0.0009811919482805491 
0.000553564712997537 
-0.008193588117257173 
-0.004017976403460035 
-0.008801888730944611 
-0.001061781223246328 
-0.003529629560041921 
-0.00866065868157139 
-0.003940051012716171 
-0.01084937094256534 
0.007768037323706028 
0.006383511569490361 
0.01880554482944937 
-0.01032447893917916 
0.01384334891017572 
0.001934314325005623 
0.00282175029488352 
-0.003468483230801411 
-0.006177704727409418 
0.01483787569684204 
0.004747592853788722 
-0.008725891019557563 
-0.0001229874798540247 
-0.01122519251594155 
0.0006899809872413225 
-0.005131166276730907 
0.004798698275486424 
0.008813066943605013 
0.003312450728318052 
-0.002027713918781041 
-0.0003447937963246865 
-0.001220967983224022 
-0.001172715901639491 
0.004532302025723399 
0.007400346887431942 
-0.01314417343408784 
-0.004230346877632427 
0.001452494717218925 
-5.137208429748631e-05 
0.0005758754621615611 
-0.0075925176979887 
-0.0009152623959664285 
-0.005162307489376045 
-0.005344198201776614 
-0.001641915374824607 
-0.01184772064835776 
-0.01335844370314669 
-0.002714461061220933 
0.004729688512312607 
0.008357517059897648 
-0.008292652421406241 
0.001369285882463056 
0.009854586628348899 
-0.001751412878751728 
0.003346434380668303 
0.008400024502781447 
-0.0001346782047503209 
-0.005407193194897221 
-0.01580618518980076 
0.008066075001062311 
0.009612919263936674 
-0.00687063626943524 
-0.001246717070720712 
-0.002327981726272001 
-0.005389113425661917 
-0.01264897506012616 
0.004461356010428483 
-0.01804413848103549 
-0.007395136682300283 
-0.01618094482707264 
-0.004204190754562283 
-0.003527894303779963 
-0.0001367213382586013 
-0.009513128248043982 
-0.002333707332482824 
-0.004391873646050174 
-0.007590749111594997 
-0.005823767207915155 
0.0005882732133477264 
-0.003372862624053284 
-0.006838304196782668 
-0.005916624478605011 
-0.009647913628521063 
0.002381035325931719 
0.006918679017698044 
0.001986661224034228 
-0.0009510859409927971 
-0.002883054719537594 
-0.0005155942161876758 
-0.003823816829955363 
0.003275543417093099 
0.004433355327927124 
0.0008170188317322864 
-0.0008053143599261945 
0 
-0.0002824465394657205 
0.002866050691616702 
-0.0003693243974357781 
-0.002188812712059204 
0.003864919291610774 
0.001056836104757616 
0.002850405970089732 
-0.001301287603437246 
0.0002660904785383328 
0.00357725853880446 
-0.001748114551076913 
0.0004928520210996701 
-0.006302614858118838 
-0.00751646710959281 
-0.00586454382826003 
0.001372859262992144 
-0.0008368056771039853 
0.00495493115463229 
-0.01148068154148046 
0.0009820450711468631 
0.002646798978012088 
-0.001979496390913032 
0.00312192195618598 
-0.0003905115337667046 
-0.005015747650479482 
0.001009254662755549 
-0.004283532747609968 
0.006173474740040251 
-0.001543244105126801 
-0.002936222545706641 
-0.007168979277684141 
-0.00279083352303477 
0.004964353124916158 
0.009273385683908225 
-0.002133149760123076 
0.001559348192666448 
0.01463387276953194 
-0.002727721946159149 
-0.007502596202355171 
0.006958435595606686 
0.003270555005579125 
0.001048747692519976 
-0.002342609369792753 
-0.0009163674934847373 
0.00728020954248207 
0.0006673836828117961 
0.007337152324217858 
0.007995713048132107 
-0.004386249532403045 
0.0006264878244826578 
0.008327894983629066 
0.002179419793365835 
0.0006465272601037091 
0.003876363794872197 
0.002481395007786547 
0.007462774376104621 
-0.0003497353166898774 
0.005598568121432663 
0.001766322837309226 
-0.01191416984569772 
-0.005717855621953408 
0.0006299698255495981 
0.001014730693756284 
0.002852102931773107 
-0.001861424196093107 
-0.002140076891622182 
-0.006305386411908447 
-0.004648520781628569 
-0.003410591816753871 
0.004613954705478994 
0.003701211427760558 
-0.005862596353740286 
-0.0001187699736630171 
0.003223266133563001 
-0.003182208684125029 
-0.004779394661161005 
0.004476437788772616 
0.00306711159672694 
0.01289946560639443 
-0.005968204279525723 
0.00322993418988597 
-0.001694124361314409 
0.003411445043097258 
0.0121702169526632 
0.00349479923404267 
0.00668210974148225 
0.002782848855160881 
0.001580853752962336 
2.41942680514864e-05 
0.005265596651493481 
0.0005843505195077651 
0.002188415245034261 
-0.002299035532034121 
-0.005965189705933426 
0.009222924302116469 
0.007822197133802422 
-0.002025856690061291 
-0.00326825399240149 
-0.01356699308964151 
-0.004529813668485106 
0.01580476225723124 
-0.009856480310845267 
-0.003384678362904394 
-0.005277245526798428 
0.001330081999510927 
-0.00126743655174817 
0.008581942620085835 
-0.001093950184978348 
0.006532193982100308 
0.002791230859058445 
0.003893609642114566 
0.004854827790524818 
0.002172615784958708 
-0.0004864131292678876 
-0.00236293527852871 
0.006187838186600902 
0.01191730547595716 
0.001243558684140489 
0.002434440149673356 
-0.002470436529477284 
0.01229439482498249 
-0.0007105697374407305 
0.004644782786101478 
0.004482849020027519 
0.008817482235857266 
-0.001527256824510018 
-0.003974427350821755 
0.002989179857988247 
0.005025402635002786 
-0.002929783417809155 
-0.004223835641953636 
0.005167096393283594 
0.008152813945169316 
-0.003781223341785744 
-0.01015682787603095 
-0.008185928395981772 
0.007055957825342798 
0.005232458565441849 
-0.0002964906496745495 
0.004846511783293528 
-0.001673687209239073 
-0.001054859781475807 
-0.006450706792879947 
0.007264667685640019 
0.003961770895675803 
0.0001104947613834622 
-0.007663592539930038 
0.001699533120001097 
0.0007440894233299868 
-0.001696493683693079 
-0.003818232058441411 
0.003022194048999464 
-0.007473848422869955 
0.006555127776215498 
-0.003981953333493642 
0.002398370661461459 
-0.003677880466271752 
-0.0108046378949289 
-0.002707606227236848 
-0.00285909918500326 
0.004807779635873347 
0.01478753407110685 
0.0174952451695908 
-0.005595472383216103 
-0.005553148448922029 
-0.002547143546700089 
0.003909931455484209 
-0.001968791658646198 
-0.01016927234123468 
-0.0018200668254772 
-0.008018775856730135 
-0.0004575803304948086 
0.009621558458508416 
0.01632280777919411 
0.004492186769823132 
0.001014478227831859 
0.008375996243084277 
0.004202834370563682 
0.01651720136823047 
-0.0009698034234541111 
0.00356050453436768 
-0.004485608823504255 
-0.007500874400091799 
0.003644918947950907 
-0.000666965169195081 
-0.009018694626193858 
-0.001752143860572475 
0.00101350356449076 
0.004472853176259815 
-0.002928097124189745 
0.0006201620395699076 
-0.001774188671647176 
0.003359960362701158 
0.0005850087531359511 
-0.005128613957818037 
-0.004175629048909178 
-0.007088961001722279 
-0.002664582080194308 
-0.01176567303744269 
-0.002126995282041216 
0.007383200276988937 
0.0008056191647677586 
0.005413384740318506 
-0.003512573547287187 
0.004641099140199394 
-0.003350589337390328 
0.002754412194471215 
0.001129310645032327 
-0.002263001499627982 
0.008619937453943899 
-0.002132986085251894 
-0.002397485335467427 
0.0004002800585356091 
0.008628683461500789 
-0.001752253052237035 
0.002963725485600757 
0.003574221258822619 
-0.003823957543874869 
-0.002125892834852695 
0.001985805834498847 
0.003127492161775107 
0.002974295985922585 
0.003337975390350524 
-0.001872010804385638 
0.003798175157104366 
0.01413784106117594 
0.00196499862978735 
-0.0002683154499116615 
0.005463415717931452 
0.003423068076769014 
-0.003038883217575868 
-0.003746938819566737 
0.001652359592973039 
0.002997812999940054 
0.005053866719375777 
-0.001640600549679444 
7.047200317346731e-05 
-0.002429914069292939 
0.00173447846551241 
0.0005036257041646599 
5.992890448707166e-05 
0.005382911597506256 
-0.0007380238001953071 
-0.002422956067068082 
0.0008507077919347416 
0.005970851646300665 
0.0004049613261948609 
0.0002961965208343973 
0.002315553278466472 
0.003065738553862061 
0.0005446511304928815 
0.004001117166615511 
0.0004762855833948926 
-0.001083444958233831 
0.001577573611276363 
0 
-2.339178952094512e-05 
0.001935884093965251 
0.00170342718361343 
0.003359558115234698 
0.001093947082540109 
-0.01086951173709702 
-0.00410278100548677 
-0.006321901163069877 
-0.001443633739941939 
0.004481856137123416 
-0.004515542503542093 
-0.004213799064660581 
-0.01061999187056874 
-0.001262753409037105 
-0.01276088330893147 
-0.003428847680366251 
-0.002948927462993672 
0.0001146347335274879 
-0.002373392473377823 
-0.00331027792249309 
0.005758504443815514 
-0.0005748647032999229 
0.003793224683944949 
-0.0036855610617905 
-0.007154530239348992 
-0.0002813304312752966 
-0.009532079403281503 
0.006399652840975393 
-0.003192619362506484 
-0.0009765007986788957 
0.01093359197553609 
-0.005773917697901062 
0.004923616054452401 
-0.009781974185877163 
0.008206083093141777 
-0.01898853900145243 
0.007018770865153872 
-0.006948332443710066 
-0.0004150981931720487 
-0.008121418580675624 
0.009699678679056349 
0.004043958524650583 
0.001252933492620426 
0.0006356468996742158 
-0.0002063006975856723 
0.003458051627316154 
0.004526352945665064 
0.002663385780544463 
-0.006979728491346638 
-0.01221040793218213 
0.006057165737267268 
0.007183624922919355 
-0.008807920861016972 
-0.003955307024692339 
0.00222150417197611 
0.00287236732268292 
-0.001400855882767194 
0.006179763723655733 
0.0001588564035095604 
0.008495228173402567 
-0.003481523170188868 
0.008884198437718397 
0.007747764935620187 
-0.0005267761133977435 
0.001227401342000623 
0.009496760051134621 
0.001756941803353018 
0.001447439141945396 
0.001770299998117706 
-0.0002795495074942792 
-0.004771324882287436 
-0.008652827584631333 
-0.01004825082367821 
0.01245881655861062 
-0.01067896076977436 
-0.004745961622145437 
-0.006825493170028646 
-0.0001504948496678409 
0.002864798766513623 
-0.009162432764435379 
-0.001843294601253536 
-0.007872865131278484 
0.002767867547759741 
-0.001754047465088674 
0.002238626800612143 
0.003868348640484138 
-0.01026692432563082 
-0.0012130174361791 
-0.01219822354633065 
0.005947880918301133 
-0.001494779562363138 
0.004354212240951794 
0.000896473382416859 
-0.005918882076978414 
2.982666059251946e-05 
-0.005717216549087218 
-0.001838430577533409 
-0.0018908706876099 
-0.00279849113704551 
-0.01136355027476389 
-0.002868834374328967 
-0.002067359846554445 
-0.001266982541684007 
-0.001335721663542622 
-0.001718977321433297 
0.0002035967457280215 
-0.0007879538560325296 
-0.003900057859976374 
-0.005607145135362179 
0.008730283500819773 
0.00289885121248076 
0.002231436026738083 
-0.001595153180091949 
-0.008144742816599862 
-0.01654491143434451 
-0.002115822373909507 
-0.002757611609446103 
-0.0007194293640105863 
0.001880464946221066 
-0.01608283911280209 
0.007270057895249582 
0.006213245468550213 
0.007184217240136947 
-0.002657598514050409 
0.001257555593995891 
0.009278276388940014 
-0.006940434160380064 
0.0003515585994853168 
0.003272454729244521 
-0.0105944867591003 
0.0121088502605048 
0.001242418557530872 
0.001778145025477987 
0.003262692610119607 
0.006089299386183672 
-0.003048991349150349 
0.003393687769758876 
-0.01138256856882879 
0.002852857926741925 
-0.005342717594557417 
-0.005831344297458565 
0.01794042615761661 
-0.008442144537943022 
-0.001557767977215624 
0.007077477474986725 
-0.01390493762278343 
0.008908231437060845 
-0.01247589784015096 
0.002585937648691086 
0.001727203958491607 
0.0006412043988436278 
0.00141079679248539 
-0.009513819644578621 
-0.00755171895845046 
-0.008998428162634148 
-0.01484873793726554 
0.0007985785753798264 
0.001420794346560854 
0.004256390165394351 
-0.000260463975526204 
0.0008644501246281141 
0.002874655285822585 
-0.008548725789854371 
-0.004623762216697544 
-0.0104912470417205 
0.001320628069921779 
0.002596961650971755 
0.0003978994569879342 
0.004339659876642093 
0.004976026932278734 
-0.004987115635718731 
-0.007973382653303595 
-0.01027970636732204 
-0.004067163092335439 
-0.0001900072984522477 
-0.0009362726481375824 
-0.005290081760452291 
-0.001590848245310285 
0.008704978878659555 
0.003927761019543954 
0.006267691019610367 
0.004477506581704536 
0.0025461203028542 
0.009827154474559049 
-0.0003032041481270132 
0.002157030676544719 
0.002756163220579086 
0.0009791252716775073 
-0.004245347556891335 
0.004525947236523392 
0.00772643809527244 
0.0005775113903960923 
-0.0006365576608014074 
0.003884359674743432 
-0.002992075093223983 
-0.006864204506476161 
0.0002877462099990064 
0.002581559055981593 
-0.005351056238464262 
-0.006927294948269252 
0.002987518595516356 
0.003592040881068413 
-0.009336200820968426 
0.003751676405608753 
-0.02052671273967958 
-0.01512949547552336 
-0.0006803055555031543 
-0.006255382239566926 
-0.0007509735102215738 
-0.0003402037209353348 
-0.002956798866554909 
0.002185144365255609 
-0.007877450702588969 
0.005700802809708277 
-0.002619173419539988 
-0.0006270554738625625 
0.006509029915184914 
0.008211416579307127 
-0.01581448262657785 
0.01112268247805927 
-0.00178544942023792 
0.0003438998047148793 
-0.008880399330681231 
-0.001840223835257137 
0.0004344637468985544 
0.003095814260223404 
0.00855909636062032 
-0.01309937073203759 
0.003484902606943882 
0.0008588468506624903 
0.000809829197385653 
0.0005908049305235976 
-0.0009831962942193704 
0.003454693417622225 
0.005079878090741648 
0.00099279171505133 
-0.008272164960238415 
0.006312934784724278 
3.116955558094578e-05 
0.001108837537103371 
-0.001552856082508053 
-0.005043386669347543 
-0.01547914112816404 
-0.004961468534383004 
-0.001540793255793421 
0.0005908760729334495 
0.004226880583055912 
-0.0004033187734059732 
-0.001783264035400023 
0.0040321559125866 
-0.01087199384813312 
0.002786392793165201 
-0.0002361545093715164 
-8.742476236980693e-05 
-0.00105018458814401 
0 
-8.225794470999327e-05 
0.001427295091745586 
0.0004214102375301882 
0.002072630921224862 
0.006355327796014235 
-0.004990494302255391 
0.000920342774338817 
-0.002806656846639313 
0.000572596781553147 
-0.002710125121809558 
-0.0003909136783913659 
-0.001771112576250314 
-0.004389633989076351 
-0.0002527926351229206 
0.006382731896341746 
-0.002390037641010066 
-0.001312547835176464 
-0.001628737912942107 
-0.006052013229828315 
-0.004442203158154541 
0.002495965234326471 
-0.003050208833018921 
0.0007438549138887445 
-0.002024375388774938 
-0.003878661607405463 
-0.005076523789426325 
-0.007471545159414077 
0.006006723524430799 
0.01056386971890696 
0.008036728566834536 
-0.003173534367162685 
-0.005729232851395963 
0.005409798268402806 
-0.001995278044821431 
0.007902976997090444 
-0.007930324158078188 
0.00780556644289673 
-0.01330536095588298 
0.001173537608268885 
0.0001574741634262386 
0.01050519084421302 
-0.001469551690329298 
0.006038913091126565 
-0.002889028595998764 
-0.001591582254163824 
0.006174308025083386 
0.0003206324752254018 
-0.001234906565902128 
-0.009200198672201065 
-0.01347447859499643 
-0.005134589662024694 
0.0029092061741822 
0.0003502799139000884 
0.007363563118884605 
0.002076617188890871 
-0.007097466384000654 
-0.01337216482310953 
-0.003227460467394863 
-0.0103987894696197 
0.003856971300146551 
-0.0118872089099469 
0.0008572419873598394 
-0.01850036236015434 
-0.003594548648406328 
-0.000395155005801469 
-0.00211236587800277 
-0.000780890137429405 
-0.008827347714442128 
0.01481527831734184 
0.005120876158388622 
-0.009516637873755104 
-0.01320070310471218 
-0.0005568578467142735 
0.001759910080178571 
-0.001258973527117577 
0.008119979391545816 
-0.0002587345791717926 
-0.003736087990542853 
0.002912927146278721 
-0.003723429852277701 
-0.004224962731395648 
0.003478677743444993 
0.002497578227295209 
-0.0002879088865583956 
0.01593884877730024 
0.006645951568701648 
-0.009177629993712792 
-0.006493856180859028 
0.005067416541311496 
-0.005499772760890012 
-0.000226234014557277 
-0.001909559675362104 
0.004978963663749404 
0.01008399283672059 
0.00015021968480465 
-0.007374141685021773 
-0.000295962822888844 
-0.001993096984231142 
0.01894778600735625 
0.007496959468187385 
-0.005035767975783458 
-0.002451851081874106 
-0.001706886073217233 
-0.008969804976249891 
0.001251293040918666 
-0.002862063338996042 
0.0008289092165235887 
-0.00450610291134372 
-0.002993820014445258 
-0.005931291265376357 
0.003112121151540865 
-0.004723502506240972 
-0.005642953107561759 
-0.01134884313744046 
-0.001341334670058048 
-0.008833005947769368 
-0.002446822140515341 
-0.004536677152685641 
-0.0008130348125284398 
-0.004280812992664414 
0.0006512378541914833 
0.007361540568004835 
-0.01070945564698556 
-0.0009982758216810687 
-0.001279535469437563 
0.005122034528832222 
-0.005910031800135846 
-0.001041499835338217 
0.004249572247303641 
-0.003886982828690481 
0.00611101360624861 
0.005411198740425989 
0.0004691290359822149 
-0.01179843744626194 
-0.007863280315477963 
0.007592504782854486 
0.001302735906489624 
-0.01555012521770339 
0.01260941352390617 
0.009253308577234757 
0.003723604535373937 
-0.001578163355726576 
0.0007615861558999918 
-0.006361075466899509 
0.002875328963536026 
0.002681586121579995 
0.004359482048637491 
0.01108197318535908 
0.0006227527051488596 
0.00814249083519024 
-0.0001196136017157731 
0.004630482271047644 
0.00682670737993739 
0.009126191108273963 
0.002119224701976482 
0.009050556111212594 
0.01466786465313306 
0.008432633924390502 
-0.004037096266989911 
0.004987579394932924 
-0.002133883608719024 
0.003358162161826315 
-0.01117042327566357 
-0.001691155522807025 
-0.003060777784285774 
-0.004263153061120524 
-0.004346734835893176 
-0.006283817470609205 
-0.001102313428550934 
0.007125540664161679 
-0.0113669685458357 
0.004583216449733198 
0.003037363922873356 
0.003539617959337202 
-0.005662568402013264 
0.01054449767967039 
-0.001178978508955982 
-0.005991715747774217 
0.004137903518155525 
-0.0006841361357461821 
0.005186603125410738 
-0.007745519063127231 
0.001677974827593379 
0.006696135486519847 
-0.005642366417074172 
0.01066747314819102 
-0.004734600439399985 
0.007529071746509654 
0.00293852343043922 
0.005431321996507696 
0.003690752637111495 
-0.0004816291949068181 
0.0001787374454996995 
0.01373040414574977 
-0.005706277479764914 
0.005022730046666147 
0.001649055430473292 
-0.00193512042650336 
0.01463654785561175 
-0.005029932154559573 
-0.00284372580504878 
-0.005371996346728206 
0.004552199967954161 
0.004624905190354849 
-0.001323415777554231 
-0.0080146286268271 
-0.005674030725169366 
-0.001252742106849286 
-0.00112299861911783 
-0.01379770552873475 
0.002414053328599001 
0.005471624320565793 
0.002433408176902361 
0.01056586786419908 
-0.002423972726440652 
0.004786835465770124 
-0.002279516777402158 
-0.01324747662841264 
-0.00250389840854113 
-0.01006680984656435 
0.005302563780075779 
0.01069636961315308 
-0.0004041028585136068 
-0.0003010422623327223 
0.002127572753905967 
-0.002594883950083385 
-0.01184785156611755 
0.01094470825224836 
0.004246845685968676 
0.001980622652075548 
-0.001254719188612472 
-0.001499458606493876 
-0.001147918136295541 
0.001206864662144676 
-0.01247704110487922 
0.002610043822432924 
-0.003897055635983791 
-0.001132895850970036 
-0.005225033505624731 
-0.001125728476138839 
-0.002779285652464099 
0.001228361013563762 
0.0083070415226905 
-0.005434552414879312 
0.00213368407981303 
0.01013476203318052 
0.002342034649672316 
0.0009223146207476807 
-0.003883878007038563 
0.0001541157362293535 
-0.008317487865009953 
-0.001717426103876265 
0.002445471445215 
-0.0002656490254018431 
-0.004948014926612411 
0 
-0.0002732642652171917 
0.002872871279385507 
-5.87512757658505e-05 
0.001568438787833946 
0.007491779856719645 
0.006189591085041658 
0.003982111160577201 
0.002054839864600908 
0.002263916213383458 
0.002176935871419389 
-0.004188894060414458 
-0.00267420464003514 
0.003852177125109486 
0.0002996243658908604 
0.0004792387991060606 
0.001548773197474918 
-1.373715953528437e-05 
0.005777243206052747 
-0.01083372249179374 
0.001853534580409249 
0.001013957977485906 
-0.006381012244027375 
-0.00144281494988881 
0.0005827951795886425 
-0.001573419596086972 
-0.001372510374955831 
0.001050803112380841 
0.00504413516614413 
0.00257861608720694 
-0.001780238011600328 
0.01039946772219753 
-0.002519811430191457 
0.001397588232210973 
0.003366972441791329 
-0.01113790240098471 
-0.0007759953526275703 
0.01423596159152054 
0.007601862000626582 
-0.0001636990869079568 
0.01316688045256894 
0.003660751558286762 
0.001164294807362269 
-0.007155420223631262 
-0.003166086544922174 
0.001315316375687119 
-0.005934322243512021 
0.008036107369329651 
0.001564584182608987 
-0.007413899428094181 
-0.0005025892538584993 
0.002744660404837984 
-0.001498113746253828 
0.005697790573812664 
0.003305202854050143 
-0.001738085029863778 
0.01229047665389352 
-0.009568167582691391 
0.005855801816811695 
-0.01238350097247469 
-0.006596241422099371 
-0.0132665918549614 
0.002260815841422179 
-0.01903744864973426 
-0.0002646932832509727 
-0.002436631861260814 
-0.002158183772962442 
-0.005987454988490435 
-0.001514976327247418 
0.004100775662290371 
-0.001747155437700036 
-0.005392272545031514 
0.0003870740161874557 
-0.006957702028427898 
-0.0003330919873551461 
-0.01349836657545248 
-0.002497409425289545 
0.001760816267356209 
-0.005944657054967672 
0.01085459960816717 
-0.003740017457913913 
-0.000669546741286263 
-0.01090505262987585 
0.005287367475827188 
0.003740667532811984 
0.01186331489292724 
-0.002490420072512274 
0.004334044156554606 
-0.005475021402739432 
-0.0003385486641798258 
-0.004096146559887932 
-0.002329795271174647 
0.001727023874825774 
-0.006589249789577107 
0.004321138514116933 
0.009888743336255159 
0.002580238101223819 
-0.005018846633115602 
-0.006206949613075234 
0.001043097777834379 
-0.0004376658453907753 
0.007855255433058744 
0.003781684738680368 
0.008582533106440436 
0.005226094021880037 
0.002550411602402488 
-0.001728385120403867 
-0.006355068934350832 
-0.003796740014028557 
0.001891602213462194 
-0.006649874299963927 
0.009031721391479678 
0.000592888000081028 
0.00143064644416183 
-0.002737800739979934 
0.008523879655461787 
0.00365340376783171 
-0.0004762590010021238 
-0.006208193119856385 
0.006264365852763261 
0.004206523847493074 
0.006292209717307631 
0.007240385359168154 
-0.007042751199022325 
0.005054191880783019 
-0.004306890001095712 
-0.005629321690754237 
-0.00042089892532186 
-0.001783617404390628 
0.001362538422199148 
-0.00227985453780556 
-0.006594270638177642 
0.005529737430706166 
0.01049072583392584 
0.0121066923121063 
0.0007177947025844001 
0.001998996133737866 
0.005864037439054804 
0.001386995216757825 
-0.004076334000179296 
-0.001459231027732912 
0.001077606881359655 
-0.0003523198042214442 
0.0001788074898854775 
0.002738817763930375 
0.002576232437603145 
0.00551589474539679 
-0.005832632996707267 
0.008403493716543977 
-0.0001200977853842402 
0.002585007880754398 
-0.002307131281201815 
0.001874999303185754 
-0.01082136955333066 
0.007139172670433476 
-0.01978490021883781 
0.006027331907220888 
0.003399753544061664 
-0.002381978585859189 
-0.003900752940388867 
-0.001749098399576377 
-0.001859408030617891 
-0.001380763723997646 
-0.01242919626295959 
-0.005869243231037941 
0.000150393873432157 
-0.001463568082594472 
0.001670492276040111 
0.0008044638653800695 
-0.01040964009752033 
0.002731628396388619 
0.01043401693329447 
-0.004766331556451021 
0.0001602866569301586 
0.004045109357991569 
0.005810964991758419 
0.009242625051782354 
-0.003751497979740369 
-0.007041307594270097 
-0.009399924517619413 
0.0007880867694041616 
-0.00262797037403426 
-0.01305215277621589 
0.0009971977495164275 
0.006236158052765045 
-0.01489532276255296 
-0.000852939277388916 
-0.006474427535729015 
0.006063395318754697 
0.007157380034066457 
-0.003962742470331747 
-0.002800042903001425 
-0.001476814176125381 
0.002438129497057582 
0.003843147493508821 
-0.01212324717574978 
-0.001484695514821368 
0.00850027527466018 
-0.0003089619110478805 
-0.0001449700634753365 
0.009861817506064989 
-0.001063121412559145 
0.002544624435506234 
0.0113369172835518 
0.005554913208010582 
0.006163950253326568 
-0.006464494593318553 
0.00977351099287015 
0.01070426243898134 
-0.003039551923818937 
-0.01204633346706322 
0.001650543896502675 
-0.007889319851264762 
0.00165393801059941 
-0.000910599164439615 
-0.005213471544226488 
0.002875714179865829 
-0.006319704167240116 
-0.01471678208764409 
-0.01145988803976081 
-0.004131859755760112 
0.002133481833562987 
-0.002498113767086719 
0.005221452255190306 
0.0005169697950040734 
0.004627848286751741 
0.01635884974869911 
0.008312981017576148 
0.01070713971082689 
0.005839681090097357 
0.003854352455739307 
0.00436340405190925 
0.0003566622718173292 
0.001044221282676036 
0.002707992468165667 
0.001123847713278626 
0.0007067226460881685 
0.003588499027354379 
0.006160983508096312 
0.003119385245968177 
-0.0007685740430894291 
3.462025694288694e-05 
0.005709934730966232 
0.01006467670342206 
0.003672201042320417 
-0.0004718240833258175 
0.006673744670608777 
0.001384855417839709 
0.0005463042394014321 
-0.003367246686834597 
-0.001877177229963056 
0.002144870807433739 
0.002509980356473657 
-0.00234713772038438 
-0.00170531171924264 
0.001223550115520355 
0 
-7.851226398410971e-05 
0.00269828510570544 
0.002440150315651502 
0.002987650367768813 
0.004710730049171544 
-0.003854843724220983 
0.000156695750379054 
-0.001911324205563556 
-0.0002059454962882972 
0.005267860071495825 
-0.006784579235500708 
-0.006216561009446538 
-0.000902533070941416 
-0.0007457075643440327 
-0.01227733790790111 
-0.001326219497339341 
-0.001662674516502284 
-0.004871996299365419 
-0.003527553513096925 
-0.005757031534202163 
0.003393130704846303 
-0.01438513058076066 
-0.00323324779104498 
-0.004902364611184665 
-0.003454073005375388 
0.009427869925083385 
-0.003785261216956194 
0.006596374122029605 
-0.01721684071757331 
-0.001472409519048455 
-0.007375208602993776 
-0.002092274201839697 
0.00277012688525805 
-0.00462270489662603 
-0.0005230459756331773 
0.003230791663148409 
0.00318311457168813 
-0.004949229917264274 
-0.0101653735028786 
-0.004639445015150463 
0.007813502138358344 
0.007372477849554923 
0.008043669750660239 
-0.001786462735119429 
0.01004357230934097 
2.112753685582641e-05 
0.01021702642769416 
0.0004178844978338143 
-0.003926184671387518 
-0.0140183630814345 
0.003252893230470661 
0.0008599390423816362 
-0.006040615402173867 
-0.009984453669378026 
-0.003924986264194931 
-0.002883277467892436 
0.009288186876721316 
0.01883103441075775 
0.0002484511171352993 
0.01900530300358796 
-0.002994954770147871 
0.0124454307445463 
0.006040632511928181 
0.005493676104236227 
0.0004713786969756379 
0.01313340352873585 
0.0005495983712308298 
-0.002018023022607493 
0.0004408590942316473 
0.007649338049244149 
0.0008685743363565625 
0.001133646484021413 
-0.0086802604974604 
0.01068292415146647 
-0.009814359764491652 
-0.006015953449936533 
-0.006873460257222974 
0.007343447724338522 
0.002703371920221107 
-0.005731023474466215 
0.001137728307199362 
-0.006802299601607626 
-0.004993951046538639 
-0.0134340538065674 
-0.002491679096085592 
0.01016595791107697 
0.01137967761045078 
0.003865768350461642 
-0.01192470086069886 
0.001981772706174078 
-0.002378195768510971 
-0.005603877761055046 
-0.001847246129875063 
0.0007458555604280689 
-0.0001093702807317248 
-0.01517202063993686 
-0.002818160111084076 
0.00816985183241372 
-6.245809410003709e-05 
-0.008905727657275994 
0.007984813382525673 
0.005610515233383967 
0.008628149452250676 
0.003663517920534573 
-0.002173360766572564 
0.0009606721664334597 
0.006717876636375179 
-0.003857255323534708 
0.008321651041284725 
0.004951186663933894 
0.005011989318072341 
0.003874360328345277 
0.002706453731493391 
-0.0007459159237135955 
-0.0100822674759626 
-0.009617225285419469 
0.001843862380324415 
-0.002370824439977936 
0.006440048569031354 
-0.01097795952218505 
0.003654427657812103 
0.02704569231290168 
0.003085654622787382 
-0.005640604604008267 
-0.009280341537278042 
0.004306336639747079 
-0.003272318223811672 
-0.001518440594443046 
-0.0003754790872607604 
-0.006670538543759794 
0.003115531465312828 
0.006822451600411526 
0.003349863885355017 
0.005670356464296757 
-0.004484729180805426 
-0.0095374277342157 
-0.005958363344888384 
-0.004923395732268135 
-0.002287010683486682 
0.003600245605111348 
-0.007119756344851948 
0.01071174570418976 
0.002075460493223388 
-0.001725242687196511 
0.002738789134337886 
-0.006044912926167001 
0.009674120521520729 
-0.007384256812577781 
0.002195897425571493 
-0.006498460029380298 
0.001096723175719974 
-0.0008207479747995756 
-0.008759275182439524 
-0.005583600799326474 
-0.01782256720186711 
-0.01306250452562921 
0.004597862604368515 
-0.002650754493360745 
0.004048203662664897 
-0.001128481481239038 
0.001630161463948942 
-0.004581978409941474 
-0.01235591628932109 
-0.01535009911617059 
-0.005566123881151038 
-0.002413197749336562 
0.00915690341308995 
0.0003477254807994306 
-0.006714218108974325 
0.00931054914364637 
0.00256236587170284 
-0.004117140118966365 
-0.00640477705181384 
-0.005615052108727219 
0.007192565607714837 
-0.0009908331858544954 
-0.001889170815453778 
-0.006644773657552522 
-8.954190937620234e-05 
0.003391611945328576 
0.008567370845404744 
-0.009338121423758037 
0.002634421488656241 
0.006280748926761729 
-0.001774244557657279 
0.007973570883858748 
0.007601075623191131 
0.005578777580431417 
-0.000733380493775247 
0.002217310822312372 
0.01141768909794457 
0.000501959860473995 
-0.002232517439768926 
-0.000917478103235217 
0.001422036528769576 
-0.009941775331325155 
-0.008274906131414402 
0.001669786189098167 
-0.005441735643864029 
0.004231652632011389 
-0.014495719748354 
-0.001381774830833606 
-0.001195110774482894 
0.002019075647303994 
-0.01097522008893003 
-0.01260505186255131 
-0.007860611038340355 
-0.001622082694843653 
0.002496872255521989 
0.007626075950910785 
-3.571190701393329e-05 
-0.007101248761834753 
-0.004621548731472276 
-0.003129863719257628 
-0.01051637598988773 
-0.002877169166877169 
0.01026610718600586 
0.006846432758252556 
-0.01373376308380205 
-0.005833141449094347 
-0.009111738527657306 
-0.004423199414118654 
-0.004028946618672332 
-0.001628643055820462 
0.003944384944672352 
0.01250205627447422 
0.008139721491900032 
-0.001288811897999564 
-0.006801767086323855 
-0.01028477681648844 
-0.005010516622758439 
0.003460972768930014 
-0.002508351764352747 
0.003205562605801753 
0.0006174093744326674 
-0.0007224966096731518 
-0.01235060449553902 
0.00574654792100516 
-0.01116790243171626 
0.0002927758182782881 
0.0005736802830529206 
-0.006825883227724094 
-0.01414715259722648 
-0.005078663906119879 
-0.0009278350074483818 
-0.005048351225592736 
0.0020010673467795 
-0.0007858760068972451 
-0.002402082783194153 
0.0008862623244629822 
-0.008845724840377099 
0.001545880883766366 
-0.0001046805517418168 
-0.0004500585541796572 
-0.0009687133019707023 
0 
-0.0001327771443047641 
-0.0009254121036621958 
9.018877668472852e-05 
0.003666854614840094 
-0.001889063857575177 
-0.001754156266146384 
0.00599724679686616 
-0.001064513301667836 
8.265850662065689e-05 
0.005612031972116796 
-0.00584195934433616 
-0.001488531871750542 
-0.009947869512375697 
-0.002795773434462868 
-0.004340102727994036 
-0.001685803295621432 
-0.0003348648565311663 
-0.0009649986955482475 
0.002054492329519102 
0.002561951776917868 
0.008096843700564573 
-0.006077002184119276 
0.001163295880182947 
0.0007112515472814238 
-0.003466336401258003 
-0.005417006326663017 
-0.004865546194431788 
0.0008751638809094888 
0.01119845910207443 
-0.008231817353012169 
-0.002412416457317052 
0.001882034895565974 
0.005176159438965515 
0.002556883198266207 
-0.001948436481369436 
-0.01455953507884949 
-0.00649463334498995 
-0.01904114415691788 
-0.007129043787506472 
0.01483205023673251 
0.01002114599243192 
0.006299751298795 
-0.005700634586073757 
-0.003940475550931988 
0.01600828786344656 
-0.006139566970919912 
0.008191746384310928 
0.002397766072424503 
-0.004039311914454986 
-0.006174705151188275 
-0.009465555364936713 
0.00916268697724675 
-0.0007896308342186346 
0.004205528723873255 
-0.006084439106891327 
-0.0125353955361668 
0.01970980760176379 
0.01888573239522182 
-0.007188811420793642 
-0.005388443056397478 
-0.002886964882910201 
0.002970159263368586 
-0.001067505929080825 
-0.0003002425175081844 
-0.001238442330129848 
0.001720258891235747 
0.001578562378519071 
-0.002711947954445055 
0.002512461916708657 
-0.01033717921600955 
0.006250151855349964 
-0.01649516708865193 
-0.000891754933469896 
-0.003643883525741087 
-0.005420603212267879 
-0.005905759143031021 
-0.006879897731057657 
-0.01715888391302015 
0.006361524860518369 
-0.00361900532867901 
-0.001874332974337076 
-0.005792010389781204 
-0.003398971729990608 
0.001388869597145225 
0.005770012794905105 
0.01892036755513682 
-0.008143237404161346 
-0.003075591103992644 
0.0005657999599577546 
0.002504199235626 
0.001008624206718909 
-0.005835648018524126 
0.001639782593947779 
-0.01132190436666621 
-0.003743855528579589 
-0.007278486925708204 
0.004180635840657721 
-0.0104260661543165 
0.0005070133903754944 
-0.001531757407839563 
-0.005848999652596563 
-0.006759741478213033 
0.003636970096844416 
-0.007758458524817842 
0.002154595320805941 
-0.0005552385558731308 
-0.0008148111510541205 
-0.006650104300903174 
0.003367378764100714 
-0.004945195561551741 
0.009510985972908266 
4.100727895503418e-05 
-0.0009678117066976088 
-0.001889258220602288 
-0.002371165632177452 
-0.002792017695205473 
-0.001074895195258701 
0.002809348274473179 
-0.007484329151389019 
-0.0002661368698847091 
0.002594203267420637 
0.002750338026087967 
-0.004618748242048307 
-0.005438824464005989 
-0.002618088353047039 
-0.008397516062489934 
-0.006468142135977913 
-0.00346691187247709 
0.002177585379697453 
-0.008216250066241014 
0.01485709760884262 
0.0006116238364952148 
0.0008708309444144201 
-0.01334150615042331 
0.0005371294658853124 
-0.001244349668568849 
-0.002040445500507624 
-0.01379884085086948 
0.001297642089989543 
-0.01441572699378821 
-0.009057624568177236 
-3.910694674508244e-05 
-0.008955868004921777 
-0.002352926013908467 
0.0008679742142810373 
-0.006672896302370493 
0.01085600840896024 
0.01241805043862888 
0.0001005035758267748 
0.001723244925667614 
0.002237405191315704 
0.005471163042664763 
0.001607249019131601 
0.01187515545946213 
0.00949184224283389 
-0.01188600855170976 
0.009235070857363633 
0.002678095325427714 
0.007455693868432723 
0.006967866939656771 
-0.00533238689649131 
0.009085318877872372 
-0.008627376503479424 
-0.01007871175150925 
-0.004184970577329918 
-0.00373666303748056 
-0.008832831171922099 
-0.00587683486364042 
0.0041861325989522 
0.0165979432898404 
-0.008987463352918413 
-0.0001926135183184885 
-0.001201254502970528 
-0.008425539081309233 
0.0068434039193065 
-3.029350519352093e-05 
0.009121543340132871 
-0.002761836208390636 
-0.002204315662102662 
-0.006047411009809348 
0.003206468159557543 
-0.01261614114186651 
-0.005267108266837704 
0.003506720943854849 
0.005581351366118791 
-0.003485194183399484 
-0.02060490069008242 
-0.0008276107436845031 
0.008839839776676194 
0.002223768284304299 
-0.001736111140643807 
-0.00225946758947799 
-0.003628659033688223 
0.007629782933735041 
0.00478357611517676 
0.01009091846932087 
-0.002725689440044385 
0.004737882183220812 
-0.0007174530438860457 
-0.002441926122323443 
-0.002902367505167003 
-0.005559305389124828 
-0.001730054924584206 
0.001569891710619427 
-0.005676570620244937 
-0.01056881895579656 
-0.006244926408424707 
-0.001857692243778221 
0.001705036510978761 
-0.006019970254956626 
-0.003333501116462476 
0.01895976691087737 
-0.001776555791230934 
0.002665244018622932 
-0.003419269626737897 
0.00273987958216785 
-0.005906469799277007 
-0.009832882675407712 
-0.002641838444970714 
-0.009040749955204323 
0.01573105433471373 
-1.673689965998857e-05 
0.004578339509473252 
-0.002026570121307262 
0.001788520715404366 
-2.410410159887141e-05 
-0.006142404961626431 
-0.001687482784855008 
0.007422540777467372 
0.006980228987797705 
-0.0001261714330939891 
-0.0006642633120337019 
0.001684855765073579 
0.002064831622486911 
-0.002694104017241098 
0.001926369831700546 
-0.00145132916857997 
0.004670965535492295 
-0.008748055169503759 
0.0001106190823049451 
-0.0006892952239145831 
0.007007629378289114 
0.01474471799494853 
-0.0007186279877916809 
0.002194762954738959 
0.009275467303482608 
0.002395065996527193 
0.0003346737747802631 
-0.001016681118223423 
0.004418177013151695 
-0.002213212318141499 
0.0005706695286635819 
0.0001223905216317148 
-0.002506165829507498 
-0.006804276142476353 
0 
-0.0001871485173473819 
0.003151314208895753 
0.001648879426502297 
0.005620202062916133 
0.0009126521814783926 
0.002869709432351507 
0.007219494244039753 
-0.0003423886686028607 
-0.0004956030364779967 
0.003065131397983625 
-0.01225737548152887 
-0.00146674192094855 
-0.003813031473862946 
-0.001774877425061993 
0.001858061707178026 
-0.001658578551393774 
-0.0004136865529782193 
0.003800392933809381 
-0.0007149129965833843 
0.001784956158263398 
0.003135699662439768 
-0.003103887598751425 
-0.0004359509122962399 
0.0008270509320099168 
-0.004805678476918257 
-0.001331234869682773 
-1.168535473020855e-05 
-0.007294534565959614 
0.007276470762397997 
-0.001653428401351789 
-0.00331080779480035 
-0.002439701282941282 
0.00028594190897836 
-0.001720103789614015 
-0.00488096116787033 
-0.01140593173291177 
-0.007947345306914145 
-0.008659207877533479 
-0.005327361974438578 
0.003926271331964184 
0.00204849996228382 
0.003241010827773004 
-0.001887476909899559 
-0.0006122441936239258 
0.004206780263411296 
-0.003934227947559852 
-0.002148221054871912 
0.0006231357759992655 
-0.0007178633273586982 
0.002432284338641199 
-0.01102129410137816 
-0.003745636462571617 
0.006194239687245084 
0.002095674610204976 
-0.001290963540994472 
-0.001011782191336403 
-0.001149837862150153 
0.01162789886587298 
-0.01891067527426171 
-0.003291211384774085 
0.0002253125961254853 
0.004483656934539232 
-0.01288914794140452 
-0.001220211694347248 
-0.000897127794751895 
-0.005714540350155482 
0.002271642730512397 
-0.000282070785710984 
0.0116741723621043 
-0.01123487028578373 
0.00183477131052958 
0.003248476501962377 
-0.007508172146403121 
-0.006455541887435823 
-0.005854195061947036 
0.0005399355570657149 
-0.002080966928215089 
-0.01006979542758801 
0.0134497356148769 
-0.002562742747488382 
-0.00453393898670643 
-0.005244560361995919 
0.004904085974520637 
-0.004494008732484857 
0.002667014860030737 
-0.007229697878215867 
-0.005123100731771172 
-0.01434089263225366 
-0.005380679505234488 
0.002499516460827068 
-0.00173497607682524 
-0.006325728673651554 
0.0003042099314074382 
-0.003670132766233543 
-0.003697157558647189 
0.001065602949121051 
0.003230825825985165 
-0.004276704394467537 
0.008733447273930783 
0.008431939624691475 
-0.005786512707485284 
0.005613697567096232 
0.004583101556348321 
-0.0005050018946402213 
-0.00254053301480036 
8.678288227159134e-06 
0.004586176053966208 
-0.003239723740359374 
-0.002445905345634376 
-0.004465579254388167 
-0.000948769377158311 
-0.0005347063403922887 
0.0006307209357109221 
-0.005974338591696092 
0.001930826064226866 
0.01369832934698531 
-0.002541630914736868 
-0.002518081762687978 
0.007801184295690669 
0.004554476101965994 
-0.0006389953466740518 
-0.003798425978209792 
-0.008155056173858002 
0.008119394221498261 
-0.00615336783748552 
-0.007358485028445795 
0.009762103328191753 
-0.0008544982893291665 
0.001800403455648052 
-0.00617400392831396 
0.0009607740557444556 
-0.006731096950506964 
0.00337245553929357 
0.004483623008111975 
0.001339434612358149 
-0.003478957895038538 
-0.002446324191615399 
0.007303706968077046 
-0.01446298677932232 
0.007744405074197709 
0.001925746386603759 
-0.001931849925589106 
-0.003423547843802079 
-0.003635923520181063 
-0.001145974622258204 
0.002802150417755928 
0.003641802699976591 
-0.004686283990290926 
0.004027012664955467 
0.004140513839247459 
0.001028879120993108 
0.001178659794624609 
-0.006168141286166615 
0.01515878234031949 
0.001440262264842603 
-0.003978258978321847 
0.008713918762030129 
0.007789511283893766 
0.002822166749261084 
-0.0007717366273215899 
-0.007011045810742938 
0.001859348143342203 
-0.007961392260384391 
-0.002756102559698911 
-0.006147244958985418 
-0.0005487839479735239 
-0.008661409574305303 
-0.003095652623056771 
-0.009704576477674712 
-0.001393288523132525 
0.001647530983796565 
0.007643146398220265 
-0.00501135254013371 
-0.0107457006381612 
0.005524633030341082 
0.003532620502595386 
-0.001098431139634347 
-0.00312135721678727 
-0.02380310836009077 
0.01117293615407332 
-0.0008929818647948544 
-0.006819813341946126 
0.007823563323146068 
0.003938355487372704 
-0.01340417259364625 
-0.00124368451080994 
-0.008245955882989672 
-0.001264798400758751 
0.01371608605080169 
0.004142934009578797 
-0.007052049657885136 
0.0004437540240399595 
0.002118025454375284 
0.004527158583752348 
-0.002819323410150387 
0.001548674864186835 
0.003462978722242357 
0.00770877783072616 
0.004759016023769279 
0.001427111896720565 
-0.0004087771784538157 
0.005228924092112544 
0.006268091250715208 
0.009795907256402491 
0.01092170558938239 
-0.002149647535977579 
0.005311694306910295 
-0.0008694605775301659 
0.001860194200063204 
-0.006647588231344158 
0.007926352912320821 
0.005443517202425949 
0.000318218387917874 
-1.034218767096145e-05 
0.0009822911925670092 
0.001501281058277529 
-0.01238512609557674 
-0.002637498894209755 
-0.006118601176107662 
-0.01455733579070738 
0.01741875756791636 
0.001254106783473939 
0.005151016527711124 
-0.003626502363772941 
0.001528248107126538 
-0.001454727012156048 
0.008685565203505599 
0.001189820013375445 
0.01108363805063206 
0.004833941561375161 
-0.0008512079958929683 
-0.004623360308688751 
0.0002711013864401074 
0.005409544100971627 
0.001948910974233897 
0.001857205943476177 
0.0009039560395645661 
0.006791963788123043 
0.004744160514166375 
-0.002177435299214062 
-0.001258300218282223 
0.0006276567416055237 
0.01232733746242479 
-0.003986629787110057 
0.0007238523005417053 
0.01123336844909615 
0.001080501936169123 
-0.0009802483023086878 
-0.004195930821404517 
-0.001067330968092215 
0.001567657583685701 
0.002151644666609226 
0.001736643783464513 
0.0004106476383887583 
-0.0009218591239068221 
0 
-0.0002882396282696536 
0.006330816136331682 
0.001142891899294498 
0.001068363789342489 
0.002340273665569776 
-0.01311861873442326 
-0.0008624087705681306 
0.0005923784910578806 
9.53785057635511e-05 
0.00594637689821716 
-0.006658442710595241 
-0.003135140971584149 
0.0009813848463252131 
-0.0008299311682092135 
-0.002835921743683618 
0.0002445342565190194 
0.0005860845144321346 
-0.0125852871335705 
-0.001724373405808967 
-0.009004259283850586 
0.003905996140824024 
-0.0111927025819024 
-0.006101120464350802 
-0.001390157154147156 
-3.238835259365188e-05 
0.003460358377184245 
-0.001853737120580019 
-0.01432525116242379 
0.002307493741206484 
-0.01064020166471112 
-0.01261791452191943 
0.002872093230388009 
0.001389272033374309 
-0.005844288947106827 
0.003566975758758802 
0.01129915551114858 
-0.0113279497130368 
-0.01221835438850423 
-0.01505267050654742 
0.005961938921410824 
0.00559827957212378 
0.003960837026459234 
0.004839649193867144 
-0.002006918773357755 
0.005880595536732543 
0.00159371318275131 
-0.00240310115151071 
0.001757183056093735 
0.003931173348821257 
9.987750899423279e-05 
0.003141460895363698 
-0.00607302098627781 
0.004905375158574652 
0.007320621861466127 
-0.004602591129996721 
0.0003293265383963734 
0.00892439322970953 
0.03175005519634629 
-0.001110644266250164 
0.007389552415697858 
0.0001568579666036034 
-0.0005607076828989471 
0.005612665258253321 
0.001326209504563874 
-0.001374646038489506 
-0.002179712222576687 
0.0006743236659233593 
-0.008523035541381146 
0.004500294499871321 
0.006611837210210443 
-0.007165210271245851 
-0.01037430276442563 
-0.003110987268811167 
0.006280865441517815 
-0.001026086473841416 
-0.001319476410326187 
-0.0123148252859861 
0.01074313900531142 
0.008071885840635246 
0.004704322974098271 
0.006601228382622821 
-0.007908492726814995 
-0.009731692163056176 
-0.01588035901505345 
-0.007476824139862433 
-0.004072747372435855 
-0.004478799590518255 
0.005840428601889306 
-0.008273596561808611 
-0.005141303143134739 
-0.0003824755744217492 
-0.01292855809892167 
-0.0006917505770255706 
0.01510543383998485 
-0.008335925248226541 
-0.001494624364413365 
-0.001698663322239727 
0.006976007646775874 
-0.00199004786561275 
0.002310171047722146 
0.0007814193004500293 
0.002844570136470847 
-0.01438143074541876 
-0.008824288394544045 
-0.004287786562716339 
-0.00131669178943198 
0.01547017054299854 
-0.00418206612809987 
0.007446665853211409 
0.00308757532131594 
-0.0007135439410220762 
0.001011823664922723 
-0.0003873362459717259 
0.008548968648508801 
0.0001482180406464546 
-0.004380046304600706 
0.005305555198712429 
-0.0005436921775051442 
0.01132432977501464 
0.003366736330062967 
0.007542826082813283 
0.0266427427130154 
-0.006005445107682908 
0.01124413243891509 
-0.002073494074322354 
-0.007401506289126878 
0.0205221861796916 
0.000562902993083183 
0.003784203237229866 
0.003907463403523193 
-0.004396030250317266 
0.004790950172827504 
-0.007201606751401494 
-0.006040295570684636 
-0.01205418615768065 
-0.007866778111441909 
-0.001587712669628892 
0.003883303891699072 
6.364934342948686e-05 
0.006127063585902737 
0.004248726499195091 
0.005618245347902564 
-0.002175671991240883 
-0.009356940700001851 
0.005274509390538492 
0.009696381705247101 
0.007883483135404682 
-0.0009977466876650767 
0.003613023387738127 
0.000297689467056818 
-0.000376265778987261 
0.002485392770100496 
0.007588268418790854 
-0.01207388922879032 
-0.001585513221133141 
0.002036679282799857 
0.01252586748477374 
-0.005859531548943943 
0.006651203598257097 
0.0004489661480383544 
-0.004421409712906153 
-0.004351811683536169 
0.0004040627999789554 
-0.01119329620999299 
-0.02097186464131673 
-0.002002826700828114 
0.004577863195563167 
0.006081912519002565 
-0.008396944589700335 
0.0026833448177312 
0.005902902836921257 
-0.006767653569045525 
-0.002246311835377014 
-0.02081875103886599 
0.01071447692202826 
-0.006988005112989395 
0.002463638653680785 
0.003279392478617256 
-0.01523270120505095 
0.002843938066805176 
0.01172880615876053 
-0.01056504799891979 
0.01359878930018345 
0.009648020023293777 
0.005489253069729014 
-0.007223425484410533 
-0.003393508005334177 
-0.002448841771168749 
-0.00420673456976499 
-0.001962637995937066 
-0.001384836486026458 
-0.002863371945273992 
0.002910661632714229 
0.004178973596890697 
0.008946305508662147 
-0.002634626112685984 
-0.008144346599617743 
0.003884736683567359 
0.004446317984510915 
0.003884332549361826 
-0.005888556318880319 
0.002778442242041362 
0.001792228340620421 
-0.00967886123141228 
0.00515873580048129 
-0.001374881493635182 
-2.443941819805213e-05 
-0.002725476727136917 
-0.001493044891974668 
-0.001613949084628699 
-0.005876519180263722 
-0.01330881128057142 
-0.001319406486213183 
-0.01381307284974479 
-0.005394441898182886 
-0.0003354621954774758 
0.005225426621011514 
0.005180109550444313 
-0.007813737408298865 
-0.007948236882200513 
0.006897029247183908 
-0.009325710760638506 
-0.005875043496519516 
-0.005423223887133405 
0.002706983598488385 
0.002971980210299792 
-0.001924134596990461 
0.003387549801808642 
0.003092840083659989 
-0.005571619183077539 
-0.005972000324043547 
0.0005707834952032744 
-0.001476496258739981 
0.01039302655652404 
0.005979924271701644 
0.0005812763117938633 
0.0009877747609733942 
-0.003267679747596392 
-0.002591563936786901 
0.001015305131000459 
0.001264183180445033 
-0.003759079849162272 
0.002076756003259346 
-0.005658736184054875 
0.002666092311994931 
-0.0003262804648770712 
0.003968209130325023 
0.0006745480944336045 
-0.0004319601688271954 
0.0008468728720149015 
-0.002162079440777692 
-0.003003996370726029 
0.0051556564333881 
-0.003225147576169886 
-0.0003662581003938096 
0 
0.0003750019717287001 
-0.003605565356343574 
0.0002799950587907786 
0.001178835755937416 
-0.001519799298854149 
0.01020063930653516 
-9.958242698490613e-05 
-0.004192576580670535 
0.0001285265040322143 
0.006755840382456197 
-0.001855163642821242 
-0.004942198451509924 
-0.01311999007976181 
0.00427758075187142 
-0.00393424355219055 
-0.001059571298414849 
9.208219873346221e-05 
-0.003905796606083408 
-0.005393081337415645 
-0.002889020229145337 
0.0008856918504994669 
0.001140554602541231 
-0.003052861155654459 
-0.0005929738868372276 
0.001468813731829669 
0.01292697048977488 
-0.005908362075417838 
0.008737798941296995 
-0.009403062378877627 
0.004527793923168058 
-0.001525397229636819 
-0.002286139394715739 
0.001912987206149846 
-0.004175789518449636 
0.0008236555843007825 
0.008992963474222845 
-0.0113776206990377 
-0.008055565087435969 
-0.002312335291980752 
0.004823667523401754 
0.006554805058093023 
0.004902181928497492 
-0.001183095188866294 
-0.0002129807903027676 
0.009102563256647102 
-0.004129734325428108 
0.02523221879632013 
0.001039811882428555 
0.006384626206539806 
-0.008936040432081375 
-0.004043856478355511 
0.009355264171588412 
0.002492399163368028 
-0.0005940780266173652 
-0.007085732875139217 
-0.002158654957728754 
0.0260790015577675 
0.02623156620176502 
0.006893210862697502 
0.003202399363684024 
-0.005430114862874921 
-0.007850435335437328 
0.004483269900831587 
-0.0002926895912881433 
-0.001780179920387338 
-0.001066614717867731 
-0.003157918185112492 
-0.006686483280715216 
0.002305498518474768 
-0.002788665554596538 
0.005250671192507821 
-0.006350466598741057 
-0.001813596620480082 
-0.004298156568459555 
-0.01072386166054152 
-0.006225034163677111 
-0.004105922017742497 
-0.01249887526107359 
0.004064969532735793 
-0.003058802232945308 
0.005017684305193223 
-0.004275495696955574 
0.00666977885173091 
0.002563680803064867 
0.01436659196377872 
-0.002776851908543784 
-0.0002595529312216008 
-0.008567951893793498 
-0.002315611430507081 
-0.005935676170699934 
0.001389021239898717 
0.002987983325067889 
-0.0008048163159169121 
-0.01711103516115815 
0.0001218829345046016 
-0.01503252871786794 
-0.003252424787733499 
-0.009690622290417108 
0.002177127926473299 
-0.01881480558151147 
-0.008354266665816063 
-0.0001271921343291774 
-0.005134759293817371 
0.004433358869345309 
-0.006896756821521335 
-0.0005311205732338324 
-0.01750205557915557 
-0.00577070495953478 
-0.005455810351632621 
-0.01387408347275309 
0.006168073265019574 
0.002065650304008895 
0.002950455359236299 
0.002393772788545911 
-0.00621515197669307 
0.0005057130480523115 
0.008271254419513832 
0.005858943508545709 
-0.001145163865541095 
-0.01066372068011125 
0.01328391198378112 
-0.003206315402793054 
-0.0004671332590174598 
-0.004461987324613684 
-0.0003388979640510033 
-0.01423142347452479 
-0.003702043017606832 
-0.001925416166560838 
0.00228249328309263 
-0.008400676195596909 
0.004157733110949816 
0.005040263348325343 
-0.02135614712727843 
0.002708775884839114 
-0.01674393774375563 
-0.00462206144162341 
-0.006522016890795026 
-0.004129071251247205 
0.003865832107630801 
-0.00572404083535779 
-0.007909806526336854 
0.0008670556842459029 
-0.007997814686968537 
0.01115985302306604 
-0.002303805220116508 
0.01213944476145955 
0.002867327982869325 
-0.004566309959462085 
0.001504213273012545 
-0.01239376295285058 
0.001496023760243054 
-0.003187477276586447 
0.004491958268628384 
-0.008047220071620294 
0.004677333080686462 
-0.003959255119545066 
0.00556281588479123 
-0.009610557632636694 
0.008429243046095311 
0.003707375115278164 
-0.005906833924412543 
0.00789167798366139 
0.01296182504945674 
-0.0004317978455186379 
0.004855397705026822 
-0.007546771402973752 
-0.001821641735431151 
0.0003134881950951161 
0.009937290272898533 
-0.005927666910134669 
0.002109818812946622 
-0.007063255901958275 
0.00460122127998491 
-0.01168289952218472 
-0.007952044173032467 
-0.0093238192711977 
0.00973903702841852 
0.000601085413072367 
-0.0007253071024065237 
-0.0133597066683783 
0.000490167731735928 
-0.01381881062535438 
-0.009404841379633331 
0.001150894819940933 
-0.004538440496486406 
-0.01913177023959956 
-0.0009599033960763123 
0.004401880353440244 
-0.01189057756624896 
-0.002789766273004915 
-0.01293214833730762 
-0.002995846869393646 
-0.003086881513926041 
-0.007264304372022154 
0.0009621570198281168 
-0.005924600766673276 
-0.005457948184639954 
-0.0003006212981538615 
-0.01004031334990435 
-0.001815735865537755 
-0.007499423797358579 
0.001047447606478401 
-0.0003194849749789597 
0.003436328877637605 
-0.00850719877385922 
0.000631789549737781 
-0.006634815266099999 
-0.005931983890455665 
-0.005473114083036614 
0.006792878313078492 
-0.0001374548784076975 
-0.004259004978991433 
-0.001425522585262501 
0.006546126669746109 
-0.004057994478537835 
-0.002324796593475604 
0.005750059924654527 
0.0156747238553131 
0.002984238341809885 
-0.01365214727781715 
0.004387280977623469 
0.002527831468233904 
-0.004132604722496274 
-0.003954714946486576 
-0.001606109881131748 
0.00222832465549047 
-0.01167746391254537 
-0.01616961930392365 
-0.00293318706504932 
0.0008783919366096594 
-0.002147558784073707 
0.0007284126157187453 
0.0005619251641401356 
0.003631434738690785 
-0.0002167802263544938 
-0.000864851572086814 
-0.008060885555872383 
0.005555824886987282 
-0.007242943410723694 
0.0006192252702526247 
-0.0006594141100766555 
0.005614722448671134 
0.004772665684277442 
-0.004555545031648624 
0.0008005792843962423 
0.01411388375355118 
0.000404341477777809 
0.0005146256253627089 
-5.76155330880516e-05 
0.005269975658257158 
-0.00254291650859812 
-0.00226233765985145 
-0.01369303104357949 
-0.005499735780006316 
-0.007426095401078542 
0 
0.0001389332380091057 
0.0001210809087438095 
0.001794129070530243 
0.009317147556838948 
0.003025474269473442 
0.01138100412678534 
0.01205902995406716 
-0.003480674119342592 
-0.0014454199293713 
0.004789084965909557 
-0.001765664423259793 
0.001409908091460957 
-0.01089508129029672 
0.005317390554393668 
-0.003101621418330941 
-0.003180997709427881 
-0.0007702355510993345 
0.001803553493118466 
0.01046627474437075 
-0.003748504956354987 
0.004536080851332708 
0.01815132992850706 
0.00355150588866169 
-0.002379420718616801 
-0.00239369131662996 
0.003165261123091781 
-0.0008579621735960493 
0.006245004044022814 
0.01178268691208798 
0.006250058070605348 
-0.01032258146621481 
-0.005934242382998714 
0.0049350365726915 
0.006385540481972996 
0.005839434255328987 
0.01634133098476066 
0.002712837899437204 
-0.01533367246075168 
0.01023677829888619 
0.0002853345971638436 
0.002450501055876839 
0.004607246243693789 
0.00577140806404056 
0.002105431776999393 
0.004003261854854288 
0.01445724645407379 
0.003567179671037086 
0.0004488061078445113 
0.001441265234859701 
0.0008623647545026495 
-0.005284466875892429 
-0.0008981554296842916 
-0.01288930631415657 
-0.006554183820688568 
0.003507702425417948 
-0.009314358746699534 
0.007398817447298859 
0.01510273975218261 
0.004787028508541035 
0.004114154711822639 
0.007551226639703546 
0.00703435048385506 
0.0125240855991921 
0.006109441050934355 
0.00115197390521551 
0.005369058774445327 
0.001752357946322782 
0.003040169677342192 
0.007130130923279154 
0.008374152633342591 
0.005282238648018245 
-0.0001066016700948469 
-0.004121176996682759 
-0.003467104324469402 
-0.003273390260742648 
0.01113168778352812 
-0.006375141441434837 
-0.00169592462180154 
0.01239476430818793 
0.001443006150049428 
0.01409614648891577 
-0.0003127918784853382 
0.009462142867101363 
0.005489598382610116 
0.002526786989428122 
-0.009321902821517429 
0.003186328927976648 
-0.007752955654108817 
-0.005044116921162478 
-1.17564491699841e-05 
0.0013030174743944 
0.004132382237383986 
0.003760708388316501 
-0.005716001898583374 
-0.005974263385370614 
-0.003622632690138126 
0.00439917858926822 
0.0124952430938459 
0.01010336799912111 
0.0189646125689396 
0.007242884481831917 
0.001777758903654322 
0.002250927943130472 
0.003119169133389867 
-0.006842857566027994 
0.0007729747950006487 
0.008216101416341421 
0.00142167611044247 
-0.0005177888734290909 
0.007594136127901508 
-0.0002545260213601315 
0.00395724601217396 
-0.0005863667243210985 
-0.009425016498018312 
0.002595420356395803 
0.0003128379620108551 
0.003117698937934648 
0.007832477131076812 
0.006640330471165627 
-0.008954734599601636 
0.01751553476190068 
-0.009924706759594783 
0.0009012502393493391 
0.005813614179856888 
-0.002219291230866952 
0.00354508186817554 
-0.00348579659220566 
0.007968696469267587 
0.005849065756804421 
-0.002703059804160017 
-0.005472800500241366 
0.009481862866307646 
-0.006502854709046739 
0.0005299552189846388 
0.00244389946578598 
-0.0009874371383347925 
-0.004992395219670463 
0.01498747759736158 
0.01133800007539363 
0.003960788696721737 
-0.006945500211440638 
-0.00382947850847062 
-0.0003784608036112499 
0.002548049929766315 
0.005978692428217135 
0.009221630061077776 
0.004969002863646668 
0.006034760038433556 
0.005616563817627915 
0.005261905879682208 
0.001571715111191586 
0.000792923543410761 
0.01114667127489222 
0.01105703465646605 
0.006754478357186913 
-0.004824976104631149 
0.01215097228019339 
0.01364150167803767 
0.004789313294345804 
0.001565368113375188 
-0.01507016016063224 
0.001283321826707457 
0.01512720864093305 
0.006889411921152806 
-0.00148908940076662 
-0.0005062201979090875 
-0.00468039973217337 
0.007320847940733849 
-0.006596278006428954 
0.006053396271422448 
-0.002493405965027969 
0.01357867739910471 
0.002955305032172593 
-0.008277005425226861 
-0.0002295941844006745 
-0.007776143053199044 
0.009998003040131728 
-0.0006515912519742777 
0.008232465278407118 
0.01552217623498718 
