solver_type L2R_L2LOSS_SVC_DUAL
nr_class 2
label 1 -1
nr_feature 6144
bias 1
w
0 
-0.001033024041497464 
-0.002066048082994927 
-0.003099072124492253 
-0.004132096165989856 
-0.005165120207486882 
-0.006138714511625136 
-0.007112308815763106 
-0.007699619338226506 
-0.008240327484155988 
-0.009034504537994925 
-0.009191416369859816 
-0.009349876016079329 
-0.008833631416575677 
-0.009401631916633953 
-0.01025657539939658 
-0.009738560390783229 
-0.009088026886790779 
-0.007784541042841704 
-0.004275339598178041 
0.001396341992204747 
0.002093694596393895 
0.002305655529697023 
0.004189552551274667 
0.005137688481234461 
0.001878384464291345 
0.001843463165983041 
0.002799772512556783 
0.002163623486413917 
0.001481581233909734 
0.0005828017526108288 
-0.0002356323704043728 
-0.0002356323704043728 
-0.0002356323704043728 
-0.0002356323704043728 
-0.0002356323704043728 
-0.0002356323704043728 
-0.0002356323704043728 
-0.0002356323704043728 
-0.0002356323704043728 
0 
0.000153065256771837 
0.001375729417496671 
0.001501351657266266 
0.002500082812819525 
0.002169781640629507 
0.003441753172712302 
0.004945573479253116 
0.005276209015036081 
0.00831858240226898 
0.01199705526843115 
0.01418329137830556 
0.01580285552012322 
0.01650293348254029 
0.01678123234723591 
0.01748819924080389 
0.01763528946804947 
0.01645128445166563 
0.01458073314744703 
0.01018421927561513 
0.007537370680346657 
0.009285390166661252 
0.01419519844533814 
0.01712212054978712 
0.01574613692943502 
0.01475074399973694 
0.01370497356249648 
0.01243587864223793 
0.01143297837718051 
0.01021254201394054 
0.009901545746372772 
0.009901545746372772 
0.009901545746372772 
0.009901545746372772 
0.009901545746372772 
0.009901545746372772 
0.009901545746372772 
0.009901545746372772 
0.009901545746372772 
0.009901545746372772 
-0.007882919454829555 
-0.003870302555197301 
0.003287378026511171 
0.006371338441512972 
0.00999890238439366 
0.01042113702423063 
0.01009365553915955 
0.01007442805172716 
0.009783769235962712 
0.009698194025993107 
0.02008166754528052 
0.01994295048938561 
0.01994295048938561 
0.01994295048938561 
0.01994295048938561 
0.01994295048938561 
0.01994295048938561 
0.01994295048938561 
0.01994295048938561 
0.01994295048938561 
0 
0.003865755578710758 
0.003772123490812178 
0.003990741815762118 
0.00395150520725767 
0.003819313950549221 
0.003819313950549221 
0.003819313950549221 
0.003819313950549221 
0.003819313950549221 
0.003819313950549221 
0.003819313950549221 
0.003819313950549221 
0.003819313950549221 
0.003819313950549221 
0.003819313950549221 
0.003819313950549221 
0.003819313950549221 
0.003819313950549221 
0.003819313950549221 
0 
0.003153515481566363 
0.005962825667944319 
0.00693034563324448 
0.006711985700341041 
0.006880404067901065 
0.006126946616174182 
0.006024832304899705 
0.006074250599391609 
0.006202367220963581 
0.006202367220963581 
0.006202367220963581 
0.006202367220963581 
0.006202367220963581 
0.006202367220963581 
0.006202367220963581 
0.006202367220963581 
0.006202367220963581 
0.006202367220963581 
0.006202367220963581 
0 
0.001728257577789957 
0.001066258823374297 
0.002187644786371599 
0.001688488967358215 
-0.0005067628120832004 
-0.002515531069746254 
-0.004712711007640699 
-0.00521556806681897 
-0.003234997363948004 
-0.001740521248724648 
-0.001295961706741547 
-0.0006002977780508609 
-0.0002799389704694989 
4.041983711179296e-005 
0.0003191429373978036 
0.0005978660376836743 
0.0006059538778278923 
0.0006140417179720921 
0.0006221295581163728 
0.0006302173982605717 
-0.0002948662540423761 
-0.001998308132981364 
0.001058499683905464 
0.003312812349850283 
0.002328733148660906 
0.00337401861449636 
0.005192323417447528 
0.005254186358611593 
0.005118959749482708 
0.005178465120052286 
0.005777450711606956 
0.007614289585007299 
0.01141365777855779 
0.01488494232368584 
0.01628666777256254 
0.01712545148794572 
0.01705261022284428 
0.01706097669613037 
0.01657207726253562 
0.01701099227605874 
0.01889837857811642 
0.02458705214150307 
0.02674935863551041 
0.02648575301703861 
0.02915064658102769 
0.03048957691195102 
0.03128198953069932 
0.03171890095694371 
0.03200476967904427 
0.03200476967904427 
0.03200476967904427 
0.03200476967904427 
0.03200476967904427 
0.03200476967904427 
0.03200476967904427 
0.03200476967904427 
0.03200476967904427 
0.03200476967904427 
0.03200476967904427 
0 
0.005184996770380985 
0.01234284986005329 
0.01520999211330646 
0.01690150207935932 
0.01706687860555925 
0.01706687860555924 
0.01706687860555924 
0.01706687860555924 
0.01706687860555924 
0.01706687860555924 
0.01706687860555924 
0.01706687860555924 
0.01706687860555924 
0.01706687860555924 
0.01706687860555924 
0.01706687860555924 
0.01706687860555924 
0.01706687860555924 
0.01706687860555924 
0 
0.00151444847251274 
0.00742151563188115 
0.0139366949985035 
0.02083749801672372 
0.02554766097516555 
0.02681539470889001 
0.0251725168264509 
0.0236817699965937 
0.02250887179652831 
0.02169511121948328 
0.02113908436250721 
0.02029748477001774 
0.01963082786582616 
0.01961455550541287 
0.01959828314499957 
0.0195820107845867 
0.01957482387651584 
0.01957482387651584 
0.01957482387651584 
0 
-0.001423882035770078 
-0.001823570945134881 
-0.004004892838000632 
-0.004778077023878919 
-0.005632443645960646 
-0.00580650244366942 
-0.0060085105674741 
-0.0060085105674741 
-0.0060085105674741 
-0.0060085105674741 
-0.0060085105674741 
-0.0060085105674741 
-0.0060085105674741 
-0.0060085105674741 
-0.0060085105674741 
-0.0060085105674741 
-0.0060085105674741 
-0.0060085105674741 
-0.0060085105674741 
0 
-0.001714631189393829 
-0.0006326341355518111 
-0.001167250582822008 
-0.001484132518247495 
-0.001484132518247495 
-0.001484132518247495 
-0.001484132518247495 
-0.001484132518247495 
-0.001484132518247495 
-0.001484132518247495 
-0.001484132518247495 
-0.001484132518247495 
-0.001484132518247495 
-0.001484132518247495 
-0.001484132518247495 
-0.001484132518247495 
-0.001484132518247495 
-0.001484132518247495 
-0.001484132518247495 
0 
0.007054257211050394 
0.01890757121504546 
0.02314006006043086 
0.02488530378725744 
0.02456339845645323 
0.02377543465553326 
0.02341207291227469 
0.02301344933734799 
0.02298546534065299 
0.02298546534065299 
0.022985465340653 
0.02298546534065301 
0.02298546534065301 
0.022985465340653 
0.022985465340653 
0.022985465340653 
0.022985465340653 
0.022985465340653 
0.022985465340653 
0 
0.001045583507290665 
0.003213607472788769 
0.005670533222896493 
0.009045845247295634 
0.0171632221599961 
0.02185253219153653 
0.02384779006226633 
0.02672993692788075 
0.02972006779417137 
0.03460743280025906 
0.0383988807383669 
0.04165524940758559 
0.04386521241606699 
0.04511229014250924 
0.04601949055488164 
0.0458998764575738 
0.04570127450376237 
0.04531338493500423 
0.04546525794075508 
0.04525385917588087 
0.04515351275627497 
0.04562164336130288 
0.04724440285145872 
0.0482021075408467 
0.04954075816838748 
0.05013894791184723 
0.04908958566651906 
0.04925988518415508 
0.05241968526746297 
0.05407685099180435 
0.05578230456790662 
0.05631841989217711 
0.05612166662562192 
0.05527120508935418 
0.05398486292608787 
0.05189240094317839 
0.04977312388020946 
0.04762947921280246 
0.04493672682615828 
0.04315077115036452 
0.04137113616334043 
0.04195251377113173 
0.04036467280742986 
0.0374278197632793 
0.03552267577968016 
-0.00703862087350798 
-0.008008090649234882 
-0.00872614420208377 
-0.009172102468656651 
-0.009172102468656651 
-0.009172102468656651 
-0.009172102468656651 
-0.009172102468656651 
-0.009172102468656651 
-0.009172102468656651 
-0.009172102468656651 
-0.009172102468656651 
-0.009172102468656651 
-0.009172102468656651 
0 
-0.005299336422668652 
-0.008155984948694683 
-0.01059890700566019 
-0.01152431111141051 
-0.01200555503906867 
-0.01200555503906867 
-0.01200555503906867 
-0.01200555503906867 
-0.01200555503906867 
-0.01200555503906867 
-0.01200555503906867 
-0.01200555503906867 
-0.01200555503906867 
-0.01200555503906867 
-0.01200555503906867 
-0.01200555503906867 
-0.01200555503906867 
-0.01200555503906867 
-0.01200555503906867 
0 
-0.002455269810936255 
-0.007178704552142317 
-0.01022201095048079 
-0.01114377249272962 
-0.01179399845580799 
-0.01232484763991824 
-0.01239695612185515 
-0.01239695612185517 
-0.01239695612185515 
-0.01239695612185515 
-0.01239695612185515 
-0.01239695612185515 
-0.01239695612185515 
-0.01239695612185515 
-0.01239695612185515 
-0.01239695612185515 
-0.01239695612185515 
-0.01239695612185515 
-0.01239695612185515 
0 
-0.0007627002072087783 
0.002002938517668015 
0.004321407616691461 
0.002303927874931956 
0.002139962350650242 
0.00167236945603041 
0.0009066231405921106 
0.0008415582838456004 
0.0005183732807222108 
0.0005183732807222108 
0.0005183732807222108 
0.0005183732807222108 
0.0005183732807222108 
0.0005183732807222108 
0.0005183732807222108 
0.0005183732807222108 
0.0005183732807222108 
0.0005183732807222108 
0.0005183732807222108 
0 
-0.002336666334550861 
-0.00494585549171696 
-0.004973357569909444 
-0.004973357569909435 
-0.004973357569909435 
-0.004973357569909435 
-0.004973357569909435 
-0.004973357569909435 
-0.004973357569909435 
-0.004973357569909435 
-0.004973357569909435 
-0.004973357569909435 
-0.004973357569909435 
-0.004973357569909435 
-0.004973357569909435 
-0.004973357569909435 
-0.004973357569909435 
-0.004973357569909435 
-0.004973357569909435 
0 
-0.0006088460009253116 
-0.0009677187849489667 
0.0001518029309175702 
-0.0002673730554132407 
-0.002324285905169937 
-0.003036216173241841 
-0.002874367187354371 
-0.003491463338846156 
-0.003956212146704628 
-0.004378797055154848 
-0.004450701216273148 
-0.004522605377391398 
-0.004594509538509786 
-0.004594509538509786 
-0.004594509538509786 
-0.004594509538509786 
-0.004594509538509786 
-0.004594509538509786 
-0.004594509538509786 
0 
0.001049972576621382 
0.001873874947398749 
-0.001102442628906979 
-0.002453679723449503 
-0.003987713257637656 
-0.005615021811142508 
-0.008416968982395863 
-0.01298424810995764 
-0.01676946996703579 
-0.02143537528375048 
-0.02597310652863443 
-0.03043374227544772 
-0.03480216734321944 
-0.03882036484491667 
-0.04267156233966991 
-0.04587217511926352 
-0.04845989911840657 
-0.05026196030016022 
-0.05219427838710405 
-0.05379927686062359 
-0.0502369079932958 
-0.04891917930072012 
-0.04480271409422695 
-0.04066159116920795 
-0.03788912443404488 
-0.03794365523479398 
-0.03830930566609272 
-0.03846341781803891 
-0.03843077078131637 
-0.03796194586677331 
-0.03807917179867595 
-0.03835913435274201 
-0.0386390969068092 
-0.03885321804862838 
-0.03885321804862838 
-0.03885321804862838 
-0.03885321804862838 
-0.03885321804862838 
-0.03885321804862838 
-0.06159014670343895 
-0.05949926862817274 
-0.05492316653841368 
-0.05458984602807174 
-0.05455577669831115 
-0.05455577669831115 
-0.05455577669831115 
-0.05455577669831115 
-0.05455577669831115 
-0.05455577669831115 
-0.05455577669831115 
-0.05455577669831115 
-0.05455577669831115 
-0.05455577669831115 
-0.05455577669831115 
-0.05455577669831115 
-0.05455577669831115 
-0.05455577669831115 
-0.05455577669831115 
-0.05455577669831115 
0 
-0.0004225594559457964 
-0.001079068514029486 
-0.001079068514029486 
-0.001079068514029486 
-0.001079068514029486 
-0.001079068514029486 
-0.001079068514029486 
-0.001079068514029486 
-0.001079068514029486 
-0.001079068514029486 
-0.001079068514029486 
-0.001079068514029486 
-0.001079068514029486 
-0.001079068514029486 
-0.001079068514029486 
-0.001079068514029486 
-0.001079068514029486 
-0.001079068514029486 
-0.001079068514029486 
0 
0.002323917151873336 
-1.284486963263359e-005 
-0.0002112807611349442 
-0.0002161412517018012 
-0.0002161412517018012 
-0.0002161412517018012 
-0.0002161412517018012 
-0.0002161412517018012 
-0.0002161412517018012 
-0.0002161412517018012 
-0.0002161412517018012 
-0.0002161412517018012 
-0.0002161412517018012 
-0.0002161412517018012 
-0.0002161412517018012 
-0.0002161412517018012 
-0.0002161412517018012 
-0.0002161412517018012 
-0.0002161412517018012 
0 
0.001070032964449325 
0.003571034340782877 
0.004263907523914322 
0.004411896254511566 
0.004411896254511566 
0.004411896254511566 
0.004411896254511566 
0.004411896254511566 
0.004411896254511566 
0.004411896254511566 
0.004411896254511566 
0.004411896254511566 
0.004411896254511566 
0.004411896254511566 
0.004411896254511566 
0.004411896254511566 
0.004411896254511566 
0.004411896254511566 
0.004411896254511566 
0 
0.003770546123111759 
0.00504680750089253 
0.00466125030578492 
0.004721415899876675 
0.004721415899876675 
0.004721415899876675 
0.004721415899876675 
0.004721415899876675 
0.004721415899876675 
0.004721415899876675 
0.004721415899876675 
0.004721415899876675 
0.004721415899876675 
0.004721415899876675 
0.004721415899876675 
0.004721415899876675 
0.004721415899876675 
0.004721415899876675 
0.004721415899876675 
0 
0.0007033257761885867 
-0.0007760451942893104 
-0.00140916692482902 
-0.00140916692482902 
-0.00140916692482902 
-0.00140916692482902 
-0.00140916692482902 
-0.00140916692482902 
-0.00140916692482902 
-0.00140916692482902 
-0.00140916692482902 
-0.00140916692482902 
-0.00140916692482902 
-0.00140916692482902 
-0.00140916692482902 
-0.00140916692482902 
-0.00140916692482902 
-0.00140916692482902 
-0.00140916692482902 
0 
-0.001096474929151258 
-0.003016376578905853 
-0.002293217167887614 
-0.002388242501502574 
-0.001387512408105454 
-0.001148836481214371 
0.0006188609581182519 
0.001142825647363984 
0.00171095628147547 
0.00298116730156986 
0.00373608413487777 
0.004824846609232198 
0.005288100210390517 
0.005713605246581043 
0.006198540020131332 
0.0063992530833621 
0.006599966146592687 
0.006642603480272455 
0.006650691320416701 
0.006658779160561046 
0.005694182605367554 
0.003641673476199645 
0.004877102217200051 
0.001912796075885783 
0.002506714784175124 
0.001754420235317746 
0.001129863973791375 
0.0006562995354170002 
0.0001644949962649719 
0.0003923276106068283 
0.0005693133220549349 
0.0005693133220549661 
0.0005693133220549974 
0.0005693133220549974 
0.0005693133220549974 
0.0005693133220549974 
0.0005693133220549974 
0.0005693133220549974 
0.0005693133220549974 
0 
0.001847844442241205 
0.002479068288164972 
0.001559668410345108 
0.0009538736373274494 
0.0008177535717830972 
0.0008177535717830915 
0.0008177535717830915 
0.0008177535717830915 
0.0008177535717830915 
0.0008177535717830915 
0.0008177535717830915 
0.0008177535717830915 
0.0008177535717830915 
0.0008177535717830915 
0.0008177535717830915 
0.0008177535717830915 
0.0008177535717830915 
0.0008177535717830915 
0.0008177535717830915 
0 
0.002515093104500556 
0.006042122170331898 
0.002888933382766138 
-0.0008724234920853372 
-0.001266359546395565 
-0.001500539305492201 
-0.001471216301027234 
-0.001536359799498666 
-0.001601503297970115 
-0.001601503297970115 
-0.001601503297970115 
-0.001601503297970115 
-0.001601503297970115 
-0.001601503297970115 
-0.001601503297970115 
-0.001601503297970115 
-0.001601503297970115 
-0.001601503297970115 
-0.001601503297970115 
0 
-0.003756900821928674 
-0.002575550414019649 
-0.002243854067699654 
-0.002199520731929864 
-0.002420326049480325 
-0.002420326049480325 
-0.002420326049480325 
-0.002420326049480325 
-0.002420326049480325 
-0.002420326049480325 
-0.002420326049480325 
-0.002420326049480325 
-0.002420326049480325 
-0.002420326049480325 
-0.002420326049480325 
-0.002420326049480325 
-0.002420326049480325 
-0.002420326049480325 
-0.002420326049480325 
0 
0.001620839977763799 
0.003491324382279674 
0.00345363673943839 
0.003505120763597492 
0.003505120763597478 
0.003505120763597478 
0.003505120763597478 
0.003505120763597478 
0.003505120763597478 
0.003505120763597478 
0.003505120763597478 
0.003505120763597478 
0.003505120763597478 
0.003505120763597478 
0.003505120763597478 
0.003505120763597478 
0.003505120763597478 
0.003505120763597478 
0.003505120763597478 
0 
-0.001587839353783371 
-0.002176119019839299 
-0.002176119019839299 
-0.002176119019839299 
-0.002176119019839299 
-0.002176119019839299 
-0.002176119019839299 
-0.002176119019839299 
-0.002176119019839299 
-0.002176119019839299 
-0.002176119019839299 
-0.002176119019839299 
-0.002176119019839299 
-0.002176119019839299 
-0.002176119019839299 
-0.002176119019839299 
-0.002176119019839299 
-0.002176119019839299 
-0.002176119019839299 
0 
-0.001050311470312109 
-0.0007217302031066763 
-0.0006012670565765774 
-0.0003632149064874853 
-0.0003632149064874853 
-0.0003632149064874853 
-0.0003632149064874853 
-0.0003632149064874853 
-0.0003632149064874853 
-0.0003632149064874853 
-0.0003632149064874853 
-0.0003632149064874853 
-0.0003632149064874853 
-0.0003632149064874853 
-0.0003632149064874853 
-0.0003632149064874853 
-0.0003632149064874853 
-0.0003632149064874853 
-0.0003632149064874853 
0 
-0.001027276536685078 
-0.001440974843416931 
-0.002938175743664617 
-0.003197036764717083 
-0.002937515164541207 
-0.002937515164541207 
-0.002937515164541207 
-0.002937515164541207 
-0.002937515164541207 
-0.002937515164541207 
-0.002937515164541207 
-0.002937515164541207 
-0.002937515164541207 
-0.002937515164541207 
-0.002937515164541207 
-0.002937515164541207 
-0.002937515164541207 
-0.002937515164541207 
-0.002937515164541207 
0 
0.002257766129278778 
0.003316438042496911 
0.002243637662138974 
0.001130878503153613 
0.001078378969542247 
0.0005312499778648882 
-0.0005711062155843169 
-0.0008143766992967838 
-0.0009106902070553399 
-0.001007003714813812 
-0.001007003714813818 
-0.001007003714813818 
-0.001007003714813818 
-0.001007003714813818 
-0.001007003714813818 
-0.001007003714813818 
-0.001007003714813818 
-0.001007003714813818 
-0.001007003714813818 
0 
0.003810043950576996 
0.008008048087770982 
0.01254608209922115 
0.01560234273500344 
0.0153268980964989 
0.01403997337785777 
0.01486315133794596 
0.01449547433538219 
0.01518748598446774 
0.01510571382027708 
0.01514184939423473 
0.01506205961652912 
0.01539122871751843 
0.01554039264762379 
0.01568955657772874 
0.01583872050783419 
0.01577434339457762 
0.01570996628132116 
0.01570996628132116 
0 
0.001934807949819976 
0.003744531357006295 
0.003949792631538645 
0.002848524291898523 
0.001853695552306932 
0.001942408379676338 
0.001529975201605909 
0.001216797834450234 
0.0009742813701464545 
0.0008112096442559444 
0.0008112096442559444 
0.0008112096442559444 
0.0008112096442559444 
0.0008112096442559444 
0.0008112096442559444 
0.0008112096442559444 
0.0008112096442559444 
0.0008112096442559444 
0.0008112096442559444 
0 
0.001859449262609445 
0.005140379422915776 
0.008007853486190569 
0.01313805231149724 
0.01719623706964613 
0.02026158784060012 
0.02427938899033027 
0.02675082634638603 
0.03113504543971368 
0.03539450525977539 
0.03667825193806784 
0.03644361168893338 
0.03771827290564214 
0.03863871144800804 
0.0398598530664236 
0.03960163013647741 
0.03897942081357955 
0.03789841295619151 
0.03610413315519094 
0.03420323002620887 
0.03246214220601412 
0.03122098260618156 
0.0291471610095308 
0.02745611502523867 
0.02745611502523867 
0.02745611502523867 
0.02745611502523867 
0.02745611502523867 
0.02745611502523867 
0.02745611502523867 
0.02745611502523867 
0.02745611502523867 
0.02745611502523867 
0.02745611502523867 
0.02745611502523867 
0.02745611502523867 
0.02745611502523867 
0.02745611502523867 
0.02745611502523867 
0.01308667904035342 
0.009344125921645911 
0.007545985707387412 
0.006672773662960275 
0.006776143069695997 
0.006613071343805461 
0.006449999617914948 
0.006449999617914948 
0.006449999617914948 
0.006449999617914948 
0.006449999617914948 
0.006449999617914948 
0.006449999617914948 
0.006449999617914948 
0.006449999617914948 
0.006449999617914948 
0.006449999617914948 
0.006449999617914948 
0.006449999617914948 
0.006449999617914948 
0 
0.003166692976245299 
0.003573918335076047 
0.004887447702544926 
0.005990435179690633 
0.006516203163260407 
0.006516203163260407 
0.006516203163260407 
0.006516203163260407 
0.006516203163260407 
0.006516203163260407 
0.006516203163260407 
0.006516203163260407 
0.006516203163260407 
0.006516203163260407 
0.006516203163260407 
0.006516203163260407 
0.006516203163260407 
0.006516203163260407 
0.006516203163260407 
0 
0.00069736848905373 
0.001921180132563229 
0.001640904660416728 
0.001107465757304226 
0.0008736371534178821 
0.0009013316516915972 
0.0004915149060423333 
-0.0002452454625755093 
-0.0008585711040210447 
-0.00135493052199292 
-0.00186120947611047 
-0.002047324787639907 
-0.002056410239982304 
-0.002065495692324695 
-0.00207458114466713 
-0.00207458114466713 
-0.00207458114466713 
-0.00207458114466713 
-0.00207458114466713 
0 
-3.572589179116614e-005 
0.0002622396950587816 
0.001876226996821625 
0.001568002187717796 
0.001448435433904826 
0.001219143492392523 
0.001219143492392522 
0.001219143492392522 
0.001219143492392523 
0.001219143492392523 
0.001219143492392523 
0.001219143492392523 
0.001219143492392523 
0.001219143492392523 
0.001219143492392523 
0.001219143492392523 
0.001219143492392523 
0.001219143492392523 
0.001219143492392523 
0 
0.0004486929965327446 
-2.02611684570711e-005 
-8.255298904457116e-005 
-0.0001448448096320859 
-0.0001448448096320868 
-0.0001448448096320868 
-0.0001448448096320868 
-0.0001448448096320868 
-0.0001448448096320868 
-0.0001448448096320868 
-0.0001448448096320868 
-0.0001448448096320868 
-0.0001448448096320868 
-0.0001448448096320868 
-0.0001448448096320868 
-0.0001448448096320868 
-0.0001448448096320868 
-0.0001448448096320868 
-0.0001448448096320868 
0 
7.544431422987098e-006 
3.429108433842525e-005 
3.429108433842525e-005 
3.429108433842525e-005 
3.429108433842525e-005 
3.429108433842525e-005 
3.429108433842525e-005 
3.429108433842525e-005 
3.429108433842525e-005 
3.429108433842525e-005 
3.429108433842525e-005 
3.429108433842525e-005 
3.429108433842525e-005 
3.429108433842525e-005 
3.429108433842525e-005 
3.429108433842525e-005 
3.429108433842525e-005 
3.429108433842525e-005 
3.429108433842525e-005 
0 
-0.001692254751109958 
-0.002277085458705925 
-0.002371950702220253 
-0.002371950702220253 
-0.002371950702220253 
-0.002371950702220253 
-0.002371950702220253 
-0.002371950702220253 
-0.002371950702220253 
-0.002371950702220253 
-0.002371950702220253 
-0.002371950702220253 
-0.002371950702220253 
-0.002371950702220253 
-0.002371950702220253 
-0.002371950702220253 
-0.002371950702220253 
-0.002371950702220253 
-0.002371950702220253 
0 
0.004808510712256616 
0.004286214152574626 
0.004867444261227249 
0.004867444261227249 
0.004867444261227249 
0.004867444261227249 
0.004867444261227249 
0.004867444261227249 
0.004867444261227249 
0.004867444261227249 
0.004867444261227249 
0.004867444261227249 
0.004867444261227249 
0.004867444261227249 
0.004867444261227249 
0.004867444261227249 
0.004867444261227249 
0.004867444261227249 
0.004867444261227249 
0 
-0.0008357943790859699 
-0.000848854467214104 
-0.0008488544672141066 
-0.0008488544672141066 
-0.0008488544672141066 
-0.0008488544672141066 
-0.0008488544672141066 
-0.0008488544672141066 
-0.0008488544672141066 
-0.0008488544672141066 
-0.0008488544672141066 
-0.0008488544672141066 
-0.0008488544672141066 
-0.0008488544672141066 
-0.0008488544672141066 
-0.0008488544672141066 
-0.0008488544672141066 
-0.0008488544672141066 
-0.0008488544672141066 
0 
0.0006571875906991984 
0.0006126845677240059 
0.001140977447281724 
0.001129876110172161 
0.001129876110172161 
0.001129876110172161 
0.001129876110172161 
0.001129876110172161 
0.001129876110172161 
0.001129876110172161 
0.001129876110172161 
0.001129876110172161 
0.001129876110172161 
0.001129876110172161 
0.001129876110172161 
0.001129876110172161 
0.001129876110172161 
0.001129876110172161 
0.001129876110172161 
0 
0.0008837436462909762 
-0.0028940497124206 
-0.003564198069066553 
-0.003715535663624366 
-0.003715535663624296 
-0.003715535663624296 
-0.0037155356636243 
-0.0037155356636243 
-0.0037155356636243 
-0.0037155356636243 
-0.0037155356636243 
-0.0037155356636243 
-0.0037155356636243 
-0.0037155356636243 
-0.0037155356636243 
-0.0037155356636243 
-0.0037155356636243 
-0.0037155356636243 
-0.0037155356636243 
0 
0.0009296983077549671 
0.003730672359255905 
0.004102516977852749 
0.004096255746232663 
0.004096255746232663 
0.004096255746232663 
0.004096255746232663 
0.004096255746232663 
0.004096255746232663 
0.004096255746232663 
0.004096255746232663 
0.004096255746232663 
0.004096255746232663 
0.004096255746232663 
0.004096255746232663 
0.004096255746232663 
0.004096255746232663 
0.004096255746232663 
0.004096255746232663 
0 
0.006588912772764175 
0.01059646775343346 
0.01177838011239323 
0.01204025622304383 
0.01238011082147232 
0.01256859350183315 
0.01256859350183315 
0.01256859350183315 
0.01256859350183315 
0.01256859350183315 
0.01256859350183315 
0.01256859350183315 
0.01256859350183315 
0.01256859350183315 
0.01256859350183315 
0.01256859350183315 
0.01256859350183315 
0.01256859350183315 
0.01256859350183315 
0 
-0.000343620535929031 
-0.0006611355936057637 
-0.0006611355936057637 
-0.0006611355936057637 
-0.0006611355936057637 
-0.0006611355936057637 
-0.0006611355936057637 
-0.0006611355936057637 
-0.0006611355936057637 
-0.0006611355936057637 
-0.0006611355936057637 
-0.0006611355936057637 
-0.0006611355936057637 
-0.0006611355936057637 
-0.0006611355936057637 
-0.0006611355936057637 
-0.0006611355936057637 
-0.0006611355936057637 
-0.0006611355936057637 
0 
0.006243703700141023 
0.007116280749928971 
0.008037489219626088 
0.008037489219626088 
0.008037489219626088 
0.008037489219626088 
0.008037489219626088 
0.008037489219626088 
0.008037489219626088 
0.008037489219626088 
0.008037489219626088 
0.008037489219626088 
0.008037489219626088 
0.008037489219626088 
0.008037489219626088 
0.008037489219626088 
0.008037489219626088 
0.008037489219626088 
0.008037489219626088 
0 
-0.001408018081856565 
-0.00223069613391044 
-0.002924256112781412 
-0.003394051193539071 
-0.003791688828916874 
-0.003791688828916874 
-0.003791688828916874 
-0.003791688828916874 
-0.003791688828916874 
-0.003791688828916874 
-0.003791688828916874 
-0.003791688828916874 
-0.003791688828916874 
-0.003791688828916874 
-0.003791688828916874 
-0.003791688828916874 
-0.003791688828916874 
-0.003791688828916874 
-0.003791688828916874 
0 
0.0006165354202441216 
0.0009432498727180434 
-9.319867361652553e-005 
-0.000723041828632634 
-0.0008498309915570923 
-0.0008498309915570923 
-0.0008498309915570923 
-0.0008498309915570923 
-0.0008498309915570923 
-0.0008498309915570923 
-0.0008498309915570923 
-0.0008498309915570923 
-0.0008498309915570923 
-0.0008498309915570923 
-0.0008498309915570923 
-0.0008498309915570923 
-0.0008498309915570923 
-0.0008498309915570923 
-0.0008498309915570923 
0 
-0.001410388449514679 
-0.001169509385609454 
-0.001393109239631674 
-0.001269225688921205 
-0.001269225688921205 
-0.001269225688921205 
-0.001269225688921205 
-0.001269225688921205 
-0.001269225688921205 
-0.001269225688921205 
-0.001269225688921205 
-0.001269225688921205 
-0.001269225688921205 
-0.001269225688921205 
-0.001269225688921205 
-0.001269225688921205 
-0.001269225688921205 
-0.001269225688921205 
-0.001269225688921205 
0 
0.001162925990967336 
0.0006963035815903741 
-0.0005884128521797289 
0.0001421294110708637 
0.0007857121714155204 
0.002490859833431144 
0.003152430511780439 
0.003101919245518023 
0.003101919245518023 
0.00310191924551802 
0.00310191924551802 
0.00310191924551802 
0.00310191924551802 
0.00310191924551802 
0.00310191924551802 
0.00310191924551802 
0.00310191924551802 
0.00310191924551802 
0.00310191924551802 
0 
-0.0001213727200015582 
0.001649924153352346 
0.002929410004316842 
0.007213757847524826 
0.01059853810070051 
0.01425608525505369 
0.01554337838607966 
0.019075792336837 
0.02074247275651844 
0.02037119361120494 
0.0167656322958926 
0.01502387255573598 
0.0151013180191203 
0.0141980068476349 
0.01258719035476735 
0.009722374004336931 
0.007243707288371126 
0.004763657636078297 
0.001994244377050502 
-0.0005044554635254407 
-0.00484629526557913 
-0.007280235132817133 
-0.009577936101628926 
-0.01202129983728339 
-0.01434435826481858 
-0.01606442342160397 
-0.01760577861144862 
-0.01859055743629715 
-0.01909561734566807 
-0.01965334861718624 
-0.02036960490165577 
-0.02097973795177758 
-0.02097973795177758 
-0.02097973795177758 
-0.02097973795177758 
-0.02097973795177758 
-0.02097973795177758 
-0.02097973795177758 
-0.02097973795177758 
-0.009541755144496743 
-0.005065820046822316 
-0.0001312575923242686 
-0.002079794554190114 
-0.00413865238597293 
-0.006010635682339768 
-0.008752208969328493 
-0.01121802873439849 
-0.01333870924047945 
-0.01434777827821555 
-0.005159597016558416 
-0.005190154292297057 
-0.005190154292297111 
-0.005190154292297076 
-0.00519015429229718 
-0.005190154292297133 
-0.005190154292297109 
-0.005190154292297147 
-0.005190154292297147 
-0.005190154292297147 
0 
-0.001720028051886275 
0.0003716605273304752 
0.0008491298896382325 
0.001185723637203558 
0.001185723637203557 
0.001185723637203557 
0.001185723637203557 
0.001185723637203557 
0.001185723637203557 
0.001185723637203557 
0.001185723637203557 
0.001185723637203557 
0.001185723637203557 
0.001185723637203557 
0.001185723637203557 
0.001185723637203557 
0.001185723637203557 
0.001185723637203557 
0.001185723637203557 
0 
-0.0008155588239862606 
0.00275068712384279 
0.002483821138838643 
0.001178455843304849 
0.0011760173042124 
0.0009459301891147305 
0.000595863549275749 
0.0002457969094366739 
0.0002457969094366739 
0.0002457969094366739 
0.0002457969094366739 
0.0002457969094366739 
0.0002457969094366739 
0.0002457969094366739 
0.0002457969094366739 
0.0002457969094366739 
0.0002457969094366739 
0.0002457969094366739 
0.0002457969094366739 
0 
-0.00228715972439304 
-0.002643155135858211 
-0.003001900354820935 
-0.003207376813508473 
-0.003207376813508473 
-0.003207376813508473 
-0.003207376813508473 
-0.003207376813508473 
-0.003207376813508473 
-0.003207376813508473 
-0.003207376813508473 
-0.003207376813508473 
-0.003207376813508473 
-0.003207376813508473 
-0.003207376813508473 
-0.003207376813508473 
-0.003207376813508473 
-0.003207376813508473 
-0.003207376813508473 
0 
-0.0003857669002804681 
0.001729050515199986 
0.001818333543662033 
0.001843997726387207 
0.001836384737493325 
0.001836384737493325 
0.001836384737493325 
0.001836384737493325 
0.001836384737493325 
0.001836384737493325 
0.001836384737493325 
0.001836384737493325 
0.001836384737493325 
0.001836384737493325 
0.001836384737493325 
0.001836384737493325 
0.001836384737493325 
0.001836384737493325 
0.001836384737493325 
0 
0.0008814512525816245 
0.001883938595530191 
0.00242242967767238 
0.002171182468084586 
0.002227830498400532 
0.002227830498400532 
0.002227830498400532 
0.002227830498400532 
0.002227830498400532 
0.002227830498400532 
0.002227830498400532 
0.002227830498400532 
0.002227830498400532 
0.002227830498400532 
0.002227830498400532 
0.002227830498400532 
0.002227830498400532 
0.002227830498400532 
0.002227830498400532 
0 
-0.00334674581210102 
-0.004608896686576606 
-0.005749190602608209 
-0.007645417677075945 
-0.008120258747609865 
-0.008120258747609865 
-0.008120258747609865 
-0.008120258747609865 
-0.008120258747609865 
-0.008120258747609865 
-0.008120258747609865 
-0.008120258747609865 
-0.008120258747609865 
-0.008120258747609865 
-0.008120258747609865 
-0.008120258747609865 
-0.008120258747609865 
-0.008120258747609865 
-0.008120258747609865 
0 
0.002706499337181763 
-0.001049499131338829 
-0.004012539250790167 
-0.006124932750424566 
-0.007739726073712712 
-0.008924409353098621 
-0.009229068486501096 
-0.009229068486501086 
-0.009229068486501089 
-0.009229068486501096 
-0.009229068486501096 
-0.0092290684865011 
-0.0092290684865011 
-0.0092290684865011 
-0.0092290684865011 
-0.0092290684865011 
-0.0092290684865011 
-0.0092290684865011 
-0.0092290684865011 
0 
-0.001433130370217755 
-0.001831249440473783 
-0.001831249440473783 
-0.001831249440473783 
-0.001831249440473783 
-0.001831249440473783 
-0.001831249440473783 
-0.001831249440473783 
-0.001831249440473783 
-0.001831249440473783 
-0.001831249440473783 
-0.001831249440473783 
-0.001831249440473783 
-0.001831249440473783 
-0.001831249440473783 
-0.001831249440473783 
-0.001831249440473783 
-0.001831249440473783 
-0.001831249440473783 
0 
0.002753297017634913 
0.004660425423402297 
0.005128065056597913 
0.005264930791858654 
0.005264930791858654 
0.005264930791858654 
0.005264930791858654 
0.005264930791858654 
0.005264930791858654 
0.005264930791858654 
0.005264930791858654 
0.005264930791858654 
0.005264930791858654 
0.005264930791858654 
0.005264930791858654 
0.005264930791858654 
0.005264930791858654 
0.005264930791858654 
0.005264930791858654 
0 
-0.003217662397437208 
-0.003615990736942495 
-0.003615990736942495 
-0.003615990736942495 
-0.003615990736942495 
-0.003615990736942495 
-0.003615990736942495 
-0.003615990736942495 
-0.003615990736942495 
-0.003615990736942495 
-0.003615990736942495 
-0.003615990736942495 
-0.003615990736942495 
-0.003615990736942495 
-0.003615990736942495 
-0.003615990736942495 
-0.003615990736942495 
-0.003615990736942495 
-0.003615990736942495 
0 
0.001592917765264883 
0.00172287905071439 
0.001418838392765101 
0.001114797734815815 
0.001114797734815815 
0.001114797734815815 
0.001114797734815815 
0.001114797734815815 
0.001114797734815815 
0.001114797734815815 
0.001114797734815815 
0.001114797734815815 
0.001114797734815815 
0.001114797734815815 
0.001114797734815815 
0.001114797734815815 
0.001114797734815815 
0.001114797734815815 
0.001114797734815815 
0 
0.001351339389263994 
0.001481002897284329 
0.001481002897284329 
0.001481002897284329 
0.001481002897284329 
0.001481002897284329 
0.001481002897284329 
0.001481002897284329 
0.001481002897284329 
0.001481002897284329 
0.001481002897284329 
0.001481002897284329 
0.001481002897284329 
0.001481002897284329 
0.001481002897284329 
0.001481002897284329 
0.001481002897284329 
0.001481002897284329 
0.001481002897284329 
0 
-0.004324909970273913 
-0.005216414873940116 
-0.004766550599435496 
-0.004717407630590267 
-0.004717407630590267 
-0.004717407630590267 
-0.004717407630590267 
-0.004717407630590267 
-0.004717407630590267 
-0.004717407630590267 
-0.004717407630590267 
-0.004717407630590267 
-0.004717407630590267 
-0.004717407630590267 
-0.004717407630590267 
-0.004717407630590267 
-0.004717407630590267 
-0.004717407630590267 
-0.004717407630590267 
0 
0.001465346647336667 
0.002761891553868204 
0.003028081167830607 
0.00378337847043349 
0.003646339448086686 
0.00364633944808669 
0.003646339448086686 
0.003646339448086686 
0.003646339448086686 
0.003646339448086686 
0.003646339448086686 
0.003646339448086686 
0.003646339448086686 
0.003646339448086686 
0.003646339448086686 
0.003646339448086686 
0.003646339448086686 
0.003646339448086686 
0.003646339448086686 
0 
0.003373477531273501 
0.004425425679572916 
0.004971662284208827 
0.004971662284208827 
0.004971662284208827 
0.004971662284208827 
0.004971662284208827 
0.004971662284208827 
0.004971662284208827 
0.004971662284208827 
0.004971662284208827 
0.004971662284208827 
0.004971662284208827 
0.004971662284208827 
0.004971662284208827 
0.004971662284208827 
0.004971662284208827 
0.004971662284208827 
0.004971662284208827 
0 
0.001985267249934795 
0.002140167924951106 
0.002140167924951106 
0.002140167924951106 
0.002140167924951106 
0.002140167924951106 
0.002140167924951106 
0.002140167924951106 
0.002140167924951106 
0.002140167924951106 
0.002140167924951106 
0.002140167924951106 
0.002140167924951106 
0.002140167924951106 
0.002140167924951106 
0.002140167924951106 
0.002140167924951106 
0.002140167924951106 
0.002140167924951106 
0 
-0.0007662005061731635 
-0.001016280944990637 
-0.001016280944990637 
-0.001016280944990637 
-0.001016280944990637 
-0.001016280944990637 
-0.001016280944990637 
-0.001016280944990637 
-0.001016280944990637 
-0.001016280944990637 
-0.001016280944990637 
-0.001016280944990637 
-0.001016280944990637 
-0.001016280944990637 
-0.001016280944990637 
-0.001016280944990637 
-0.001016280944990637 
-0.001016280944990637 
-0.001016280944990637 
0 
-0.001267126333036513 
0.001158010621268288 
0.00334413783511121 
0.004327638374034225 
0.003514525214071829 
0.002650128788498358 
0.00184967931052807 
0.001262656064604214 
0.001079399044287564 
0.001079399044287564 
0.001079399044287564 
0.001079399044287564 
0.001079399044287564 
0.001079399044287564 
0.001079399044287564 
0.001079399044287564 
0.001079399044287564 
0.001079399044287564 
0.001079399044287564 
0 
-0.002321787444585585 
-0.005440221574739572 
-0.006361072509369172 
-0.00654432952968578 
-0.00654432952968578 
-0.00654432952968578 
-0.00654432952968578 
-0.00654432952968578 
-0.00654432952968578 
-0.00654432952968578 
-0.00654432952968578 
-0.00654432952968578 
-0.00654432952968578 
-0.00654432952968578 
-0.00654432952968578 
-0.00654432952968578 
-0.00654432952968578 
-0.00654432952968578 
-0.00654432952968578 
0 
0.001131984150143128 
-0.001204461894372765 
-0.002721616604113603 
-0.00353741246523845 
-0.00353741246523845 
-0.00353741246523845 
-0.00353741246523845 
-0.00353741246523845 
-0.00353741246523845 
-0.00353741246523845 
-0.00353741246523845 
-0.00353741246523845 
-0.00353741246523845 
-0.00353741246523845 
-0.00353741246523845 
-0.00353741246523845 
-0.00353741246523845 
-0.00353741246523845 
-0.00353741246523845 
0 
0.001602298736612443 
0.002175144413552622 
0.002404847467886671 
0.002344233084713525 
0.002344233084713513 
0.002344233084713513 
0.002344233084713513 
0.002344233084713513 
0.002344233084713513 
0.002344233084713513 
0.002344233084713513 
0.002344233084713513 
0.002344233084713513 
0.002344233084713513 
0.002344233084713513 
0.002344233084713513 
0.002344233084713513 
0.002344233084713513 
0.002344233084713513 
0 
0.0003471295229027081 
0.0001506243566009459 
0.0001506243566009459 
0.0001506243566009459 
0.0001506243566009459 
0.0001506243566009459 
0.0001506243566009459 
0.0001506243566009459 
0.0001506243566009459 
0.0001506243566009459 
0.0001506243566009459 
0.0001506243566009459 
0.0001506243566009459 
0.0001506243566009459 
0.0001506243566009459 
0.0001506243566009459 
0.0001506243566009459 
0.0001506243566009459 
0.0001506243566009459 
0 
-0.001658819679436902 
-0.001744438289393448 
-0.001744438289393448 
-0.001744438289393448 
-0.001744438289393448 
-0.001744438289393448 
-0.001744438289393448 
-0.001744438289393448 
-0.001744438289393448 
-0.001744438289393448 
-0.001744438289393448 
-0.001744438289393448 
-0.001744438289393448 
-0.001744438289393448 
-0.001744438289393448 
-0.001744438289393448 
-0.001744438289393448 
-0.001744438289393448 
-0.001744438289393448 
0 
0.0003655186675201802 
0.0005964191218049 
0.0005964191218049 
0.0005964191218049 
0.0005964191218049 
0.0005964191218049 
0.0005964191218049 
0.0005964191218049 
0.0005964191218049 
0.0005964191218049 
0.0005964191218049 
0.0005964191218049 
0.0005964191218049 
0.0005964191218049 
0.0005964191218049 
0.0005964191218049 
0.0005964191218049 
0.0005964191218049 
0.0005964191218049 
0 
0.0002504668222371068 
0.0004112203136043254 
0.0004112203136043354 
0.0004112203136043354 
0.0004112203136043354 
0.0004112203136043354 
0.0004112203136043354 
0.0004112203136043354 
0.0004112203136043354 
0.0004112203136043354 
0.0004112203136043354 
0.0004112203136043354 
0.0004112203136043354 
0.0004112203136043354 
0.0004112203136043354 
0.0004112203136043354 
0.0004112203136043354 
0.0004112203136043354 
0.0004112203136043354 
0 
-0.0009213088502439565 
-0.001084282086812898 
-0.001084282086812898 
-0.001084282086812898 
-0.001084282086812898 
-0.001084282086812898 
-0.001084282086812898 
-0.001084282086812898 
-0.001084282086812898 
-0.001084282086812898 
-0.001084282086812898 
-0.001084282086812898 
-0.001084282086812898 
-0.001084282086812898 
-0.001084282086812898 
-0.001084282086812898 
-0.001084282086812898 
-0.001084282086812898 
-0.001084282086812898 
0 
0.0009504466178295088 
-0.001277032019073776 
-0.001909477154079901 
-0.002460104820497451 
-0.002460104820497451 
-0.002460104820497451 
-0.002460104820497451 
-0.002460104820497451 
-0.002460104820497451 
-0.002460104820497451 
-0.002460104820497451 
-0.002460104820497451 
-0.002460104820497451 
-0.002460104820497451 
-0.002460104820497451 
-0.002460104820497451 
-0.002460104820497451 
-0.002460104820497451 
-0.002460104820497451 
0 
-0.002767599029390083 
-0.002797664862805857 
-0.002797664862805857 
-0.002797664862805857 
-0.002797664862805857 
-0.002797664862805857 
-0.002797664862805857 
-0.002797664862805857 
-0.002797664862805857 
-0.002797664862805857 
-0.002797664862805857 
-0.002797664862805857 
-0.002797664862805857 
-0.002797664862805857 
-0.002797664862805857 
-0.002797664862805857 
-0.002797664862805857 
-0.002797664862805857 
-0.002797664862805857 
0 
-0.0001732215301656713 
-0.0006946334753313315 
-0.001929776234348705 
-0.001922129126242551 
-0.001922129126242551 
-0.001922129126242551 
-0.001922129126242551 
-0.001922129126242551 
-0.001922129126242551 
-0.001922129126242551 
-0.001922129126242551 
-0.001922129126242551 
-0.001922129126242551 
-0.001922129126242551 
-0.001922129126242551 
-0.001922129126242551 
-0.001922129126242551 
-0.001922129126242551 
-0.001922129126242551 
0 
0.0009750097188320413 
0.00336468690902449 
0.002022041032768976 
-0.001311947864796188 
-0.001449539099925074 
-0.002663609986459685 
-0.002551731946660874 
-0.001833744233500429 
-0.001581709859702983 
-0.001407177312158258 
-0.001232644764613506 
-0.001232644764613506 
-0.001232644764613506 
-0.001232644764613506 
-0.001232644764613506 
-0.001232644764613506 
-0.001232644764613506 
-0.001232644764613506 
-0.001232644764613506 
0 
-0.001990703330654163 
-0.004178843815710978 
-0.004369031232785049 
-0.004892182675037996 
-0.004892182675037996 
-0.004892182675037996 
-0.004892182675037996 
-0.004892182675037996 
-0.004892182675037996 
-0.004892182675037996 
-0.004892182675037996 
-0.004892182675037996 
-0.004892182675037996 
-0.004892182675037996 
-0.004892182675037996 
-0.004892182675037996 
-0.004892182675037996 
-0.004892182675037996 
-0.004892182675037996 
0 
0.000458451053498059 
0.0008312724269025158 
0.0009909841160662604 
0.0007179355933294802 
0.0007033520494853067 
0.0007033520494853067 
0.0007033520494853067 
0.0007033520494853067 
0.0007033520494853067 
0.0007033520494853067 
0.0007033520494853067 
0.0007033520494853067 
0.0007033520494853067 
0.0007033520494853067 
0.0007033520494853067 
0.0007033520494853067 
0.0007033520494853067 
0.0007033520494853067 
0.0007033520494853067 
0 
0.001599222814615438 
0.001900467211010827 
0.002076985340968125 
0.001692704058492569 
0.001692704058492569 
0.001692704058492569 
0.001692704058492569 
0.001692704058492569 
0.001692704058492569 
0.001692704058492569 
0.001692704058492569 
0.001692704058492569 
0.001692704058492569 
0.001692704058492569 
0.001692704058492569 
0.001692704058492569 
0.001692704058492569 
0.001692704058492569 
0.001692704058492569 
0 
0.001933617408376804 
0.001430554675238994 
0.001419831572114989 
0.001392089392052097 
0.001392089392052097 
0.001392089392052097 
0.001392089392052097 
0.001392089392052097 
0.001392089392052097 
0.001392089392052097 
0.001392089392052097 
0.001392089392052097 
0.001392089392052097 
0.001392089392052097 
0.001392089392052097 
0.001392089392052097 
0.001392089392052097 
0.001392089392052097 
0.001392089392052097 
0 
-0.001252638806916403 
-0.001216636816741683 
-0.001216636816741683 
-0.001216636816741683 
-0.001216636816741683 
-0.001216636816741683 
-0.001216636816741683 
-0.001216636816741683 
-0.001216636816741683 
-0.001216636816741683 
-0.001216636816741683 
-0.001216636816741683 
-0.001216636816741683 
-0.001216636816741683 
-0.001216636816741683 
-0.001216636816741683 
-0.001216636816741683 
-0.001216636816741683 
-0.001216636816741683 
0 
-0.0007071924592800455 
-0.00233777196159812 
-0.003148501454222635 
-0.003519006105358604 
-0.003519006105358604 
-0.003519006105358604 
-0.003519006105358604 
-0.003519006105358604 
-0.003519006105358604 
-0.003519006105358604 
-0.003519006105358604 
-0.003519006105358604 
-0.003519006105358604 
-0.003519006105358604 
-0.003519006105358604 
-0.003519006105358604 
-0.003519006105358604 
-0.003519006105358604 
-0.003519006105358604 
0 
0.004325893623674382 
0.007206539885683986 
0.008935369433018823 
0.008935369433018826 
0.008935369433018823 
0.008935369433018823 
0.008935369433018823 
0.008935369433018823 
0.008935369433018823 
0.008935369433018823 
0.008935369433018823 
0.008935369433018823 
0.008935369433018823 
0.008935369433018823 
0.008935369433018823 
0.008935369433018823 
0.008935369433018823 
0.008935369433018823 
0.008935369433018823 
0 
0.0005286360996525847 
0.003446011893245672 
0.006136279451916105 
0.006209569395027946 
0.004654968271099752 
0.002182918622044516 
0.00112068791825775 
0.0004103865698929753 
0.0005481093669156374 
0.0007341390482811145 
0.0009292731613659468 
0.0009292731613659468 
0.0009292731613659468 
0.0009292731613659468 
0.0009292731613659468 
0.0009292731613659468 
0.0009292731613659468 
0.0009292731613659468 
0.0009292731613659468 
0 
-0.0008163844991131544 
0.001076311608546428 
0.002104012347259044 
0.0006815930743780586 
0.001796591737040778 
0.001018677115731749 
0.0006411389521384785 
-0.0004187914349280461 
0.0002582798385105298 
0.0006664390208631698 
-0.0001065956571391822 
-0.001585514138506128 
-0.003718500166599012 
-0.005526906719924649 
-0.006618390824968937 
-0.007004840334302773 
-0.008182837990614134 
-0.009559647872653409 
-0.01078287315701515 
-0.01221062199104886 
-0.0154712822468185 
-0.01547708018374072 
-0.01633935341215695 
-0.01732355156280531 
-0.01732355156280531 
-0.01732355156280531 
-0.01732355156280531 
-0.01732355156280531 
-0.01732355156280531 
-0.01732355156280531 
-0.01732355156280531 
-0.01732355156280531 
-0.01732355156280531 
-0.01732355156280531 
-0.01732355156280531 
-0.01732355156280531 
-0.01732355156280531 
-0.01732355156280531 
-0.01732355156280531 
0 
-0.002808337214133546 
-0.003015098342538053 
-0.002312314972417876 
-0.003708662888688459 
-0.007247262126716106 
-0.0107992564573067 
-0.01465267449326398 
-0.0159290956169186 
-0.01707975960101111 
-0.01699735478218809 
-0.01675245014101482 
-0.01679749263078958 
-0.0167781580073082 
-0.01700316858058898 
-0.01714734523862761 
-0.01729152189666541 
-0.01729152189666541 
-0.01729152189666541 
-0.01729152189666541 
-0.01729152189666541 
-0.01721736963182666 
0.00167527700193143 
0.001753812803499991 
0.001753812803499991 
0.001753812803499991 
0.001753812803499991 
0.001753812803499991 
0.001753812803499991 
0.001753812803499991 
0.001753812803499991 
0.001753812803499991 
0.001753812803499991 
0.001753812803499991 
0.001753812803499991 
0.001753812803499991 
0.001753812803499991 
0.001753812803499991 
0.001753812803499991 
0.001753812803499991 
0 
0.001240843816274931 
0.0002056504022293989 
-0.003153948825864643 
-0.004277972264452857 
-0.004277972264452817 
-0.004277972264452817 
-0.004277972264452817 
-0.004277972264452817 
-0.004277972264452817 
-0.004277972264452817 
-0.004277972264452817 
-0.004277972264452817 
-0.004277972264452817 
-0.004277972264452817 
-0.004277972264452817 
-0.004277972264452817 
-0.004277972264452817 
-0.004277972264452817 
-0.004277972264452817 
0 
0.001732215404124409 
0.002525296940156748 
0.002735409086266197 
0.002735409086266197 
0.002735409086266197 
0.002735409086266197 
0.002735409086266197 
0.002735409086266197 
0.002735409086266197 
0.002735409086266197 
0.002735409086266197 
0.002735409086266197 
0.002735409086266197 
0.002735409086266197 
0.002735409086266197 
0.002735409086266197 
0.002735409086266197 
0.002735409086266197 
0.002735409086266197 
0 
0.001248489399607759 
0.005888190016257425 
0.01005004586931032 
0.01170650972861259 
0.01265075276289315 
0.01111895606853816 
0.01001543452596835 
0.01007246058976324 
0.01007246058976322 
0.01007246058976322 
0.01007246058976322 
0.01007246058976322 
0.01007246058976322 
0.01007246058976322 
0.01007246058976322 
0.01007246058976322 
0.01007246058976322 
0.01007246058976322 
0.01007246058976322 
0 
0.002418092542628401 
0.003468183233310583 
0.004277992327853349 
0.006605093409830311 
0.006705293498103135 
0.006191720133092185 
0.00487903538381193 
0.004382553189834641 
0.004147782179926154 
0.003924443761298558 
0.003679246077526835 
0.003679246077526835 
0.003679246077526835 
0.003679246077526835 
0.003679246077526835 
0.003679246077526835 
0.003679246077526835 
0.003679246077526835 
0.003679246077526835 
0 
-0.001845423683115538 
-0.002560584439936077 
-0.003049007846367852 
-0.003064366523338335 
-0.003079725200308864 
-0.003079725200308864 
-0.003079725200308864 
-0.003079725200308864 
-0.003079725200308864 
-0.003079725200308864 
-0.003079725200308864 
-0.003079725200308864 
-0.003079725200308864 
-0.003079725200308864 
-0.003079725200308864 
-0.003079725200308864 
-0.003079725200308864 
-0.003079725200308864 
-0.003079725200308864 
0 
5.10020160197079e-006 
-0.000124462198873227 
-0.0001244621988732265 
-0.0001244621988732265 
-0.0001244621988732265 
-0.0001244621988732265 
-0.0001244621988732265 
-0.0001244621988732265 
-0.0001244621988732265 
-0.0001244621988732265 
-0.0001244621988732265 
-0.0001244621988732265 
-0.0001244621988732265 
-0.0001244621988732265 
-0.0001244621988732265 
-0.0001244621988732265 
-0.0001244621988732265 
-0.0001244621988732265 
-0.0001244621988732265 
0 
-0.0009416636394004464 
-0.003591621025066141 
-0.003396919367118116 
-0.003396919367118113 
-0.003396919367118115 
-0.003396919367118115 
-0.003396919367118115 
-0.003396919367118115 
-0.003396919367118115 
-0.003396919367118115 
-0.003396919367118115 
-0.003396919367118115 
-0.003396919367118115 
-0.003396919367118115 
-0.003396919367118115 
-0.003396919367118115 
-0.003396919367118115 
-0.003396919367118115 
-0.003396919367118115 
0 
0.007271568062976271 
0.01075673794871422 
0.01207059741872828 
0.01230669817764503 
0.0122435831325244 
0.0122435831325244 
0.0122435831325244 
0.0122435831325244 
0.0122435831325244 
0.0122435831325244 
0.0122435831325244 
0.0122435831325244 
0.0122435831325244 
0.0122435831325244 
0.0122435831325244 
0.0122435831325244 
0.0122435831325244 
0.0122435831325244 
0.0122435831325244 
0 
0.0003853017788067549 
-0.0005018521978903357 
-0.0005018521978903366 
-0.0005018521978903366 
-0.0005018521978903366 
-0.0005018521978903366 
-0.0005018521978903366 
-0.0005018521978903366 
-0.0005018521978903366 
-0.0005018521978903366 
-0.0005018521978903366 
-0.0005018521978903366 
-0.0005018521978903366 
-0.0005018521978903366 
-0.0005018521978903366 
-0.0005018521978903366 
-0.0005018521978903366 
-0.0005018521978903366 
-0.0005018521978903366 
0 
-0.0003066904740068718 
-0.0002112632203125619 
-0.0002528384499788924 
-0.0002528384499788924 
-0.0002528384499788924 
-0.0002528384499788924 
-0.0002528384499788924 
-0.0002528384499788924 
-0.0002528384499788924 
-0.0002528384499788924 
-0.0002528384499788924 
-0.0002528384499788924 
-0.0002528384499788924 
-0.0002528384499788924 
-0.0002528384499788924 
-0.0002528384499788924 
-0.0002528384499788924 
-0.0002528384499788924 
-0.0002528384499788924 
0 
0.00399509810195817 
0.002909433774321648 
0.0008415230761478209 
-0.000218270030468882 
-0.0007313954656874019 
-0.0008862908042595899 
-0.0008862908042595899 
-0.0008862908042595899 
-0.0008862908042595899 
-0.0008862908042595899 
-0.0008862908042595899 
-0.0008862908042595899 
-0.0008862908042595899 
-0.0008862908042595899 
-0.0008862908042595899 
-0.0008862908042595899 
-0.0008862908042595899 
-0.0008862908042595899 
-0.0008862908042595899 
0 
0.002255076836207899 
0.001485857686341986 
0.00140422747081365 
0.001394650768578739 
0.001394650768578739 
0.001394650768578739 
0.001394650768578739 
0.001394650768578739 
0.001394650768578739 
0.001394650768578739 
0.001394650768578739 
0.001394650768578739 
0.001394650768578739 
0.001394650768578739 
0.001394650768578739 
0.001394650768578739 
0.001394650768578739 
0.001394650768578739 
0.001394650768578739 
0 
-0.002635801201219775 
-0.002307250554783923 
-0.002688051776699346 
-0.002932563147773448 
-0.002932563147773448 
-0.002932563147773448 
-0.002932563147773448 
-0.002932563147773448 
-0.002932563147773448 
-0.002932563147773448 
-0.002932563147773448 
-0.002932563147773448 
-0.002932563147773448 
-0.002932563147773448 
-0.002932563147773448 
-0.002932563147773448 
-0.002932563147773448 
-0.002932563147773448 
-0.002932563147773448 
0 
0.001284451604070957 
0.001422691698493603 
0.001422691698493603 
0.001422691698493603 
0.001422691698493603 
0.001422691698493603 
0.001422691698493603 
0.001422691698493603 
0.001422691698493603 
0.001422691698493603 
0.001422691698493603 
0.001422691698493603 
0.001422691698493603 
0.001422691698493603 
0.001422691698493603 
0.001422691698493603 
0.001422691698493603 
0.001422691698493603 
0.001422691698493603 
0 
0.002015513281950919 
0.002163231729822267 
0.00179062336787748 
0.001530131328002158 
0.001530131328002154 
0.001530131328002154 
0.001530131328002154 
0.001530131328002154 
0.001530131328002154 
0.001530131328002154 
0.001530131328002154 
0.001530131328002154 
0.001530131328002154 
0.001530131328002154 
0.001530131328002154 
0.001530131328002154 
0.001530131328002154 
0.001530131328002154 
0.001530131328002154 
0 
0.002657425309553388 
0.001354946941308287 
0.00104615342308129 
0.001046153423081293 
0.001046153423081293 
0.001046153423081293 
0.001046153423081293 
0.001046153423081293 
0.001046153423081293 
0.001046153423081293 
0.001046153423081293 
0.001046153423081293 
0.001046153423081293 
0.001046153423081293 
0.001046153423081293 
0.001046153423081293 
0.001046153423081293 
0.001046153423081293 
0.001046153423081293 
0 
-0.003850281077239959 
-0.008423463051043613 
-0.008981782707990292 
-0.01001970123668242 
-0.009454702234851512 
-0.009383678881878528 
-0.009332364855083104 
-0.009332364855083104 
-0.009332364855083104 
-0.009332364855083104 
-0.009332364855083104 
-0.009332364855083104 
-0.009332364855083104 
-0.009332364855083104 
-0.009332364855083104 
-0.009332364855083104 
-0.009332364855083104 
-0.009332364855083104 
-0.009332364855083104 
0 
-0.0003369617597236579 
3.815136038420811e-005 
0.0002876217575507151 
0.0002876217575507065 
0.0002876217575507065 
0.0002876217575507065 
0.0002876217575507065 
0.0002876217575507065 
0.0002876217575507065 
0.0002876217575507065 
0.0002876217575507065 
0.0002876217575507065 
0.0002876217575507065 
0.0002876217575507065 
0.0002876217575507065 
0.0002876217575507065 
0.0002876217575507065 
0.0002876217575507065 
0.0002876217575507065 
0 
0.0003789106716965854 
2.018883215571812e-005 
-0.003555485697046317 
-0.002884533388757524 
-0.002710850853765175 
-0.003121701476781351 
-0.002536328871883859 
-0.00275082949827425 
-0.002742111584067353 
-0.002742111584067357 
-0.00274211158406735 
-0.00274211158406735 
-0.00274211158406735 
-0.00274211158406735 
-0.00274211158406735 
-0.00274211158406735 
-0.00274211158406735 
-0.00274211158406735 
-0.00274211158406735 
0 
0.001218282435590511 
0.001566779251713771 
0.002719353305195529 
0.005141077468678958 
0.006869802547640165 
0.00725343033011997 
0.008254193922602963 
0.008868242424965905 
0.008989032520296616 
0.008989032520296609 
0.008989032520296609 
0.008989032520296609 
0.008989032520296609 
0.008989032520296609 
0.008989032520296609 
0.008989032520296609 
0.008989032520296609 
0.008989032520296609 
0.008989032520296609 
0 
-0.0006819166967300208 
-0.0004093853888697884 
-0.0007466072631343036 
-0.0006395851628846252 
-0.0006395851628846252 
-0.0006395851628846252 
-0.0006395851628846252 
-0.0006395851628846252 
-0.0006395851628846252 
-0.0006395851628846252 
-0.0006395851628846252 
-0.0006395851628846252 
-0.0006395851628846252 
-0.0006395851628846252 
-0.0006395851628846252 
-0.0006395851628846252 
-0.0006395851628846252 
-0.0006395851628846252 
-0.0006395851628846252 
0 
-0.0003777396321382877 
-0.002353771364086453 
-0.002894271136339027 
-0.005174840604759407 
-0.007009569602845042 
-0.007494756968626751 
-0.007892394604004574 
-0.007892394604004571 
-0.007892394604004567 
-0.007892394604004571 
-0.007892394604004571 
-0.007892394604004571 
-0.007892394604004571 
-0.007892394604004571 
-0.007892394604004571 
-0.007892394604004571 
-0.007892394604004571 
-0.007892394604004571 
-0.007892394604004571 
0 
0.003599311471610623 
0.003743046107088588 
0.003757510285858601 
0.004085570182314866 
0.004085570182314866 
0.004085570182314866 
0.004085570182314866 
0.004085570182314866 
0.004085570182314866 
0.004085570182314866 
0.004085570182314866 
0.004085570182314866 
0.004085570182314866 
0.004085570182314866 
0.004085570182314866 
0.004085570182314866 
0.004085570182314866 
0.004085570182314866 
0.004085570182314866 
0 
-0.002899764015913878 
-0.003988200631756174 
-0.003230435507046491 
-0.003362685046348993 
-0.003362685046348991 
-0.003362685046348984 
-0.003362685046348984 
-0.003362685046348984 
-0.003362685046348984 
-0.003362685046348984 
-0.003362685046348984 
-0.003362685046348984 
-0.003362685046348984 
-0.003362685046348984 
-0.003362685046348984 
-0.003362685046348984 
-0.003362685046348984 
-0.003362685046348984 
-0.003362685046348984 
0 
-0.001833065488301763 
-0.001833939364999734 
-0.001833939364999735 
-0.001833939364999734 
-0.001833939364999734 
-0.001833939364999734 
-0.001833939364999734 
-0.001833939364999734 
-0.001833939364999734 
-0.001833939364999734 
-0.001833939364999734 
-0.001833939364999734 
-0.001833939364999734 
-0.001833939364999734 
-0.001833939364999734 
-0.001833939364999734 
-0.001833939364999734 
-0.001833939364999734 
-0.001833939364999734 
0 
-0.002699818999702674 
-0.001304164411839522 
-0.001156131543433508 
-0.0009961164303663769 
-0.0009961164303663769 
-0.0009961164303663769 
-0.0009961164303663769 
-0.0009961164303663769 
-0.0009961164303663769 
-0.0009961164303663769 
-0.0009961164303663769 
-0.0009961164303663769 
-0.0009961164303663769 
-0.0009961164303663769 
-0.0009961164303663769 
-0.0009961164303663769 
-0.0009961164303663769 
-0.0009961164303663769 
-0.0009961164303663769 
0 
-0.0006051366123564214 
0.0002322775071172204 
0.0004901064064788423 
0.0007917058373723216 
0.000838089909077857 
0.000838089909077857 
0.000838089909077857 
0.000838089909077857 
0.000838089909077857 
0.000838089909077857 
0.000838089909077857 
0.000838089909077857 
0.000838089909077857 
0.000838089909077857 
0.000838089909077857 
0.000838089909077857 
0.000838089909077857 
0.000838089909077857 
0.000838089909077857 
0 
-0.001007974271384194 
-0.004707877159835385 
-0.007236907562291386 
-0.006891233680149688 
-0.007108444269416713 
-0.007108444269416703 
-0.007108444269416696 
-0.007108444269416696 
-0.007108444269416696 
-0.007108444269416696 
-0.007108444269416696 
-0.007108444269416696 
-0.007108444269416696 
-0.007108444269416696 
-0.007108444269416696 
-0.007108444269416696 
-0.007108444269416696 
-0.007108444269416696 
-0.007108444269416696 
0 
-0.0008714848686750315 
-0.001786579324555507 
-0.001496940945322154 
-0.001496940945322156 
-0.001496940945322156 
-0.001496940945322156 
-0.001496940945322156 
-0.001496940945322156 
-0.001496940945322156 
-0.001496940945322156 
-0.001496940945322156 
-0.001496940945322156 
-0.001496940945322156 
-0.001496940945322156 
-0.001496940945322156 
-0.001496940945322156 
-0.001496940945322156 
-0.001496940945322156 
-0.001496940945322156 
0 
0.003774505129049591 
0.004660293022671199 
0.004660293022671199 
0.004660293022671199 
0.004660293022671199 
0.004660293022671199 
0.004660293022671199 
0.004660293022671199 
0.004660293022671199 
0.004660293022671199 
0.004660293022671199 
0.004660293022671199 
0.004660293022671199 
0.004660293022671199 
0.004660293022671199 
0.004660293022671199 
0.004660293022671199 
0.004660293022671199 
0.004660293022671199 
0 
0.0007076865093708522 
0.0006806577581361497 
-0.0002686893315225553 
-0.0006273058747264654 
-0.0006273058747264654 
-0.0006273058747264654 
-0.0006273058747264654 
-0.0006273058747264654 
-0.0006273058747264654 
-0.0006273058747264654 
-0.0006273058747264654 
-0.0006273058747264654 
-0.0006273058747264654 
-0.0006273058747264654 
-0.0006273058747264654 
-0.0006273058747264654 
-0.0006273058747264654 
-0.0006273058747264654 
-0.0006273058747264654 
0 
0.001078658140691872 
-0.0003936449299599514 
-0.0007776277097934377 
-0.0007776277097934377 
-0.0007776277097934377 
-0.0007776277097934377 
-0.0007776277097934377 
-0.0007776277097934377 
-0.0007776277097934377 
-0.0007776277097934377 
-0.0007776277097934377 
-0.0007776277097934377 
-0.0007776277097934377 
-0.0007776277097934377 
-0.0007776277097934377 
-0.0007776277097934377 
-0.0007776277097934377 
-0.0007776277097934377 
-0.0007776277097934377 
0 
4.547595775952227e-005 
-0.0002822925331838698 
-0.0002822925331838698 
-0.0002822925331838698 
-0.0002822925331838698 
-0.0002822925331838698 
-0.0002822925331838698 
-0.0002822925331838698 
-0.0002822925331838698 
-0.0002822925331838698 
-0.0002822925331838698 
-0.0002822925331838698 
-0.0002822925331838698 
-0.0002822925331838698 
-0.0002822925331838698 
-0.0002822925331838698 
-0.0002822925331838698 
-0.0002822925331838698 
-0.0002822925331838698 
0 
-0.001556403821861663 
-0.00194090665353803 
-0.002070650585626813 
-0.002070650585626815 
-0.002070650585626813 
-0.002070650585626813 
-0.002070650585626813 
-0.002070650585626813 
-0.002070650585626813 
-0.002070650585626813 
-0.002070650585626813 
-0.002070650585626813 
-0.002070650585626813 
-0.002070650585626813 
-0.002070650585626813 
-0.002070650585626813 
-0.002070650585626813 
-0.002070650585626813 
-0.002070650585626813 
0 
0.006716132109133957 
0.008354602422509617 
0.01049835523054066 
0.01076471434377169 
0.01015249494228213 
0.009241303135067623 
0.008393226372973742 
0.007888395972028766 
0.007383565571083482 
0.007383565571083482 
0.007383565571083482 
0.007383565571083482 
0.007383565571083482 
0.007383565571083482 
0.007383565571083482 
0.007383565571083482 
0.007383565571083482 
0.007383565571083482 
0.007383565571083482 
0 
-0.0004272929400511841 
-0.004597165800375164 
-0.003478075739016175 
-0.004955857462746061 
-0.005063782032755972 
-0.005420224125807084 
-0.004625155487591947 
-0.003877151777532505 
-0.003877151777532506 
-0.003877151777532506 
-0.003877151777532506 
-0.003877151777532506 
-0.003877151777532506 
-0.003877151777532506 
-0.003877151777532506 
-0.003877151777532506 
-0.003877151777532506 
-0.003877151777532506 
-0.003877151777532506 
0 
0.003572019550319119 
0.003837087255092881 
0.003714642510443159 
0.00365977847343571 
0.00365977847343571 
0.00365977847343571 
0.00365977847343571 
0.00365977847343571 
0.00365977847343571 
0.00365977847343571 
0.00365977847343571 
0.00365977847343571 
0.00365977847343571 
0.00365977847343571 
0.00365977847343571 
0.00365977847343571 
0.00365977847343571 
0.00365977847343571 
0.00365977847343571 
0 
-0.0009708155522171317 
-0.002198468632260304 
-0.005154701195646181 
-0.009828813844416084 
-0.0129579899727708 
-0.01513820676839211 
-0.01695978478072828 
-0.01746671194049793 
-0.01746671194049792 
-0.01746671194049793 
-0.01746671194049792 
-0.01746671194049792 
-0.01746671194049794 
-0.01746671194049794 
-0.01746671194049794 
-0.01746671194049794 
-0.01746671194049794 
-0.01746671194049794 
-0.01746671194049794 
0 
-0.00218071610870643 
-0.00117344013272196 
-0.0001483362409675495 
-0.0001483362409675517 
-0.0001483362409675517 
-0.0001483362409675517 
-0.0001483362409675517 
-0.0001483362409675517 
-0.0001483362409675517 
-0.0001483362409675517 
-0.0001483362409675517 
-0.0001483362409675517 
-0.0001483362409675517 
-0.0001483362409675517 
-0.0001483362409675517 
-0.0001483362409675517 
-0.0001483362409675517 
-0.0001483362409675517 
-0.0001483362409675517 
0 
-0.0005173522228563273 
0.004203956824490462 
0.01079541904816642 
0.01185098149661461 
0.01246148333091554 
0.01097385590248926 
0.008131637111390177 
0.006577238415018024 
0.005975039202736466 
0.005122174358220087 
0.004773349120402195 
0.004716897126391497 
0.004847232921917815 
0.0048079290521822 
0.004927645442435335 
0.004927645442435338 
0.004927645442435338 
0.004927645442435338 
0.004927645442435338 
0 
0.001373140241097669 
-0.000359127242117909 
-0.0002025986509002939 
-0.0001608474424799255 
-0.0001608474424799273 
-0.0001608474424799273 
-0.0001608474424799273 
-0.0001608474424799273 
-0.0001608474424799273 
-0.0001608474424799273 
-0.0001608474424799273 
-0.0001608474424799273 
-0.0001608474424799273 
-0.0001608474424799273 
-0.0001608474424799273 
-0.0001608474424799273 
-0.0001608474424799273 
-0.0001608474424799273 
-0.0001608474424799273 
0 
0.002692955756485296 
0.0044532939778243 
0.004270736706683024 
0.003225323252922524 
0.0003077799000481112 
-0.003559375367584787 
-0.008781197105595948 
-0.01422171134866125 
-0.02021746620134134 
-0.02723533135464528 
-0.03507745834015359 
-0.0421470496282047 
-0.04726528231637124 
-0.05035186393413493 
-0.05342181214020149 
-0.05570109805114268 
-0.05793962531943663 
-0.05903223068769122 
-0.05999473946825706 
-0.06092167982392721 
-0.06158294229196939 
-0.06456947971347281 
-0.0624862735966892 
-0.05961046870700221 
-0.06039810771610295 
-0.06216671066877717 
-0.06437139777840596 
-0.06536718074272034 
-0.06571409511783792 
-0.06534704981587898 
-0.06501379564814118 
-0.06492200220618828 
-0.06492200220618828 
-0.06492200220618828 
-0.06492200220618828 
-0.06492200220618828 
-0.06492200220618828 
-0.06492200220618828 
-0.06492200220618828 
0 
0.0004766190747675522 
0.0003005901404861608 
0.0008133464624088529 
0.000815680085918714 
0.000815680085918714 
0.000815680085918714 
0.000815680085918714 
0.000815680085918714 
0.000815680085918714 
0.000815680085918714 
0.000815680085918714 
0.000815680085918714 
0.000815680085918714 
0.000815680085918714 
0.000815680085918714 
0.000815680085918714 
0.000815680085918714 
0.000815680085918714 
0.000815680085918714 
0 
0.0005090084221616104 
-0.0004522777561870404 
9.82556910784963e-005 
9.825569107848459e-005 
9.825569107848459e-005 
9.825569107848459e-005 
9.825569107848459e-005 
9.825569107848459e-005 
9.825569107848459e-005 
9.825569107848459e-005 
9.825569107848459e-005 
9.825569107848459e-005 
9.825569107848459e-005 
9.825569107848459e-005 
9.825569107848459e-005 
9.825569107848459e-005 
9.825569107848459e-005 
9.825569107848459e-005 
9.825569107848459e-005 
0 
0.001559678279741224 
0.001380121838735297 
0.001380121838735297 
0.001380121838735297 
0.001380121838735297 
0.001380121838735297 
0.001380121838735297 
0.001380121838735297 
0.001380121838735297 
0.001380121838735297 
0.001380121838735297 
0.001380121838735297 
0.001380121838735297 
0.001380121838735297 
0.001380121838735297 
0.001380121838735297 
0.001380121838735297 
0.001380121838735297 
0.001380121838735297 
0 
0.0006415127466109917 
0.001081328247465598 
0.0009147208752029099 
0.0006327646102500279 
0.0006327646102500279 
0.0006327646102500279 
0.0006327646102500279 
0.0006327646102500279 
0.0006327646102500279 
0.0006327646102500279 
0.0006327646102500279 
0.0006327646102500279 
0.0006327646102500279 
0.0006327646102500279 
0.0006327646102500279 
0.0006327646102500279 
0.0006327646102500279 
0.0006327646102500279 
0.0006327646102500279 
0 
-0.0006404857248749322 
8.076103667494365e-005 
0.001979300994799825 
0.002431193988991948 
0.002523340817256821 
0.002523340817256821 
0.002523340817256821 
0.002523340817256821 
0.002523340817256821 
0.002523340817256821 
0.002523340817256821 
0.002523340817256821 
0.002523340817256821 
0.002523340817256821 
0.002523340817256821 
0.002523340817256821 
0.002523340817256821 
0.002523340817256821 
0.002523340817256821 
0 
0.002544641062137557 
0.001613676661632074 
0.0009992286047391819 
0.001015018223615704 
0.001015018223615704 
0.001015018223615704 
0.001015018223615704 
0.001015018223615704 
0.001015018223615704 
0.001015018223615704 
0.001015018223615704 
0.001015018223615704 
0.001015018223615704 
0.001015018223615704 
0.001015018223615704 
0.001015018223615704 
0.001015018223615704 
0.001015018223615704 
0.001015018223615704 
0 
0.00525462221812208 
0.005562153573025238 
0.006307099302482815 
0.006479432839211497 
0.006479432839211497 
0.006479432839211497 
0.006479432839211497 
0.006479432839211497 
0.006479432839211497 
0.006479432839211497 
0.006479432839211497 
0.006479432839211497 
0.006479432839211497 
0.006479432839211497 
0.006479432839211497 
0.006479432839211497 
0.006479432839211497 
0.006479432839211497 
0.006479432839211497 
0 
0.001835673132070773 
0.007834991513746508 
0.01320394408280271 
0.01509510769566863 
0.0156168710973096 
0.01611602299643707 
0.01665587039196943 
0.01689405126099201 
0.01722962643927408 
0.01736786653369627 
0.01736786653369627 
0.01736786653369627 
0.01736786653369627 
0.01736786653369627 
0.01736786653369627 
0.01736786653369627 
0.01736786653369627 
0.01736786653369627 
0.01736786653369627 
0 
0.00400836469014211 
0.005984311528891325 
0.005894874739995932 
0.00558956769329492 
0.005630377519125119 
0.005630377519125119 
0.005630377519125119 
0.005630377519125119 
0.005630377519125119 
0.005630377519125119 
0.005630377519125119 
0.005630377519125119 
0.005630377519125119 
0.005630377519125119 
0.005630377519125119 
0.005630377519125119 
0.005630377519125119 
0.005630377519125119 
0.005630377519125119 
0 
0.001556927357603607 
0.001666777640577473 
0.001666777640577472 
0.001666777640577472 
0.001666777640577472 
0.001666777640577472 
0.001666777640577472 
0.001666777640577472 
0.001666777640577472 
0.001666777640577472 
0.001666777640577472 
0.001666777640577472 
0.001666777640577472 
0.001666777640577472 
0.001666777640577472 
0.001666777640577472 
0.001666777640577472 
0.001666777640577472 
0.001666777640577472 
0 
-0.003621904300047468 
-0.004063913702704862 
-0.004342481843802483 
-0.004610280346000174 
-0.004610280346000174 
-0.004610280346000174 
-0.004610280346000174 
-0.004610280346000174 
-0.004610280346000174 
-0.004610280346000174 
-0.004610280346000174 
-0.004610280346000174 
-0.004610280346000174 
-0.004610280346000174 
-0.004610280346000174 
-0.004610280346000174 
-0.004610280346000174 
-0.004610280346000174 
-0.004610280346000174 
0 
0.0007367327961488971 
0.0009015509453962558 
0.0009015509453962558 
0.0009015509453962558 
0.0009015509453962558 
0.0009015509453962558 
0.0009015509453962558 
0.0009015509453962558 
0.0009015509453962558 
0.0009015509453962558 
0.0009015509453962558 
0.0009015509453962558 
0.0009015509453962558 
0.0009015509453962558 
0.0009015509453962558 
0.0009015509453962558 
0.0009015509453962558 
0.0009015509453962558 
0.0009015509453962558 
0 
0.003180366256168964 
0.002790850432478681 
0.00279085043247868 
0.00279085043247868 
0.00279085043247868 
0.00279085043247868 
0.00279085043247868 
0.00279085043247868 
0.00279085043247868 
0.00279085043247868 
0.00279085043247868 
0.00279085043247868 
0.00279085043247868 
0.00279085043247868 
0.00279085043247868 
0.00279085043247868 
0.00279085043247868 
0.00279085043247868 
0.00279085043247868 
0 
0.0007525522556461333 
0.0007740097023737377 
0.0007740097023737377 
0.0007740097023737377 
0.0007740097023737377 
0.0007740097023737377 
0.0007740097023737377 
0.0007740097023737377 
0.0007740097023737377 
0.0007740097023737377 
0.0007740097023737377 
0.0007740097023737377 
0.0007740097023737377 
0.0007740097023737377 
0.0007740097023737377 
0.0007740097023737377 
0.0007740097023737377 
0.0007740097023737377 
0.0007740097023737377 
0 
-0.001415680831726051 
-0.001751149308092064 
-0.002325373346943464 
-0.002325373346943464 
-0.002325373346943464 
-0.002325373346943464 
-0.002325373346943464 
-0.002325373346943464 
-0.002325373346943464 
-0.002325373346943464 
-0.002325373346943464 
-0.002325373346943464 
-0.002325373346943464 
-0.002325373346943464 
-0.002325373346943464 
-0.002325373346943464 
-0.002325373346943464 
-0.002325373346943464 
-0.002325373346943464 
0 
0.0008161050296888436 
0.001371920878917789 
0.001108731326755161 
0.001108731326755161 
0.001108731326755161 
0.001108731326755161 
0.001108731326755161 
0.001108731326755161 
0.001108731326755161 
0.001108731326755161 
0.001108731326755161 
0.001108731326755161 
0.001108731326755161 
0.001108731326755161 
0.001108731326755161 
0.001108731326755161 
0.001108731326755161 
0.001108731326755161 
0.001108731326755161 
0 
0.00243767315725357 
0.002154792436406288 
0.001948560545633607 
0.001948560545633614 
0.001948560545633614 
0.001948560545633614 
0.001948560545633614 
0.001948560545633614 
0.001948560545633614 
0.001948560545633614 
0.001948560545633614 
0.001948560545633614 
0.001948560545633614 
0.001948560545633614 
0.001948560545633614 
0.001948560545633614 
0.001948560545633614 
0.001948560545633614 
0.001948560545633614 
0 
0.003462167696373344 
0.004330588119372938 
0.003682550072110831 
0.003678578317868732 
0.003709285871237825 
0.003709285871237825 
0.003709285871237825 
0.003709285871237825 
0.003709285871237825 
0.003709285871237825 
0.003709285871237825 
0.003709285871237825 
0.003709285871237825 
0.003709285871237825 
0.003709285871237825 
0.003709285871237825 
0.003709285871237825 
0.003709285871237825 
0.003709285871237825 
0 
-0.007460271272735879 
-0.007878075215111106 
-0.008223091192231627 
-0.008223091192231627 
-0.008223091192231627 
-0.008223091192231627 
-0.008223091192231627 
-0.008223091192231627 
-0.008223091192231627 
-0.008223091192231627 
-0.008223091192231627 
-0.008223091192231627 
-0.008223091192231627 
-0.008223091192231627 
-0.008223091192231627 
-0.008223091192231627 
-0.008223091192231627 
-0.008223091192231627 
-0.008223091192231627 
0 
0.00257586800920071 
0.002829135536533691 
0.002347729925365342 
0.002069404232070059 
0.001856534941427751 
0.001784838933840058 
0.00178483893384006 
0.00178483893384006 
0.00178483893384006 
0.00178483893384006 
0.00178483893384006 
0.00178483893384006 
0.00178483893384006 
0.00178483893384006 
0.00178483893384006 
0.00178483893384006 
0.00178483893384006 
0.00178483893384006 
0.00178483893384006 
0 
0.0006443946023399019 
0.0006269809191820381 
0.0006269809191820381 
0.0006269809191820381 
0.0006269809191820381 
0.0006269809191820381 
0.0006269809191820381 
0.0006269809191820381 
0.0006269809191820381 
0.0006269809191820381 
0.0006269809191820381 
0.0006269809191820381 
0.0006269809191820381 
0.0006269809191820381 
0.0006269809191820381 
0.0006269809191820381 
0.0006269809191820381 
0.0006269809191820381 
0.0006269809191820381 
0 
-0.001839856603988822 
-0.001319826542424368 
-0.001055191490499106 
-0.001055191490499106 
-0.001055191490499106 
-0.001055191490499106 
-0.001055191490499106 
-0.001055191490499106 
-0.001055191490499106 
-0.001055191490499106 
-0.001055191490499106 
-0.001055191490499106 
-0.001055191490499106 
-0.001055191490499106 
-0.001055191490499106 
-0.001055191490499106 
-0.001055191490499106 
-0.001055191490499106 
-0.001055191490499106 
0 
0.000608672121479004 
0.001294329409818036 
0.001294329409818039 
0.001294329409818039 
0.001294329409818039 
0.001294329409818039 
0.001294329409818039 
0.001294329409818039 
0.001294329409818039 
0.001294329409818039 
0.001294329409818039 
0.001294329409818039 
0.001294329409818039 
0.001294329409818039 
0.001294329409818039 
0.001294329409818039 
0.001294329409818039 
0.001294329409818039 
0.001294329409818039 
0 
-0.001181636860069692 
-0.0007789584844051896 
-0.0006592919401176238 
-0.0007249896979175942 
-0.0007038001526843363 
-0.0007038001526843363 
-0.0007038001526843363 
-0.0007038001526843363 
-0.0007038001526843363 
-0.0007038001526843363 
-0.0007038001526843363 
-0.0007038001526843363 
-0.0007038001526843363 
-0.0007038001526843363 
-0.0007038001526843363 
-0.0007038001526843363 
-0.0007038001526843363 
-0.0007038001526843363 
-0.0007038001526843363 
0 
0.002854878300023608 
0.002613450244301461 
0.003790765003552407 
0.004087660012206306 
0.004087660012206306 
0.004087660012206306 
0.004087660012206306 
0.004087660012206306 
0.004087660012206306 
0.004087660012206306 
0.004087660012206306 
0.004087660012206306 
0.004087660012206306 
0.004087660012206306 
0.004087660012206306 
0.004087660012206306 
0.004087660012206306 
0.004087660012206306 
0.004087660012206306 
0 
0.000793376929547249 
0.0009930583305038949 
0.001102684932665302 
0.001102684932665302 
0.001102684932665302 
0.001102684932665302 
0.001102684932665302 
0.001102684932665302 
0.001102684932665302 
0.001102684932665302 
0.001102684932665302 
0.001102684932665302 
0.001102684932665302 
0.001102684932665302 
0.001102684932665302 
0.001102684932665302 
0.001102684932665302 
0.001102684932665302 
0.001102684932665302 
0 
-0.001594020893290406 
-0.00279607223109677 
-0.002412723397625899 
-0.002412723397625899 
-0.002412723397625899 
-0.002412723397625899 
-0.002412723397625899 
-0.002412723397625899 
-0.002412723397625899 
-0.002412723397625899 
-0.002412723397625899 
-0.002412723397625899 
-0.002412723397625899 
-0.002412723397625899 
-0.002412723397625899 
-0.002412723397625899 
-0.002412723397625899 
-0.002412723397625899 
-0.002412723397625899 
0 
0.000559662844904002 
0.001099793882196735 
0.001099793882196735 
0.001099793882196735 
0.001099793882196735 
0.001099793882196735 
0.001099793882196735 
0.001099793882196735 
0.001099793882196735 
0.001099793882196735 
0.001099793882196735 
0.001099793882196735 
0.001099793882196735 
0.001099793882196735 
0.001099793882196735 
0.001099793882196735 
0.001099793882196735 
0.001099793882196735 
0.001099793882196735 
0 
-0.0006326770832221566 
-0.002379673555757638 
-0.001874279720972154 
-0.002185028727493195 
-0.002185028727493195 
-0.002185028727493195 
-0.002185028727493195 
-0.002185028727493195 
-0.002185028727493195 
-0.002185028727493195 
-0.002185028727493195 
-0.002185028727493195 
-0.002185028727493195 
-0.002185028727493195 
-0.002185028727493195 
-0.002185028727493195 
-0.002185028727493195 
-0.002185028727493195 
-0.002185028727493195 
0 
-0.00278902140499982 
-0.003534455256459295 
-0.003655127749569531 
-0.003655127749569531 
-0.003655127749569531 
-0.003655127749569531 
-0.003655127749569531 
-0.003655127749569531 
-0.003655127749569531 
-0.003655127749569531 
-0.003655127749569531 
-0.003655127749569531 
-0.003655127749569531 
-0.003655127749569531 
-0.003655127749569531 
-0.003655127749569531 
-0.003655127749569531 
-0.003655127749569531 
-0.003655127749569531 
0 
-0.001277754219316318 
-0.001725664223118336 
-0.002693734851947144 
-0.0023888139307776 
-0.002049589338565388 
-0.002049589338565388 
-0.002049589338565388 
-0.002049589338565388 
-0.002049589338565388 
-0.002049589338565388 
-0.002049589338565388 
-0.002049589338565388 
-0.002049589338565388 
-0.002049589338565388 
-0.002049589338565388 
-0.002049589338565388 
-0.002049589338565388 
-0.002049589338565388 
-0.002049589338565388 
0 
0.0002367817049852453 
0.002976057208435377 
0.004406161080272809 
0.005358198973730933 
0.005747748374932186 
0.006137297776133476 
0.006137297776133476 
0.006137297776133476 
0.006137297776133476 
0.006137297776133476 
0.006137297776133476 
0.006137297776133476 
0.006137297776133476 
0.006137297776133476 
0.006137297776133476 
0.006137297776133476 
0.006137297776133476 
0.006137297776133476 
0.006137297776133476 
0 
0.001274096290568221 
0.002351455215330521 
0.001746626992846963 
0.001295232354563105 
0.001295232354563105 
0.001295232354563105 
0.001295232354563105 
0.001295232354563105 
0.001295232354563105 
0.001295232354563105 
0.001295232354563105 
0.001295232354563105 
0.001295232354563105 
0.001295232354563105 
0.001295232354563105 
0.001295232354563105 
0.001295232354563105 
0.001295232354563105 
0.001295232354563105 
0 
-0.002337552947222944 
0.001793137207229143 
0.003131875530436505 
0.003479750141662432 
0.003479750141662417 
0.003479750141662432 
0.003479750141662432 
0.003479750141662432 
0.003479750141662432 
0.003479750141662432 
0.003479750141662432 
0.003479750141662432 
0.003479750141662432 
0.003479750141662432 
0.003479750141662432 
0.003479750141662432 
0.003479750141662432 
0.003479750141662432 
0.003479750141662432 
0 
-0.003495679954669579 
-0.004334712662996792 
-0.005157905974640454 
-0.005414736232814302 
-0.005414736232814302 
-0.005414736232814302 
-0.005414736232814302 
-0.005414736232814302 
-0.005414736232814302 
-0.005414736232814302 
-0.005414736232814302 
-0.005414736232814302 
-0.005414736232814302 
-0.005414736232814302 
-0.005414736232814302 
-0.005414736232814302 
-0.005414736232814302 
-0.005414736232814302 
-0.005414736232814302 
0 
0.0008100244585417834 
0.0007813083520489947 
-0.001716395700084742 
-0.00387912779390305 
-0.003808182947634293 
-0.003818545540790024 
-0.003818545540790024 
-0.003818545540790024 
-0.003818545540790024 
-0.003818545540790024 
-0.003818545540790024 
-0.003818545540790024 
-0.003818545540790024 
-0.003818545540790024 
-0.003818545540790024 
-0.003818545540790024 
-0.003818545540790024 
-0.003818545540790024 
-0.003818545540790024 
0 
0.0006691728718039882 
5.46368742052549e-005 
-1.356846344412058e-005 
-0.0001197246943894549 
-0.0001197246943894549 
-0.0001197246943894549 
-0.0001197246943894549 
-0.0001197246943894549 
-0.0001197246943894549 
-0.0001197246943894549 
-0.0001197246943894549 
-0.0001197246943894549 
-0.0001197246943894549 
-0.0001197246943894549 
-0.0001197246943894549 
-0.0001197246943894549 
-0.0001197246943894549 
-0.0001197246943894549 
-0.0001197246943894549 
0 
0.004415929618116222 
0.006322621614999982 
0.006739169102022694 
0.006053693632783111 
0.003393173455952349 
0.001845106048242367 
0.001174055549263913 
0.0007812220958051048 
-0.0002086624283450179 
-0.0006334463584074103 
-0.0008664883381763312 
-0.001087023659616269 
-0.001206260605425291 
-0.001325497551234396 
-0.00144473449704346 
-0.001563971442852481 
-0.001563971442852481 
-0.001563971442852481 
-0.001563971442852481 
0 
-0.004077699434494193 
-0.0108600213004365 
-0.01533987620318176 
-0.01687134703717724 
-0.0173141743469045 
-0.01730131420990378 
-0.0172884540729032 
-0.0172884540729032 
-0.0172884540729032 
-0.0172884540729032 
-0.0172884540729032 
-0.0172884540729032 
-0.0172884540729032 
-0.0172884540729032 
-0.0172884540729032 
-0.0172884540729032 
-0.0172884540729032 
-0.0172884540729032 
-0.0172884540729032 
0 
0.0001977154255608375 
0.004036837685458577 
0.006681578526148171 
0.00619836354169246 
0.002935097812842478 
-0.0009174937954676693 
-0.005680263462763516 
-0.01069622560202808 
-0.015236810538829 
-0.02198266025335512 
-0.02596705930843347 
-0.02894574783507636 
-0.03130511057379194 
-0.03341051534225583 
-0.0343334176661504 
-0.03464849212681541 
-0.0355483163067128 
-0.0357232504733624 
-0.03567662480980879 
-0.0360632822166844 
-0.03605803538920516 
-0.03693333809787616 
-0.0416793417836139 
-0.0436750746477187 
-0.04381436242264097 
-0.04466677639185084 
-0.04597380152045732 
-0.04679796748584796 
-0.0476221334512379 
-0.04785403350759954 
-0.04785403350759954 
-0.04785403350759954 
-0.04785403350759954 
-0.04785403350759954 
-0.04785403350759954 
-0.04785403350759954 
-0.04785403350759954 
-0.04785403350759954 
-0.04785403350759954 
-0.04245956167464918 
-0.04042074467343205 
-0.03880830548260738 
-0.03902376706724855 
-0.03902376706724859 
-0.0390237670672486 
-0.0390237670672486 
-0.0390237670672486 
-0.0390237670672486 
-0.0390237670672486 
-0.0390237670672486 
-0.0390237670672486 
-0.0390237670672486 
-0.0390237670672486 
-0.0390237670672486 
-0.0390237670672486 
-0.0390237670672486 
-0.0390237670672486 
-0.0390237670672486 
-0.0390237670672486 
0 
0.002653508977559246 
0.003574832366231004 
0.002985488968650119 
0.002985488968650121 
0.002985488968650121 
0.002985488968650121 
0.002985488968650121 
0.002985488968650121 
0.002985488968650121 
0.002985488968650121 
0.002985488968650121 
0.002985488968650121 
0.002985488968650121 
0.002985488968650121 
0.002985488968650121 
0.002985488968650121 
0.002985488968650121 
0.002985488968650121 
0.002985488968650121 
0 
-0.004810967072282385 
-0.005481397048566281 
-0.00530424921489852 
-0.005304249214898553 
-0.005304249214898553 
-0.005304249214898553 
-0.005304249214898553 
-0.005304249214898553 
-0.005304249214898553 
-0.005304249214898553 
-0.005304249214898553 
-0.005304249214898553 
-0.005304249214898553 
-0.005304249214898553 
-0.005304249214898553 
-0.005304249214898553 
-0.005304249214898553 
-0.005304249214898553 
-0.005304249214898553 
0 
0.003317485849502512 
0.003322524092721588 
0.003625304406811281 
0.00383635407347491 
0.003836354073474907 
0.003836354073474907 
0.003836354073474907 
0.003836354073474907 
0.003836354073474907 
0.003836354073474907 
0.003836354073474907 
0.003836354073474907 
0.003836354073474907 
0.003836354073474907 
0.003836354073474907 
0.003836354073474907 
0.003836354073474907 
0.003836354073474907 
0.003836354073474907 
0 
0.000945644117090952 
0.0006741521362306862 
0.0006741521362306862 
0.0006741521362306862 
0.0006741521362306862 
0.0006741521362306862 
0.0006741521362306862 
0.0006741521362306862 
0.0006741521362306862 
0.0006741521362306862 
0.0006741521362306862 
0.0006741521362306862 
0.0006741521362306862 
0.0006741521362306862 
0.0006741521362306862 
0.0006741521362306862 
0.0006741521362306862 
0.0006741521362306862 
0.0006741521362306862 
0 
-0.002670310013963319 
-0.004108982554604668 
-0.004282497488176686 
-0.004163816798371323 
-0.004163816798371323 
-0.004163816798371323 
-0.004163816798371323 
-0.004163816798371323 
-0.004163816798371323 
-0.004163816798371323 
-0.004163816798371323 
-0.004163816798371323 
-0.004163816798371323 
-0.004163816798371323 
-0.004163816798371323 
-0.004163816798371323 
-0.004163816798371323 
-0.004163816798371323 
-0.004163816798371323 
0 
0.00234958102864449 
0.003833182031145451 
0.002000665730324024 
0.002016691264246876 
0.002016691264246876 
0.002016691264246876 
0.002016691264246876 
0.002016691264246876 
0.002016691264246876 
0.002016691264246876 
0.002016691264246876 
0.002016691264246876 
0.002016691264246876 
0.002016691264246876 
0.002016691264246876 
0.002016691264246876 
0.002016691264246876 
0.002016691264246876 
0.002016691264246876 
0 
0.005251852314849237 
0.006279180825696216 
0.003015816560457012 
0.001159428751813222 
0.0005752914608598366 
0.0005414012183497843 
0.0007216321176592534 
0.00090186301696875 
0.000901863016968757 
0.0009018630169687535 
0.0009018630169687535 
0.0009018630169687535 
0.0009018630169687535 
0.0009018630169687535 
0.0009018630169687535 
0.0009018630169687535 
0.0009018630169687535 
0.0009018630169687535 
0.0009018630169687535 
0 
0.0007676923325814598 
0.0031233337588499 
0.004752617912269714 
0.004879240101695203 
0.004999164843182748 
0.004999164843182748 
0.004999164843182748 
0.004999164843182748 
0.004999164843182748 
0.004999164843182748 
0.004999164843182748 
0.004999164843182748 
0.004999164843182748 
0.004999164843182748 
0.004999164843182748 
0.004999164843182748 
0.004999164843182748 
0.004999164843182748 
0.004999164843182748 
0 
-0.002835352376645566 
-0.00340102386666002 
-0.00340102386666002 
-0.00340102386666002 
-0.00340102386666002 
-0.00340102386666002 
-0.00340102386666002 
-0.00340102386666002 
-0.00340102386666002 
-0.00340102386666002 
-0.00340102386666002 
-0.00340102386666002 
-0.00340102386666002 
-0.00340102386666002 
-0.00340102386666002 
-0.00340102386666002 
-0.00340102386666002 
-0.00340102386666002 
-0.00340102386666002 
0 
0.0003249036499484393 
0.0007937987373930715 
0.0006156756354068214 
0.0004343278642880561 
0.0004343278642880561 
0.0004343278642880561 
0.0004343278642880561 
0.0004343278642880561 
0.0004343278642880561 
0.0004343278642880561 
0.0004343278642880561 
0.0004343278642880561 
0.0004343278642880561 
0.0004343278642880561 
0.0004343278642880561 
0.0004343278642880561 
0.0004343278642880561 
0.0004343278642880561 
0.0004343278642880561 
0 
-0.001341329334676405 
-0.001201671234673157 
-0.001682808247503021 
-0.001682808247503019 
-0.001682808247503019 
-0.001682808247503019 
-0.001682808247503019 
-0.001682808247503019 
-0.001682808247503019 
-0.001682808247503019 
-0.001682808247503019 
-0.001682808247503019 
-0.001682808247503019 
-0.001682808247503019 
-0.001682808247503019 
-0.001682808247503019 
-0.001682808247503019 
-0.001682808247503019 
-0.001682808247503019 
0 
-0.0008759080102683202 
-0.001681396438557812 
-0.001740631119851462 
-0.001740631119851462 
-0.001740631119851462 
-0.001740631119851462 
-0.001740631119851462 
-0.001740631119851462 
-0.001740631119851462 
-0.001740631119851462 
-0.001740631119851462 
-0.001740631119851462 
-0.001740631119851462 
-0.001740631119851462 
-0.001740631119851462 
-0.001740631119851462 
-0.001740631119851462 
-0.001740631119851462 
-0.001740631119851462 
0 
-0.002147365410784288 
-0.004256494567931421 
-0.003817809121817684 
-0.00398268780473304 
-0.00398268780473304 
-0.00398268780473304 
-0.00398268780473304 
-0.00398268780473304 
-0.00398268780473304 
-0.00398268780473304 
-0.00398268780473304 
-0.00398268780473304 
-0.00398268780473304 
-0.00398268780473304 
-0.00398268780473304 
-0.00398268780473304 
-0.00398268780473304 
-0.00398268780473304 
-0.00398268780473304 
0 
-0.0002185476332077329 
0.001062567796154399 
0.001910692036549548 
0.001503631608737921 
0.001788852214887987 
0.001645258861734542 
0.001501665508581125 
0.001501665508581125 
0.001501665508581125 
0.001501665508581125 
0.001501665508581125 
0.001501665508581125 
0.001501665508581125 
0.001501665508581125 
0.001501665508581125 
0.001501665508581125 
0.001501665508581125 
0.001501665508581125 
0.001501665508581125 
0 
0.0002015161621920918 
-0.001966404399409916 
-0.003914037290858872 
-0.005827775351615026 
-0.007399664371425948 
-0.006277960485910044 
-0.007573227423352483 
-0.007715636320987077 
-0.007800355651119462 
-0.007955067805502954 
-0.008296019880440887 
-0.00850120818447706 
-0.008573405978964872 
-0.008623937212748631 
-0.008674468446532286 
-0.008724999680315931 
-0.008775530914099624 
-0.0088260621478832 
-0.0088260621478832 
0 
-0.001267222325473922 
-0.0008994984633892691 
-0.0002374423398410905 
-0.0002374423398410905 
-0.0002374423398410905 
-0.0002374423398410905 
-0.0002374423398410905 
-0.0002374423398410905 
-0.0002374423398410905 
-0.0002374423398410905 
-0.0002374423398410905 
-0.0002374423398410905 
-0.0002374423398410905 
-0.0002374423398410905 
-0.0002374423398410905 
-0.0002374423398410905 
-0.0002374423398410905 
-0.0002374423398410905 
-0.0002374423398410905 
0 
0.004087420458759034 
0.005234497609891685 
0.004752209872915244 
0.004752209872915242 
0.004752209872915242 
0.004752209872915242 
0.004752209872915242 
0.004752209872915242 
0.004752209872915242 
0.004752209872915242 
0.004752209872915242 
0.004752209872915242 
0.004752209872915242 
0.004752209872915242 
0.004752209872915242 
0.004752209872915242 
0.004752209872915242 
0.004752209872915242 
0.004752209872915242 
0 
-0.0006992716068540801 
0.00103727281164943 
0.00118513576677499 
0.001185135766774986 
0.001185135766774986 
0.001185135766774986 
0.001185135766774986 
0.001185135766774986 
0.001185135766774986 
0.001185135766774986 
0.001185135766774986 
0.001185135766774986 
0.001185135766774986 
0.001185135766774986 
0.001185135766774986 
0.001185135766774986 
0.001185135766774986 
0.001185135766774986 
0.001185135766774986 
0 
0.0004951824864774902 
-0.001358226009842284 
-0.003397447203896399 
-0.005054095679833564 
-0.005586281537638455 
-0.007262381297663711 
-0.008000789367922498 
-0.0100479845213421 
-0.01121387020789905 
-0.0101714090831262 
-0.00958185259162265 
-0.01016786352732268 
-0.01038665736148741 
-0.01161335350696854 
-0.01327016555396647 
-0.01544931594602388 
-0.01766168759690508 
-0.01957105071033614 
-0.02159951120018257 
-0.02374789643151756 
-0.02585042743272907 
-0.02987242507212902 
-0.0330797580870703 
-0.03636854117287155 
-0.03836111082680046 
-0.03953371342694562 
-0.04051973485147151 
-0.04051973485147151 
-0.04051973485147151 
-0.04051973485147151 
-0.04051973485147151 
-0.04051973485147151 
-0.04051973485147151 
-0.04051973485147151 
-0.04051973485147151 
-0.04051973485147151 
-0.04051973485147151 
-0.04051973485147151 
-0.04051973485147151 
-0.04067376851312553 
-0.04032345315812985 
-0.03972115495118803 
-0.04199431143767116 
-0.04694820531170456 
-0.009176175727866307 
-0.01208729088692451 
-0.01340472438104082 
-0.01448323912070619 
-0.01550870868058253 
-0.01604099724185432 
-0.0165148195165521 
-0.0169114116851411 
-0.01714729985905724 
-0.01738318803297279 
-0.01755964646952951 
-0.01773610490608562 
-0.01773610490608562 
-0.01773610490608562 
-0.01773610490608561 
-0.01773610490608561 
-0.01662526757025 
-0.01838033422238083 
-0.02097831559399432 
-0.02176778776686243 
-0.004704592143709014 
-0.003877284431701755 
-0.003873668535696647 
-0.004286786995995042 
-0.004241397631182843 
-0.004241397631182843 
-0.004241397631182843 
-0.004241397631182843 
-0.004241397631182843 
-0.004241397631182843 
-0.004241397631182843 
-0.004241397631182843 
-0.004241397631182843 
-0.004241397631182843 
-0.004241397631182843 
0 
-0.002837839675733179 
-0.003392314772980915 
-0.002688368204388464 
-0.002745131887489591 
-0.002745131887489591 
-0.002745131887489591 
-0.002745131887489591 
-0.002745131887489591 
-0.002745131887489591 
-0.002745131887489591 
-0.002745131887489591 
-0.002745131887489591 
-0.002745131887489591 
-0.002745131887489591 
-0.002745131887489591 
-0.002745131887489591 
-0.002745131887489591 
-0.002745131887489591 
-0.002745131887489591 
0 
0.0008109815108348817 
0.0003599315572068179 
-9.10631963944136e-005 
-0.0003983207582721597 
-0.0003983207582721597 
-0.0003983207582721597 
-0.0003983207582721597 
-0.0003983207582721597 
-0.0003983207582721597 
-0.0003983207582721597 
-0.0003983207582721597 
-0.0003983207582721597 
-0.0003983207582721597 
-0.0003983207582721597 
-0.0003983207582721597 
-0.0003983207582721597 
-0.0003983207582721597 
-0.0003983207582721597 
-0.0003983207582721597 
0 
0.003877156727149267 
0.003712426052372621 
0.003712426052372621 
0.003712426052372621 
0.003712426052372621 
0.003712426052372621 
0.003712426052372621 
0.003712426052372621 
0.003712426052372621 
0.003712426052372621 
0.003712426052372621 
0.003712426052372621 
0.003712426052372621 
0.003712426052372621 
0.003712426052372621 
0.003712426052372621 
0.003712426052372621 
0.003712426052372621 
0.003712426052372621 
0 
0.001982033592827226 
0.001929876766928043 
0.002437185632062241 
0.002177026084079294 
0.002129574514048572 
0.002065184920065076 
0.002065184920065076 
0.002065184920065076 
0.002065184920065076 
0.002065184920065076 
0.002065184920065076 
0.002065184920065076 
0.002065184920065076 
0.002065184920065076 
0.002065184920065076 
0.002065184920065076 
0.002065184920065076 
0.002065184920065076 
0.002065184920065076 
0 
0.002847935848299147 
0.004658907011643775 
0.004168096434636488 
0.00416809643463645 
0.00416809643463645 
0.00416809643463645 
0.00416809643463645 
0.00416809643463645 
0.00416809643463645 
0.00416809643463645 
0.00416809643463645 
0.00416809643463645 
0.00416809643463645 
0.00416809643463645 
0.00416809643463645 
0.00416809643463645 
0.00416809643463645 
0.00416809643463645 
0.00416809643463645 
0 
-0.0006519938102649975 
-0.003950885778136279 
-0.004696084324556567 
-0.004464952870670088 
-0.004380097489645783 
-0.004206955709116088 
-0.004102931308399136 
